0.052383188126828205
0.005153263514527581
-0.03717824446215367
-0.0027840031576612015
0.0003059526278214822
0.05035485990324234
-0.0032831541476899843
0.01775066560639657
0.047393580652042785
-0.005112107403689435
0.0032776225753416333
-0.024429064199158558
0.045167996397694234
-0.007097914438445045
0.0019624033816609296
0.054778128404719455
-0.019846672126236715
0.009543409078011444
0.004725664952826841
-0.146245005369268
0.008793195662508276
0.04087340963839776
-0.009471048721851264
0.09784185778764849
-0.06583475191016296
0.20179230764832598
-0.010074500263361309
0.10261800986777368
-0.03356444596750586
0.05970311613583916
0.0920529900845516
0.062703598551564
0.08301882884646906
0.2069284396196941
0.17088740000977784
-0.11082593090297074
-0.045813104358989755
0.0061561129903728645
-0.1005254362379512
0.16397213909463074
-0.07652952127124782
-0.006543042977060617
-0.062100344320657946
0.1937714625335941
0.020830002999628047
-0.08496815579737609
-0.025214959057451608
0.15085752361855453
-0.06990812892725463
0.01440172324147733
-0.10386890318933915
0.061423738438363955
0.04967753962683236
0.0043442487993148576
-0.13679914430847276
0.08491208998448643
0.022581619354203497
0.00953414882876825
-0.10439696255509509
0.04766114697331945
-0.004273452145662037
0.0023725673919907917
-0.06802693996184347
0.048185180623117274
0.0030894999504983717
-0.011487922428096813
0.033309125721272245
-0.14348218283734301
-0.053009650305131426
0.007298752917280754
0.06286359247110519
0.07487117930664744
-0.004211433501569495
0.010879287961306102
-0.016713084265749096
0.0023820001280647524
0.06664239259226137
0.08685815867491375
-0.19042164651455815
0.004224050539823198
-0.11201980215247313
-0.10076301465744143
0.028797695797138333
0.367571771441359
0.0026599960020517012
-0.058459310905527806
-0.016621214127590628
-0.06648373717924219
0.06341960125731019
0.0366221844190891
-0.025170149596018956
-0.07720391605601938
0.10525096077927655
-0.05513979563305907
-0.08469144574841804
0.0694075288390999
-0.0005354825102949933
-0.005367201347984805
0.18647157012437926
0.03447837551961628
-0.08183122638792621
-0.053065268134779485
-0.09027930332002644
-0.019402141505369324
-0.05352703731912643
-0.087249694246192
-0.09671570646925856
0.19105359191509538
0.16775250440845302
0.11779336202504083
0.035673534847738636
-0.017720214480158716
-0.06835242421116797
-0.010038121740158818
0.0025279457704237306
-0.05408309155188933
-0.11083317923101106
-0.020488579974611513
0.14910000234594084
-0.06587608064017268
0.017851448575421425
-0.0019617266493307858
0.008486067687911623
-0.02898965873949167
-0.0019322225539780576
-0.1408672860273456
0.021264634457521345
-0.0842780418975495
-0.0003363170417547262
-0.03223542722926499
-0.12128831045788313
-0.06959866149046237
-0.132694625116874
0.15737375843506618
0.06817328848300307
0.13712467143240678
-0.2953255687290158
-0.32041919409592
-0.06343309126155432
0.019574090873037346
0.194767142765613
0.010363609706128584
0.07646641992738266
-0.13132272446616175
0.06418675754483626
0.13450721428050613
-0.11310642661818891
0.03633187201704696
0.12384256254305383
-0.12887469962184323
0.04964002737455914
-0.06568891446418589
-0.0016143166805377518
0.14411342325398757
-0.16320687924566976
0.05477091630402465
-0.041080948849956514
-0.007656381397408189
-0.1307759882983072
-0.021560573537284387
-0.23887975170146267
-0.24897653139593498
-0.08532553544387562
0.04471321426309205
-0.0249353141130662
0.09503295658832274
-0.07017686333319205
0.002828576367135491
0.03823177440536636
-0.11083870270362305
0.1990417302720973
0.0037371218288730318
0.009686171506131344
0.05486787645831952
-0.04958280250041208
-0.1711782982747816
-0.00897413132403318
0.047769203742061644
0.005372415453518724
0.04856864536578212
-0.04079996517539434
0.005992111471272275
-0.024269159898551388
-0.12825600879352764
0.1294344244586001
0.011563423928397066
0.1262880930199846
-0.12547228270310723
0.06911445476151017
-0.044515917275474645
-0.04047441354973165
-0.049925177418785105
-0.23073807464186644
0.009750361373868227
-0.06413478917772457
0.0903110444459596
0.16218017453277678
-0.03447177164882767
0.0025286247690118886
0.05336728097764453
-0.13101536949304535
0.20017173992059661
-0.22095321580694277
0.014458507895295495
-0.19432395178281409
0.1295370472872535
0.037732688875703094
-0.02270882227231382
-0.13009745246145543
0.00017179266328576885
0.004061946967826506
0.11676241476503998
-0.1247386433278263
-0.029361761740124608
-0.25000194473465054
0.011048284756709732
0.012400090631764601
-0.17944552198826916
0.011983659381783794
-0.06770666881531592
-0.14801099035644563
0.0594100729362964
-0.10310425525243028
-0.009785462687753948
-0.0009932340187544066
0.019030107929927223
0.044456323360336364
-0.01164899367224831
-0.00015769650591096034
0.1237813364254022
-0.0011009411075660594
-0.10302108668473796
-0.023310446879216004
-0.19513934179719608
-0.04464500316709948
-0.0639304668873149
-0.06882654587302454
0.04890805039715268
0.0297362085047686
-0.262153040076
0.02058428885680497
-0.052281776645781104
-0.01586587064094251
0.002349596630835171
0.05596969556859177
-0.13000195552655328
-0.18505766713927596
-0.16070584928703713
0.1607855505544486
-0.00213957612030252
-0.0022721206848524862
0.1331889550337382
-0.01959170256560667
0.0010725999672937926
-0.07547901551497344
-0.05042776482682258
-0.05787324432788903
0.08907321062441938
-0.028415013671290717
0.08843665664391341
0.0078063859133485555
-0.16623443353729578
-0.06403796180189196
-0.02081226029917496
-0.014637763054525636
0.004732694338456695
0.010222057968260383
0.0002467369669606568
-0.0026664796923959876
-0.047011607967037704
0.005387419385964891
0.1337080779586539
-0.15019693198315037
0.020257358311609373
0.08074386683729891
0.05582665069164843
-0.027940734575972934
-0.16177754287702523
-0.0008731493853749829
-0.10753512130730628
0.14769922684435743
0.16668622667296695
0.18278757815460275
-0.12071580827555013
0.007509362199365989
-0.022496668027172016
0.18325988411312297
0.04934219173333778
-0.08968818681570705
-0.10511473648395663
-0.3310339756404239
0.08792802967798426
0.3425204622616121
0.16780577128808064
0.13714903363064065
0.043770955179705986
0.04532687252031894
0.2427666230283182
-0.17222291294506303
0.04384801495220839
0.004174090197438687
0.03031495163069431
-0.12196907633324516
0.05138222098158104
-0.14674701660569628
-0.17010079823849772
0.1348834101824497
0.1335642455674817
0.08219886146430759
-0.04636574028464466
-0.10648248140003959
-0.0411607967904721
0.25298245337022857
-0.06987056514056197
-0.0734977770776108
0.17216140362121088
-0.034226348807437315
0.15369858908386252
-0.08990207653310178
-0.0439351397264207
0.03873170557531984
-0.013783267130390669
-0.09765970961165488
0.010551223608249094
0.04492337730715793
-0.007859997587491731
0.046894959686996265
0.12680836543895702
-0.16544314250997522
0.44732379791564164
0.012860168012803354
0.013926925767148811
0.016964693705551127
0.041940326962933205
0.044436246550038534
-0.012122469276985466
-0.051004157387800016
0.06397019097580538
-0.0078101212001539045
-0.0944856690210572
-0.22608757135320862
0.12474851662123082
-0.08720969617626667
0.0005391862545624841
-0.016180106457246334
0.002869489441076889
0.16380374764524824
-0.08356329355206209
-0.087738154872829
-0.09605195340270294
-0.07640654909814275
-0.21312602282256013
0.38069563645120374
0.07873220428997905
-0.00518350183920736
0.05116818026623812
-0.155117369698857
-0.08350495820500581
-0.0015012228637361685
0.001939949816061989
-0.1988822924039512
0.043603016769085096
-0.11456219020943487
-0.01785886493846111
-0.0192097921050643
0.09282503603131942
0.14601137235747055
0.10215274770681042
-0.26410855089246077
-0.20277735653975967
-0.05416035340005192
0.15321734344623947
-0.09089880789744585
-0.08969345189122131
0.05616337375135084
-0.08247886244225265
0.05121798428264035
0.10204299160941126
-0.2233202876358893
0.08546867169743286
-0.024037040254762408
0.0800257646410759
0.12322453283974753
-0.07927530804270601
-0.005989628597143145
-0.08687742244735576
-0.20502717197033726
-0.017154893224290407
0.14503233112241543
-0.037768905360269354
-0.0023295929298742164
0.046355080270536794
0.036543349075604664
-0.0470418073554495
6.264722752712184e-06
-0.051109677117180265
0.10075210305504188
-0.06146247629978864
-0.25480056076515345
0.013361837397538552
0.014918740140870907
0.039921479216174664
-0.1798738798243039
0.07427574232714479
-0.2244946247778
0.07530183646951075
0.061755259217384575
-0.1411266553673238
-0.06781488173651706
0.06539256582239406
0.014800251418635195
0.12784942938567517
0.13620737630060165
-0.18115615850119568
-0.0825176285601639
-0.11322075364880108
0.06563600653432175
-0.013551129182422373
0.13265199377403414
-0.17893814625407042
-0.2370359919504612
0.019787666126999733
0.09616356789634145
-0.2995121557393182
-0.024685061200053773
0.0445803748967349
-0.031552056612579656
-0.13061841015400685
0.07966192566443737
-0.29702472346842795
0.0820639993104011
0.003735802059098344
0.002031493618747649
0.16213992841377056
-0.24566161982679954
-0.0029433747791736595
0.13354940309594177
-0.020650495325763966
0.008013167001127974
-0.12964030747042712
-0.004110434673618769
0.1596421594451088
0.15790440296924907
0.006764392293634993
0.052835361520405084
-0.021540627433353454
-0.0805635328697036
0.001621023933993191
-0.053149401514700566
-0.05398392345711878
0.01077053528619293
-0.03958433504454212
0.18471274735195323
-0.022731067007306486
0.00414199858815023
0.03311040090024207
0.011371902629767788
-0.0963674829950316
-0.21792500652472624
-0.12682774902852081
-0.037160800985179654
0.062029748823657284
0.007549559714025613
-0.06564065632715692
-0.00978275981749455
-0.19585169800025218
0.1476599590599058
0.2985579369027755
0.0676951618004418
0.0257041340004246
-0.04274085228195124
-0.19347100006510595
-0.07531047549567067
-0.06350139469978582
0.042636645798710404
0.13685268327388705
0.05090505218465161
-0.014645631458651425
0.03039860798126498
-0.0010251662675426307
0.03554124290377079
0.10031500336615667
-0.01311265182502693
-0.05980575782591062
0.18003807270405214
-0.129496747895886
-0.02182080452721659
0.0855125978068384
-0.025126395090039645
0.23625985525317963
0.20152275789737023
0.07958229243778131
0.1698191378266999
0.01118755459305616
0.14332004845365848
0.035637583616671104
-0.00433434454297801
0.1119451955855063
0.19172246877327578
0.08009489953296961
0.07488739438692482
0.04262128042309263
-0.03331428800452077
-0.27896148876752835
-0.22572430005306918
-0.09578116819379189
0.0919047118257617
-0.09432881507160541
-0.028938003110860568
0.0022349966688135015
0.09103459349973529
-0.02931292366910151
-0.06782446255422715
0.010643919965503904
-0.024362071821329094
-0.03959045270088424
-0.04228267309733681
-0.1797394293384911
-0.2865387259580318
-0.011501499339828613
-0.005394713338243306
-0.020551237621842675
0.06630531792634746
-0.01643229598794889
0.008066619849522184
0.04452117254654385
-0.20563466604465308
-0.04797439009238437
0.1116690040554308
-0.004350393565663447
0.07289022156134055
0.0385042908621433
0.11677070293018464
0.11186814333668073
0.12218215176366264
-0.011233103631869438
0.04883564172183992
-0.13836429807637834
-0.004709174464509571
-0.0009160835957899434
-0.04181141001920913
-0.058448910150239106
-0.1263412240451275
-0.04506273939607253
0.015166715764211674
0.13216077957806185
-0.1552133616173237
-0.028868228237049338
0.11261963045363431
0.05997524928201155
-0.1531011374287086
0.22461916465345907
0.10396861073180064
0.18771989043524706
-0.058558414575073096
0.09600493445393887
0.03895768087531939
-0.04343413355988954
0.01820778046993904
0.00473880154491738
-0.042105481615017974
-0.037775679157160874
0.05094292998591095
0.008399491609448601
0.004296097531513682
0.08398246214280067
0.3274985053315671
-0.2982773969277125
-0.24756269022517222
-0.03152445242899754
0.3663043151750243
-0.046526730381963984
0.015464612151380433
-0.055517016907029884
0.05855846682406785
0.04523964204162329
-0.0836810716875117
0.10874525525764317
-0.033217400695342625
-0.0024881030408140685
0.05562404173729172
-0.028951245473587975
0.0009367288631044716
-0.1667769559240471
0.029834335545249512
0.11448148637068281
-0.24064695592755986
-0.019769900635436384
-0.02787772831259265
-0.014912346815921905
0.05229903730830871
0.10315580032033353
0.18995497653555088
0.11543728423214686
0.05296370151046182
0.1132997273809118
-0.009246227954930323
0.009630560995267788
0.010582586741422
-0.0024418948273289306
-0.0011800204992387087
0.0027944170849658894
-0.04439292828527749
-0.0426148449204085
-0.009208951007023247
-0.3173816315539799
-0.05734264512299209
-0.24339681719034986
-0.009217634070683406
0.07212683832014948
0.05555410898164971
-0.26854453670814826
-0.017063106920562236
0.027608441191418413
-0.024816784881263446
-0.017497096681694444
-0.11151343693311273
0.09690495172531303
-0.04803043708253529
0.00038976117023575233
-0.10165807934529397
0.003644087745519597
0.006839725073526623
-0.038312718516469446
0.16477505237899473
0.021883818321648863
-0.20539447288943025
-0.30766062607152844
-0.09840505156528914
-0.02186188734105431
0.005927121818330657
0.09980988035569685
-0.280759096991794
0.05652633627549123
0.17182738734856173
-0.04571584444373707
-0.14107490530619823
-0.08999597302458404
-0.10258945991961411
-0.07130644545961665
0.08552646609472428
-0.09953563714471832
-0.004369041993387941
-0.05608525793580288
0.1933416706204145
-0.09966809562600157
-0.006722416621285606
-0.01777888989662081
0.11324580650728913
-0.1051405100727946
0.048302619645658545
0.18302169247555616
0.10388981140005558
-0.009391452495193827
-0.20615640017484402
-0.030527018086500695
-0.17430621748019132
0.11863756361051302
-0.07557167343213092
-0.00016521684560119344
0.20826910780645647
0.023994033669642208
0.15147190352950593
-0.0766656964475394
-0.006451553555134345
-0.010440708644243067
0.07130999160810174
0.02947717941202846
-0.41154359488602055
-0.2505107927929488
-0.12286234065870866
0.0802634278155857
0.1444063100578633
0.02071402217873823
-0.10040873302218921
0.09488921269538839
0.025975547616118158
0.1661418721769517
0.12629169560126058
-0.05580843220131824
0.016481046786821486
-0.09560872685180663
-0.03314967944111997
-0.2334577497441416
0.04808669351113087
-0.059487946449235024
0.11607354735180325
0.10702134904230093
5.3451367427034694e-05
0.2008202616056888
-0.043309988387708914
0.014331144341787633
0.145180964519944
0.006016735321197751
0.0357926874334584
-0.06439443645464622
0.10908010710612981
0.07099234183952416
0.02965692411455756
-0.22297054357771007
0.21037473372274895
0.1756939213444379
-0.007869119515796308
-0.03434468527859192
0.060838102375644944
0.018185153047038865
0.05286198052829107
-0.017860811239386064
-0.10258580596734314
0.014147273368162202
-0.011988949524832752
-0.025396299801498448
0.06663268164926753
-0.05145707699518609
0.04834031559723078
-0.0026635800593425543
-0.09276739903314488
0.08845257036303755
0.06705790890557149
0.1471804709053963
-0.20139694750226528
0.024718013586728052
-0.04724750410023767
0.12269764150487765
0.0580051886976859
-0.0011866297556553946
0.00645205309532392
-0.36571673475393535
0.024625484044033495
-0.027188182057360358
-0.014416786809204994
0.06094673959381037
-0.034705333831505314
0.08653492994838731
0.028018173756317283
-0.01682541936994606
0.18853885656498387
0.035147707470467
-0.0124591511138175
-0.03781950907653221
0.03278857757552544
-0.16838890556395456
-0.05442436713140868
-0.0766932465102945
-0.04907859664316316
0.07502129969174566
0.11546789929872528
-0.05817658648888364
-0.07304018634978018
0.031108094287736886
-0.026494972448057274
-0.2209037288673043
0.08565619227481225
0.10644547493551756
-0.008355212575225417
0.014139290508836543
-0.05392750722636329
0.022938941772578877
-0.01656493123167688
-0.08986377921699104
0.08097237178198731
0.07232598209051318
0.11116952696274625
-0.00010003310687527428
-0.08722590159905182
0.08721374053405706
0.006105823200980764
-0.032865939853388086
-0.013239823847625152
-0.00029374629494961785
-0.0312643905549954
-0.13472358179085026
-0.029070371300867908
0.019082661611196716
-0.07192176046769688
-0.05838841196519709
0.053726633441534444
-0.23760270980538922
-0.08165223918186093
-0.11016718654882306
-0.018051621300528058
0.0007958801381038099
-0.10228072773527505
-0.003083737136713173
0.1011946953390958
-0.04162807345427252
0.062426130951849075
0.09069931003221506
0.012488894622724164
0.2527774410131662
-0.06781893047177447
0.055419448597677674
-0.06263772714759622
0.1345319425655394
-0.12609654650931668
0.10764989323134845
0.15003759916756162
0.002120093649003348
0.04892069622829916
-0.19670440144776413
0.11178029161401366
0.08108642641674466
-0.1009380360227641
0.046471739080956385
-0.015702278541592986
0.009679106258170504
-0.029729073648752023
0.10885531327673874
-0.16034486066754097
-0.040784138252842876
-0.016343065944235857
0.26690865008448544
-0.033027349865188634
0.1151054915135231
-0.10180487607742227
0.07533187779289924
0.029884184429424237
-0.005091779990422564
-0.23159734521379652
-0.12006131699512633
0.08687005904582679
-0.03371148257667767
-0.18447112442284427
-0.23738681136974837
-0.1434668967763547
0.10449718470276594
0.015192051179332564
0.03701828808368198
-0.06863788522048977
0.030354055115902757
0.010208331112165542
-0.03273085196146281
0.11309833514250665
-0.048877105850080836
-0.09457017031485004
-0.10413012059729118
0.001442958952259091
-0.08206187681763681
-0.1863401664356604
0.22621225911623172
-0.03818200238978703
-0.0723699426690193
0.10224569846780006
0.10292186362253139
0.009171451039982485
-0.09083252976234187
0.03728904213023543
-0.13738671977840938
0.31847459751179436
0.04270072278518757
-0.049146446441424414
0.1443869820637076
0.03906006066611206
-0.08418356653240387
-0.01499106876144415
0.2902025635821664
0.201658770126844
-0.00110552821913196
-0.11908367508148636
0.005050145650661732
-0.3031320723744506
0.04539343436666766
-0.2928672934914051
-0.04858676609194486
-0.15776441942533106
-0.1798587023389649
-0.0867761714345068
0.4081331061246116
-0.12752608895780676
0.043457748864612775
0.01454640120954644
0.1917217064261737
0.0554370610903622
0.2668434074376579
0.009118111095989274
0.03343343934866666
0.05958439200114754
-0.002008308594190895
0.10886088313450634
-0.19127009905797393
0.009184388805311045
-0.003815810127359194
0.08234254209474613
-0.0769507434874855
-0.014408509388468722
-0.10200931733036998
0.14077748181104366
-0.018706455296369752
0.060918922101478166
-0.07472441895755488
-0.04988038317969411
-0.1378798460597779
0.023855422599446605
-0.15398122397828612
0.017498314515063226
-0.008753155864588663
-0.03155172851442881
-0.029056944622696885
0.1608778314913936
-0.004383662711125469
-0.0958257823608107
-0.0487121885096858
0.0033488612187179976
0.015681405555416954
0.1276240440909347
0.05253856862008108
-0.0756529581377226
0.12500151896211054
-0.07203513799553003
0.524139627913739
0.327035720578406
-0.22459143342353236
0.367092617149243
-0.21247514937753026
-0.17430351079889592
0.16105866677250819
0.009978445016455522
-0.07409959291061473
-0.08448635783095518
-0.0922011362370775
0.2901648417054029
-0.12145966441472246
0.15588255389848485
-0.1018301803064179
0.10328813966147268
-0.055637703173138445
-0.08561370927033447
-0.0505485849676478
-0.37152754384149783
0.22123980244329464
-0.00918861703866991
-0.06652333582936622
0.014676626160676285
0.001160796121985131
-0.009150582617289574
0.14678321578822512
-0.16266309089313727
0.1257123957773482
-0.2612922505831374
0.004309433401926684
-0.010386099244522166
-0.2399320560115438
-0.027632060073548646
-0.03794276225116758
-0.03550759756764724
-0.042505099544079904
-0.006868371293124918
0.02495914696138118
-0.09797330288406948
-0.007661440089407977
-0.12393221463580367
-0.06282022709444925
0.0768749610938558
-0.14134623953274947
-0.03678173979616577
0.16170173145007988
-0.03014708372340321
0.341094369783101
-0.05758726827894205
-0.06231927777033913
0.18846658250092668
-0.2269985342401151
0.0007750812000873066
-0.24884282468143915
-0.18176127985307725
0.03881161997454883
-0.05816998540363613
0.004750224071087135
-0.15275172395250874
0.1598675107259592
0.06641423900888457
0.04770793514894695
0.1568884325207091
-0.20416826744516522
0.25693797842573274
-0.28907533272432384
-0.09638450733247289
-0.0841138292726381
0.009244987186183523
0.25318421210991077
0.15187657672596103
0.06821167141805318
0.048470531577028936
-0.06722933028958061
0.010506976379135667
-0.11842090496754536
-0.020719599815036596
-0.06660270759030891
-0.20042885695336823
-0.0571593553588674
-0.004514437473977446
0.03398192263238838
-0.08490365511116844
0.031717259311455984
-0.07598115606929307
0.013436722515503579
0.0174494146473088
-0.0774708472955834
0.1472972139989432
0.4669689968607011
0.0038997828479608635
0.09806679509257728
-0.02124892683452385
0.04086941605846269
-0.07630370863174826
0.001475631935173133
-0.13795265969720333
0.4502080510416773
-0.03541501843113559
0.07244476295852191
0.028226700884563104
-0.04650626049165277
-0.014919726411316434
-0.047525322174934874
0.17998727944164433
0.022492634221498633
-0.04732985314852774
-0.05544302738029627
-0.2995699198463163
-0.17384541002757453
-0.05263178763568104
0.12561710708348534
0.050964763130822
-0.11339811042017846
-0.0400350506029564
0.00264065120442785
-0.025692511927672235
0.10801793646324036
-0.018554274465046997
0.5115235818505214
-0.02588163817206937
0.4275564145371534
0.0435806703435223
-0.18101569630756856
0.027261052636039878
-0.07139256914146014
-0.057296547649963024
-0.3522917662368653
0.3454932874706911
0.15420218647849296
-0.1891792400896757
0.057425421317723276
0.006133588485767419
0.04724173588737594
0.11751097261323953
0.010699909570717325
-0.12340628626709065
0.062005411123794346
0.0032793380009947205
0.1424151584741468
0.07290720178813613
0.1807953569024212
0.01068166866016583
-0.05887252120492539
-0.15480688614129648
0.027096698135152513
0.001591094099040988
-0.08458820377367672
-0.1354164972893722
0.05019832213484572
-0.0574200821070026
-0.06632033097953775
-0.19538106875767441
-0.2913001662708291
-0.08564979315159114
-0.1967100410935043
0.3501600748713697
-0.26426063155130497
-0.01750678120895075
0.036413519491760075
0.00031893273480172155
-0.12330123360593087
-0.04370870230802595
0.12847076328191692
-0.2221564257250884
-0.0835093722053769
-0.09777909798248552
-0.13312833471159433
-0.20553421497104882
-0.03245646732413558
0.03658073349970307
0.005840508029207251
-0.04478168018790524
-0.1279184910357637
0.040899533490476266
-0.29823822635132846
-0.1309023672550425
0.027853441085805578
0.10623454236108155
0.03521199820256324
-0.20810262144833158
0.18430334371039167
-0.06215130860581853
-0.07078019514724133
0.09549700604348736
-0.02726186605726156
-0.19171924888963798
0.11125794700095486
-0.16379120193620117
0.06829956993692331
-0.21108626945529577
0.4164111377635893
-0.0773192580823505
0.06122696237006549
0.10452560605105804
-0.1198180353755681
-0.15906606015572455
-0.029017559569036865
0.005970218453524848
-0.016516404232753232
0.3061750412610325
-0.04581655842453006
-0.13451091540036145
0.11194715632408497
0.06392315948453567
0.1312034517233136
0.017541087981748586
-0.17977568793777154
-0.030022200307074375
-0.015184871805822822
0.09774221672943022
-0.0518407111754266
-0.06607391011000936
-0.006988890470184142
0.01296210517949637
-0.19973564150523787
-0.002143292522620694
0.04367877421040065
0.022992034538891308
-0.0027928544000231136
-0.12647002544478267
0.02929479213857418
-0.019365275017317402
0.06549378286913715
0.0769360384690471
-0.0211883882585444
-0.020334297905239804
0.04002037496634102
0.006302106563222159
0.2258027323097587
-0.10029377261049015
-0.0631677304674969
0.21936730252641534
0.0732803107957175
-0.022184241866604656
0.0014053074435621793
0.11872821756559658
0.05614203353204392
0.027799522585334715
-0.1475304551020148
0.16273017349586646
-0.22514644265995049
-0.14550420090910177
-0.2073775210852704
-0.22325710616942496
0.017749247063362127
-0.08592033914222758
0.15361036876257875
0.19152528734679825
-0.26774929354640536
-0.18319630294837452
0.060703456492617734
0.025807189317440297
-0.008712171121595579
0.06851486634664808
0.06225923368812365
0.10352629168849341
-0.27560823900795706
-0.475272304240837
0.21743194642751298
0.042649364851877335
-0.08082676376159022
-0.006405159725673767
-0.04016274089735339
-0.04352821797862941
-0.13498189789113912
-0.2618346896830202
0.13977207100150274
-0.30919360258471285
-0.13020013549466558
-0.09214718153219671
-0.27944909848067956
-0.005459243835869708
-0.03413251066343477
0.03743569240422861
0.014589369699159397
0.015170828903156396
-0.06666503600602927
-0.053310408907677284
-0.003441828430266642
0.02223939995427846
-0.08327004191716454
0.12963669007649511
-0.011491471443925936
0.12127277156218018
-0.006881603010907727
-0.002687015276868025
-0.02159927520548264
-0.17201257474829476
-0.0006355620857254488
0.10942647120671435
-0.10144050404623194
0.026414811327374645
-0.01805282784635848
-0.02022924541375909
0.0640846466245873
-0.058083911450652524
-0.13644797396771235
-0.06120662867152756
-0.08168494796842704
0.05897974086214025
0.018313105212985223
0.043267895826703255
0.036361978560278826
0.07461464540845877
0.15079195152668476
-0.32502942440684046
-0.024338445963178287
0.10884770165898248
0.16159182727360782
0.35209086921700045
-0.00518530546925902
-0.038450791694534116
0.019288032230970316
-0.014322739328231896
0.06372525180485794
0.06504024449636191
-0.00040246763527123936
-0.20583120577848366
-0.021546119504059828
-0.0006250767625507762
-0.013802470640934289
-0.013206033130083835
-0.007580055784829644
0.19407660522609999
-0.43191983719851945
-0.04952053383097205
0.020656706453821127
-0.11410154741977363
0.024250978920178877
0.10963354808147648
-0.079962100652181
-0.142432672918361
-0.1287294414420311
0.025168992046116882
-0.08013719363442535
-0.10077608577685028
-0.10927338884397594
-0.10205910312490589
-0.16895295674071376
-0.1233397444417417
0.008642679006428039
0.055695284758897956
-0.0005068675739507918
-0.12333393898933623
0.12343476363089838
0.1666334444201647
-0.01136077623809225
-0.18678317599446748
-0.04552912759293975
-0.08518982869365467
0.3031645324232474
0.06231963797426411
-0.042630732566991625
-0.004794646808269669
0.11987895111674439
-0.08617088335235641
-0.03231840470477365
0.08280376060378403
-0.16305973949007793
0.1030041415577797
-0.003364676585536406
-0.04832332816542561
0.012928690784807571
-0.16691851778091152
-0.08360764833483901
0.059667657372762216
-0.08853899994029935
0.1812820245281505
0.024688978918768277
0.17468237179003043
0.12433969676742702
0.17634664834714886
-0.01631112584058828
-0.0808367257061631
-0.08922174915259717
-0.004980467129280655
-0.014790825777409047
-0.09704806693153696
0.15150474089230384
0.02992521035958952
0.29015316715613737
0.20686419736634473
-0.10041755194739767
0.17893498141893943
-0.15001358198006526
-0.2773211238630213
0.21792524821611947
-0.06375045880250559
0.00688095980905906
-0.07351165587161623
-0.10967988683074631
0.059419409429670667
-0.02704710121053547
0.0007928183013361517
0.09940348174660463
0.22135929400329402
0.06870270862447013
-0.022303174616831727
0.0070622551371624315
-0.0129330165586295
-0.07962661051908983
0.009507948425772775
-0.05399605824361363
-0.02346990091494447
-0.05049097069395774
-0.02464413324299177
0.15156440583314343
0.10228672896334257
-0.03947877157066635
0.0067346412044583855
-0.04253832432696857
0.04035840516437992
0.1203882681556966
0.0870512556800877
0.027230270310416107
-0.02792981204550424
-0.2643984937633371
-0.16254798115391625
-0.07803725161855812
-0.021651451628694852
0.3084914943802444
0.37567660346349563
-0.177103475069506
0.01669710272947578
0.14443246191539458
-0.058322206401969084
0.1478113841168995
0.0333229315337733
0.23987625489049702
0.08472534256104608
0.05966940411538699
0.06841531747463238
-0.09331509434159427
-0.1968777572830781
0.24433110701823546
-0.13805501231698766
0.04852560982742564
-0.2904154934683041
-0.01657609296754542
-0.18840559690213884
0.05845097284875995
-0.5128057780710679
0.06696907935522037
0.05399458294193823
0.14354844583713197
0.024496041658175986
-0.28015025096822765
-0.07005698202553745
-0.08218605434252406
-0.08147980956376627
-0.025500615775898357
-0.01859436200214063
-0.18484613848276527
0.0802584652181853
0.03175698362823445
-0.22483171578079583
-0.06814233996845798
-0.03009708557484684
0.022606092599115866
-0.07187523679959096
-0.0753301922499094
0.11382392299211438
0.20452734262784225
-0.09524216501865837
-0.05982326626391788
-0.09687284328512254
0.033194163236581385
0.04868596069920947
0.09679017464807156
0.2037955050764817
0.053222691564107576
-0.12230544817582686
-0.06097550349618663
-0.13170436865422402
0.04769066132266754
0.01815775329012611
0.013425814394205872
-0.040202119966367814
0.009574963839512188
-0.1484435602500636
-0.03845661328881425
0.13783567688472878
-0.058508308197319024
0.005264877361405881
-0.10836462727833346
-0.1010398800881645
-0.020659402917165597
0.059263270827153595
-0.056417699230914005
-0.032839209251913026
-0.006094514449672306
-0.06688736778673361
0.04754346108725294
-0.0443672276891286
0.13186110482260685
0.1321290199627819
0.08138976099850592
0.15496054119583266
-0.07651140540964654
0.036859205135493685
0.11253662916582727
0.3188434937611922
-0.311856838979822
-0.013404113581147573
0.1097981063779568
-0.2086307687833806
0.2014180603661472
0.15056531240814897
-0.11239648124557773
0.22702884355306518
0.36887736650447117
-0.15626685756669173
0.02541122215721347
-0.11497385508025214
0.12511420032523007
0.09108128619904667
0.021953816011371835
-0.07605169935246733
-0.11906339079322073
0.44175403825378684
-0.322346775199383
-0.0468133832590388
-0.07531935390175512
0.04216194079118136
0.027889876647591672
-0.02341622814053506
-0.14877511988285175
-0.09876472556572119
-0.10636272548267715
-0.07141697283502205
-0.09702296121588448
0.028187250524897747
-0.05418634199881487
0.0037748895882476936
-0.026885221958356114
0.03697064312622262
0.018808002820159698
0.03826104637837176
-0.08509147745048486
0.15346117732819992
0.0093381673025913
-0.2117300160087539
0.0848754104450833
0.07587567698676473
0.0031107170427635954
0.03703592149679171
-0.01404364579897429
-0.0012499207246257195
0.18659237007399038
-0.16303556464443836
-0.013743843367049592
-0.10751064998296885
-0.1348236827432403
-0.12251376938808532
0.15327732008827477
-0.0038742076534028693
-0.15449045086703922
0.12585425142559456
-0.009169792300999053
-0.029656296347553582
-0.032319903231412296
-0.04506332365427442
-0.05240739260762737
0.02510735187282885
0.05964517791497923
-0.017499893532741426
0.00828505681847375
-0.047480420275085124
0.03816478962868539
-0.014478614704406482
-0.05499692954253132
-0.0030798999099837902
-0.18391748050697754
-0.10146338648571344
0.08182242153750945
0.18106295122763222
-0.11638139448788869
0.06946970175343445
-0.02101232628625714
0.1038535530585402
-0.32117158644255317
-0.009398413867461892
0.007921120711314816
-0.16801390055050766
0.10446585230708438
0.010454979550178278
-0.09345870332601235
0.033719639168352813
0.0006757930434388102
0.010692403967726865
-0.03813582339536133
0.09668891733847079
-0.01975650610391795
0.21811025469611986
-0.055243498255269
-0.09914190978672711
-0.059212521454462014
0.016946724357509057
0.012090209898599205
0.0004296045736284036
-0.05528257351473038
0.1141452890952268
-0.005690966431574514
-0.026297180990276437
0.044524749565758207
-0.019282072498283648
0.1797456274525952
0.24911080159480903
-0.11452858542643077
0.06258970624503445
-0.02104031410309432
-0.15235969801046184
-0.19616354696377383
-0.09511307453867844
-0.13271433724287846
0.03990936400367974
-0.01671635576033979
0.173560109415998
0.30598271525575726
0.31281308990934376
-0.03271320369438561
-0.1319894254130925
-0.10451493971614279
0.13700610202194216
0.17452759138986376
-0.09979708050640394
0.030291355373534508
0.09573509363714341
0.15975726916570512
0.10064572120147382
0.15012726595237383
0.1337113701438039
-0.08818291711932875
-0.19814538964226774
-0.07370670203302265
0.18694471546311028
-0.07306523044612664
-0.29771713433999775
0.005195014807833664
0.1258339633191993
0.06791542010045928
-0.17399950846011816
-0.06948258554864911
-0.2041560142643477
-0.27130985809041475
-0.1103970792443266
-0.007522037520016865
0.04436873759107828
-0.05295089641788123
0.017782457306367374
-0.04092884738078136
-0.01514676304382744
-0.029965926061964503
-0.023365634411444923
0.06960702652632579
-0.016545070722922463
-0.50140051823995
-0.17002236124471684
-0.01718832521288455
0.06842860432356446
-0.07561306761779758
0.06831012329023421
-0.02724169421331456
-0.028239338228329438
0.1977010953408939
-0.1636228713661255
0.03287882967018846
0.0501587056584872
-0.26880962021325616
0.2995653063623639
-0.21694490375738099
0.1656090757388587
-0.25109703290910407
0.17070607670919252
-0.17457607327822414
-0.0995616821197337
0.03515667766542274
-0.298364730740972
-0.08192309085403852
0.08854857006901623
0.1016840740156446
-0.09129297545473122
0.01838056459450366
0.1474643277004754
-0.07002747598430022
-0.09944121202476144
0.03940861178135756
-0.11612384056230408
0.3509442518695061
-0.05958065803061122
0.007610915716137862
-0.01444513688501851
-0.11455936580662976
-0.028453224071645664
-0.0038360882730357946
-0.14408599016238144
-0.06611578548864193
-0.05656755081455315
-0.2186347119489711
-0.08629966780057155
-0.1601128533021686
0.08128061437125578
-0.03972080255621195
-0.14114499898025973
-0.01740460024411603
-0.04266411009134099
-0.10634800417640385
0.07644310593253799
-0.03502997296001725
0.04295636285490657
-0.03320067582110755
-0.03293589526566589
-0.03945323538727174
0.050597266517206176
-0.010173612266148456
0.03550098443483717
-0.015609675726474205
0.25908821754888345
-0.013819527873527776
0.22168769521530274
0.2755444856722367
0.028075030571310864
-0.31953863737248356
0.07107576221115695
-0.013747667788326954
0.017617836235763764
0.017190063828769503
0.07612686254400562
0.09723466502059028
-0.09370144822506439
0.2859881604467787
0.18777938800860924
-0.020097409744266787
0.03279812349183009
0.019310749663666645
-0.43167825828353845
-0.25422038859864327
0.047839338616879126
-0.00703007485064237
-0.05923740681885596
0.04213936978102124
0.04777281535499339
-0.07766208179728988
0.030347142796703492
-0.011596415088696322
0.15957427976594923
0.28848995925630033
0.11484757436335388
0.07763798888164185
0.1364719529269107
-0.12215271301665692
-0.024652558922680853
-0.15297401025205729
0.28450224356201975
0.17280019344505487
-0.004878371293001353
0.07003642482330838
0.11133606055868363
-0.021464269591567414
-0.0779183118622718
0.018879131233209293
0.06300696618898981
-0.008119240238557344
-0.09066005750699302
-0.2733785370862273
0.015045618128404287
0.12551068806226606
0.02056573860579697
-0.23627518224951827
-0.14007300706044462
0.047695070062204324
0.024395908018072364
0.17999520432821411
0.009456945648933339
0.19442165971138145
-0.24645937706639226
-0.047035039351746494
-0.002329290074403917
-0.0004947407420169903
-0.00042283020222749177
-0.008566585085022362
0.0453902678632867
0.012661122282391505
0.02784570639025012
-0.0029552784465172355
-0.04275480016442018
-0.03748166394712391
-0.1562422384443795
0.03159972037216409
-0.02817526981922462
0.011325382514761916
0.17675617137760632
0.10261769033048673
-0.2376616427879047
0.07933978496207493
0.12257731874187745
-0.020139263248360507
0.004015590074534951
0.18911826530892928
0.08259526015775615
-0.013704367755124867
-0.0353489822205015
-0.009131308652755002
-0.10303094231468375
0.005540053569383689
0.0035459916552139184
-0.16431250978630102
0.07953244639457337
0.11422378478897964
-0.0020508599471799186
-0.17372620124175245
0.22597023301962552
0.230161041290538
-0.16243857666773953
-0.002532722636815228
-0.0015450970899099433
-0.04547549732741903
-0.06634567440386577
0.0016334389434658873
0.019638273041632508
-0.03301118332369645
-0.0019629409410757727
-0.03501692781767563
-0.12140692806961642
0.2611186379647973
0.16088066505228074
-0.23025995182697084
-0.12013287690443901
-0.29114460831924593
0.04500848506348382
0.1520492787146079
-0.0155205374265025
-0.07504905641840597
-0.21594389388482976
-0.060743220791037264
-0.0014600240284709176
-0.15748711132373033
0.3423764031660563
0.22225017315813442
-0.2662430346634337
-0.057673214657339246
-0.14956862033369067
0.1153533310113268
