0.11102718198683562
-0.019295573957007903
-0.03894207676888832
-0.0705618194254629
0.06427999537962002
-0.025101804146590006
0.05746824923538852
-0.05358471510431925
-0.02749519680175085
0.12257248993902561
0.051434012960036586
-0.05637997863441028
-0.005062447483363125
-0.04431410863093664
-0.07045667423374373
0.11011849595611818
-0.06861798339909947
-0.017037139332775723
-0.05127296466107815
-0.009217202417282888
-0.04218813237890908
-0.05997673214754208
0.03841353334520077
-0.09926729496178986
0.05100836052504725
0.06773018363239362
0.004490171162693502
0.08799595880557642
-0.029990001442335497
0.1042775319129266
0.03881185854424104
-0.0759636767109204
0.048991836494731794
0.049416523788644605
-0.045064149382203204
-0.08743233069081456
0.0364020949919019
0.038815603182621
0.08727037802396699
0.03223618963371869
-0.0805068023892486
-0.08207057712537594
0.018979722620570776
0.02249144761242049
-0.026665225529570836
-0.12777248781044323
0.09935520527885758
-0.11016232088820214
0.03320956567865114
-0.05142527470272021
-0.0541400520448128
-0.06091077816493335
-0.055358423531801766
0.10332255488711557
-0.04882786793504325
0.0014080896342249657
-0.07942085076989153
0.021983013353380643
0.05157151127361328
0.10642701127893758
0.09060624881631879
-0.1267580268647703
-0.0013478061153233145
0.05848477773283319
0.012442077164246059
-0.05413435708956452
0.009247174105406033
0.000448765425443015
-0.046174070531504574
0.09347301442407582
0.06426709270695898
-0.050523264728534294
-0.04528851205933018
-0.10510439047923203
0.00550669788758573
-0.062522744348294
-0.11821958342232025
-0.010166587156871547
-0.05225992015027049
0.09998654581583685
-0.12974086361429046
-0.06605560878446476
0.08479016604989899
0.06031040055325245
0.10853108135570606
0.04409373547641952
-0.06987316105877005
0.054959545812526316
-0.14410527967378622
-0.03996027469810004
-0.04904182677471502
0.08866027046460297
-0.025423045773261103
0.09441432176627455
-0.05687518721237192
-0.05657550965634735
0.08157253792145958
0.12367976797709672
0.05498286828533098
0.0070462042332593375
-0.01555714204854179
-0.07225285973387521
0.028648143792447584
0.022734983670907562
0.018065721144253602
-0.055548505845142516
0.04260829459515561
0.023359466016916502
0.1134025271343157
-0.11511635886440234
-0.034387573413262984
0.09245827986961476
-0.08827013531438062
0.013299457882649307
-0.002329748855796175
-0.0025009827285558893
-0.03777398744207112
0.08092987235093503
0.09803804582869238
-0.038354965350274675
-0.07855211927469335
-0.015489969844312477
-0.00852496628583882
0.020875556441574225
-0.09683700992126855
-0.05339213401875378
0.0693630824651418
-0.00048419733255178137
0.06888042626798255
-0.030443269886044358
0.010816633913220373
0.00015061097802755174
0.060377283865171175
0.02783345305221609
-0.05892599934618695
0.062351793895877264
-0.031123817642030045
0.0042277871256950934
0.05966716387117858
-0.08222278511010248
-0.0723181225033215
-0.0948644055097715
0.07180431711413762
-0.009362695310020284
0.09019735831057957
0.05598360593532114
-0.1108825214731755
-0.058822286096573265
0.029165161314774337
-0.006081801225018465
0.0019132771802437953
-0.036362171186690474
0.03330735880514506
-0.07188926810219533
-0.1056123117877714
-0.016371808106661865
-0.06282531537875083
0.04037938189734477
0.05726899778360873
0.13379622508121872
0.007733563901651329
-0.08546391097992075
0.006882508344061223
-0.09037702156462865
0.10849782793491847
0.005677548804508882
0.08678248569636665
-0.1009290244396468
-0.13724932916213173
-0.09137281033178873
-0.010144644952096195
-0.009788808735363171
-0.004990801276304461
0.016542585821903995
0.06566227602359288
0.0129910011795145
0.04984582891338417
0.0858467943567023
0.0032104304494744228
-0.017077105696168004
-0.12607572008208315
-0.08256670373009538
-0.002841403887965185
-0.06801557342406968
0.06645072688397914
0.04189259983628639
0.04680612096216978
0.16913527161422856
-0.033473127398249695
-0.041523622491109545
-0.05105883484007671
0.07070420287339867
0.05895609276117828
-0.22147598443316485
0.05072602402745833
0.06522945444576278
0.12892079075866303
0.005815017050143678
0.13192696829654135
-0.03587544413749059
0.14406602504066052
0.024104232211705604
0.13960086304678596
-0.00743408334074143
-0.04975206542069585
-0.0045682237586634885
-0.0059904837354429015
0.07553263410410598
0.1322921971636268
-0.05909665766090907
0.0004510802441390033
0.06582112460496649
0.01836414606294673
0.011832620698405448
0.030840487622125524
0.0430864475746165
-0.04301292167733315
-0.012674604630870025
-0.026318563835832063
0.02028396424489256
0.004229387038305749
-0.0563755718871932
0.013944217418875018
-0.06552244342768801
-0.017039712947892947
0.002705286896235256
-0.012410840985844223
-0.14624174104027624
0.06444455457917496
-0.04662200354945608
-0.08520430974005286
0.07190764428449883
-0.006281001684981399
0.0015050376203079086
-0.1424774354496374
-0.0009288623547575631
-0.08419693954749523
0.04083237039638887
-0.08511301726681715
0.049247005645164814
0.07687663081905008
-0.17502800436620378
0.10946074606093897
-0.09380139480813438
0.0021449831416128096
0.03587405264836761
0.013234953493006981
-0.06896399616715387
-0.10510205486157247
0.14277897617307614
-0.009880888190234104
0.0035180555042926332
-0.026214471535059646
0.011844330818720852
0.03398889296668883
0.12324421819080364
0.07590945753904668
-0.0874048494084851
-0.013637778400882723
0.14047837570654234
0.083828219412294
-0.01329563642984823
0.074781080372793
0.06136784158365574
-0.027655357779597337
0.023432749461604487
-0.001601372063078659
-0.06782306756099576
0.11953736629136724
0.07723589068149192
-0.017462252199600896
0.007151324965324987
-0.01171110949831586
-0.06493744834040072
-0.04829471425412281
0.0725821402509034
0.08747293112459455
0.11732381989932672
0.04778215809382601
0.1152977461935273
0.023834278492692783
-0.11160367403711512
0.003933575337674489
0.021361136544150235
0.03735616878084574
0.03475506958155641
0.10454531694822877
0.15534669329265702
0.02726849604784132
0.08404281891900449
0.022704120459941104
-0.07533684424567988
0.0025270633801689306
-0.08299551292775019
-0.11540269412652653
0.04947651586080121
-0.026393562644078584
-0.1493360703187932
-0.12990282201702422
0.003863257752738443
-0.06108671182540781
0.11854233272654818
-0.09846467290164027
0.029172572199496132
0.05205917220229429
0.041241373431994195
-0.004224862681593137
-0.025094727753825718
0.0328370628209228
-0.006811035592830424
0.05260257358953411
0.007290188322455629
-0.027543876475647947
0.029676966611213235
0.01298063556336802
0.06631464279923675
-0.033569477285069406
0.10934056400620455
-0.06028275795579482
-0.09083477119938352
0.04370110606413801
-0.11561583315329028
0.14800518586970887
-0.09920477707108258
-0.1074137034985301
-0.052879389772238716
0.07740423808582685
-0.05348091376541686
0.002316344864242192
0.03838226563738908
0.02034911902064648
0.026766701929258917
-0.06283173648729408
-0.03303928207943557
-0.07241130192249152
0.03027572058924413
-0.12962623195017994
-0.00013333201781815597
0.08448432109764685
0.06018232288605152
0.027266005899046958
-0.07518350410920753
-0.036529041822871505
-0.15787808428693956
0.07288351917868462
-0.07344947001762955
0.046087545886592016
0.03227141474882032
0.002878156506130116
-0.06688654547055484
0.04389185916257425
-0.004111188779119482
0.08179139305749078
-0.06553218587977713
-0.09524150538230282
-0.1379468944840912
-0.014110835690913624
-0.019623709020031552
0.08049791864436909
0.00039459591434312517
-0.01072186649710949
0.0012340225110302923
-0.1369796146706079
0.01989519942377896
0.0209144644163944
-0.07713267886516767
0.04496111338855531
0.011597672414638618
-0.07089359064191564
0.04849285478778687
0.010030858849766169
-0.00896716019948866
-0.042218069573585294
-0.006648473685988861
-0.032303591715386354
-0.12894694145333355
0.0245748391140823
-0.13528268523286704
0.08036627172643324
-0.1025132777243353
-0.14357913947011153
-0.0784708919048012
0.10761676664409878
-0.11216034413404835
-0.12956842173728467
-0.021971679577281585
0.1249700693275966
-0.07681581422545411
0.010503360319990145
-0.10773912983657884
0.03862643769864882
-0.03991654688039796
0.003655855506177228
-0.015544202883520512
-0.1631979352148183
0.09800731814411294
-0.006180881987759565
-0.05074409722200846
-0.04031129375605882
0.035757179618253525
0.057852461258249874
-0.09945932024374735
-0.07224411634011949
0.0664464821221704
0.007663799128313967
-0.009990744952313743
0.08505963038543089
-0.06241010142549493
0.10588914918126321
0.05300213135643687
0.13125792568962705
-0.11175596523678344
-0.012787519960204607
-0.006109236174566806
-0.009186629954713348
0.07096287291027495
0.1840839502609697
0.08404889323791905
-0.021523470088484157
0.007109866514530919
0.06330189365929245
0.08442713673738575
-0.08502716012439064
-0.014189822997591774
0.08148610843180193
-0.10536879130878173
0.06704347934318626
-0.05962487068324932
-0.12309236513575429
0.08881319213797197
0.09903328448419518
-0.062089857434726954
0.13197043209485385
-0.014260694816766452
-0.015329518799552466
0.17388151544843686
-0.1448043657396679
0.0453162087382262
-0.132370960584162
-0.117845718226399
0.0748279983253242
0.04208714439407107
-0.03610225695794187
0.027712423827182885
0.043717237648622786
0.06001632117929787
0.057681205162779275
-0.09141129337040578
0.10533592968154763
-0.005238420796978369
-0.07835543436539578
-0.08655147006695078
0.04010580197289877
0.05303165120300474
-0.010328811451282328
0.2029009714450486
0.03245481813814337
0.06811401527868764
0.08625304625752336
0.03229417197277594
0.10135622400004668
-0.04800322354294421
0.1694342848152058
0.061737261314386144
-0.09412470832053658
0.09318337359308829
-0.014504250291646236
-0.14956458295629274
-0.06075667785759134
0.13343364255181742
-0.026860719009114173
-0.01059680326612874
-0.013608369933206643
0.04655319040398714
-0.0032305000482602524
-0.02111356629097677
-0.018232753597849104
0.009204684677390025
-0.0913764107285485
-0.008266497419529464
0.07504785627255127
-0.044792909944735476
-0.031882632429476296
-0.03479876244389524
0.104020965976901
0.0181688426578389
-0.051649117683154507
-0.07620589086787963
0.022033395406719725
-0.0539937577481572
0.025792667576667757
-0.0733067583375768
-0.08144080104280646
0.00932575686164032
0.10461005026557774
-0.0006187322629481559
-0.06589923946028063
-0.06268407323242947
-0.013029713097332475
-0.01658285994746404
0.02297950203478906
0.007458855848730104
0.06869687731373467
0.12299711961008798
0.10429818954137829
0.03046625412743134
-0.011630806982801119
0.0583625704110758
0.0157054258614593
0.002396150937484739
-0.0718218618052182
0.08183062542068509
-0.06557882356541794
-0.12410824891592821
0.09068289046814121
0.039128617827897574
-0.04748364035306524
0.04791555440196878
0.011576720230386164
0.10270839198476268
0.008422124103070812
0.1268492785503703
0.08674884241076963
0.010359986549261567
-0.03827244003483858
-0.06793702392071896
-0.006210978486595286
0.07534778011576093
0.08502084989396982
-0.008945987063075906
0.06626313785196347
-0.10633379823448955
-0.10561259335019314
-0.06742243150637615
-0.12549031065162083
0.04559619507880888
-0.006767604804949248
-0.03775952696952421
0.0551429601396562
-0.06894283353644257
-0.0261787439733119
0.02291114884573807
-0.013651525039118746
-0.02247122373726812
-0.09741814854023371
-0.09194445115461755
0.15470096408782347
0.010779942745295892
0.16594150742192523
0.15953407484232343
-0.0953999457747494
-0.03636074776495613
-0.001541730737205503
-0.13614940317032528
-0.07193815949138718
-0.08061576323625061
0.07678284802203607
0.1414607064400618
-0.01939962151135765
-0.10805481759623484
0.05205622270304083
-0.05793173738643866
0.10490812500816012
-0.04755496847371842
-0.2250786765140439
-0.05125658492801827
-0.048262142972640594
0.02929733508733009
0.01437833277392097
0.03067375714344391
0.0015875859243353447
0.0434518847839758
0.021990595673997804
0.027098286078296705
-0.03310490012419253
-0.045902434002608454
-0.01735545201088474
0.0074001817135948495
-0.004918515047356069
0.06602053925654174
0.1387610228190687
0.009115358834022395
0.042681238294917885
-0.10265175239305509
-0.10949225512466186
-0.09326665403890821
-0.08321944910969177
0.013799540684934474
0.1957205947510055
0.004771430477838826
-0.03114605869321316
-0.055722261836249
-0.028340555727663877
0.11154217745206767
0.12800124722864653
-0.06939855509379005
-0.016680224902792137
-0.08933287550204633
0.0022344515834810306
0.02144612333991955
0.020463192313589146
0.09293929176984767
0.05669475500257223
-0.15308727224464158
0.033228612068059216
0.08788046112768766
0.10187575774174551
0.05784174890929781
-0.045982315815995704
-0.037179270479576844
0.11032151626057796
0.04745758460076231
-0.034679666619474366
-0.06219446815313333
-0.05274835513768306
0.001634971564953754
0.07256179886292877
-0.13826392942609078
0.03868689534168014
-0.0008023392656972504
0.1117668195863695
0.05000825306024
-0.021616249577894032
1.3526655795763521e-05
0.17221629969590904
0.1230989834131559
-0.04009492633973205
-0.07982650845894307
0.040355816406634215
-0.027976090881788335
0.10210745776971049
-0.00469172145070376
-0.0215941963663096
0.039338253877335645
0.04491633322603161
0.10446691737675089
0.07360674406252452
0.1646755303577381
-0.003964439523843265
-0.06725572987452468
0.015809765396098047
0.010316231601844524
0.028560108723014645
0.050204305991187095
-0.042225213339367774
-0.04773005963067434
0.04461678830508542
0.07773987284520807
-0.007660885446777814
0.017986286012762556
-0.0072518123224124065
-0.027367912932173926
-0.06207019421056431
0.017291319865633058
-0.03152695826897089
0.07349937072673712
-0.028622434212432057
-0.0034248009978987627
0.010844998938642908
0.033391017711245585
0.0690057270118804
0.003671856027556154
0.008556954455847702
0.06640426228184271
0.009991992918411003
-0.05382076839813907
-0.03525393236519936
0.06682350090285889
0.05370317072440889
0.13460558300172623
-0.12064233893033018
-0.09562206748348513
0.07788261142561116
-0.1240725360146778
-0.00803769818788237
0.08189311662486128
0.03733648304453207
0.07165375261090237
-0.025071221435818254
-0.08440977165564317
0.12786057054343689
0.020578117162038986
0.0817451321512965
-0.10411751776936125
0.05936445360753248
-0.10406340930662114
0.02759600642541136
-0.040240539745142474
-0.016325012637889724
0.041642778987741186
0.023374222675405617
0.011500506840377862
-0.06412708416882207
-0.018268167790715197
-0.13227465894333634
0.07146840365073018
-0.0749730443031289
-0.08672435938943285
-0.031399923572649466
-0.13354966683847655
-0.034668352775731825
0.08076544354160603
0.0687371811536692
0.03262692246601633
0.02463427096310381
0.04278546893231145
-0.08976782054982771
0.1528490227236673
-0.11192115480606164
0.05451884468402683
-0.058748739804689434
0.1353214483512891
0.004937240467186311
-0.18449316236575283
-0.08685415191347078
-0.023171286323519495
0.08650335154400854
0.05124216072952438
-0.11249563071643708
0.05855134885166926
0.11531408410268165
-0.11688191741389584
-0.046547037099094836
-0.023630688418121777
0.02901608497012114
-0.0006442456895236698
-0.013240695142000602
0.04548747844094639
-0.04801479791088664
0.059501449436104574
-0.034434009269369244
0.04141075922152955
0.04137459927992158
-0.0022630897995874174
-0.014093535672679326
-0.09704700504374857
0.008125795960099082
0.1312714932708608
-0.06040113130929645
0.06581955834260386
-0.05405756735203655
0.06896433019195176
-0.07094174129088368
-0.020046022853359373
-0.08589063553155704
-0.10717517451048643
0.0037494987042487296
0.07489176456491826
0.005328069367463038
-0.043758965557350524
-0.0023919673214221754
-0.09820917124907201
0.05590699896583427
0.05830339988810387
0.03217905377230892
0.0019214981441510993
-0.06492091623248453
0.01717913805481174
-0.1128784272414541
-0.10222691379471838
-0.06180065348464907
-0.04546348037131473
0.005683590793283579
-0.08817338978890198
-0.06998664245849942
-0.06059979967563231
0.12999139285328584
0.09132986756401702
-0.043741222814838686
-0.017332011198600422
-0.010144839677632009
0.040236135324305346
0.01616953289083437
0.039733304144133064
-0.0033877144742263617
-0.04038065066984745
0.08786835992140878
0.0008079845113742522
-0.03943791982277065
0.021338241957707203
0.0733753783468471
0.05033969375819061
-0.07093386929315458
-0.04434684748047951
-0.0856619420301345
-0.03641707587840051
0.087190999000609
0.08059350082541486
0.06707871683114762
-0.01715290641894261
-0.0041558183668148965
-0.10830266845329287
0.04555785357885448
0.12299002950605623
-0.14921778408767544
0.009110619742709752
0.0714989183134529
-0.12681030061291626
0.014928642312912613
-0.034969422174330515
-0.006055729980997118
-0.02793623146130636
-0.003427124665461357
0.047741176020269845
0.09164462513819512
0.030004047264367454
-0.02391565938686185
0.041229110200001154
0.03155995927448026
-0.0017392283881369835
0.026817267269738442
-0.021534886914716722
0.07306295079050468
-0.029062498587083357
0.09111426350569124
0.06127938312971332
0.07296921469507425
-0.16759269171054322
-0.05299754706059898
-0.08985584558257134
-0.020013414163476705
-0.0695204143030467
0.0798460113925299
-0.06857607112920328
-0.031613016309000694
0.022035015418914193
0.031319321856690514
0.13339168247565494
0.046633725281882164
-0.0008216906707005136
0.0013674354827566963
-0.1061406063175619
0.018226271603975233
0.02360813869022562
-0.0766879362413352
0.028164688314116573
-0.028617477378205514
0.005157941414978454
-0.07361375426338182
0.09411341524460451
0.07798176232311851
-0.018244983009084906
0.0370430373798018
0.04827405526947248
-0.00786925564672188
0.002347021192320502
0.019820201193984244
-0.027208987922974298
0.09152283243634271
-0.037539162450072175
0.007450769664052391
-0.12465789013509605
-0.05459911342859986
0.0926877216374394
-0.07268972955625011
-0.025595990910554898
0.007260998606871887
-0.13212029777090523
0.02144011649148762
0.09708334262679012
-0.1419353600754091
0.03683819601395734
-0.01438886421377467
-0.006086566202403434
-0.05806437460483141
-0.08249002698190551
0.05028549864543536
-0.01472086291473878
0.017977908457627673
0.043822285160368186
-0.07317992427220865
0.17462406327541855
-0.01949960733306002
0.012087840372441544
0.07984027594938183
0.06434819678259718
-0.0019729287915994766
-0.048700954814626024
-0.07862622962394544
0.10016501568675551
0.020631628711836884
0.005505832325472158
-0.06646376789025227
-0.09643304918140336
0.021895724348814444
0.05497628642303654
0.01213800296432091
-0.0023419785202345384
0.021906697090526162
0.11183293124891702
0.09902492938687392
-0.050605208482208126
0.025973938711834735
-0.04729753207064111
0.04312469156828188
-0.015003851468014315
-0.08204500156234025
0.005949134623659048
-0.01941048254563417
0.1266020634686237
-0.0016305393237880377
0.06966623763765781
0.07349391908583053
0.0941281815226267
-0.031474884433743695
0.046451014872630605
0.04727817447074529
-0.06528239974724998
-0.024496297085661426
-0.03293095002848496
0.1417781401119749
-0.08122478958621514
0.0076016238974861115
0.022306580665729582
0.06122469925165668
-0.04253328021485547
0.0778918821529275
0.02962100463227531
-0.04541994469424395
0.039023906408853254
-0.02138092979634508
-0.05736357194747795
-0.044331592620611995
-0.05364728949166677
-0.041520515568106695
0.01569494351070862
-0.03165031409217362
0.024788444647207288
0.05724825500348425
-0.09736924823682838
0.031033919593083603
-0.05834703844723655
-0.05084841444544798
-0.029027204433682036
0.09793887474714533
-0.03242603289570519
0.08745609423686487
0.12234147159425685
-0.09546595164551909
-0.00089861832400598
0.15382395720420308
0.091314306240168
0.053840308184230815
-0.00470951785876183
0.03789607500488397
0.07303758284188808
0.013844750909425992
0.06463141838762869
0.03706433000923809
0.03611831249522594
0.046314960046203016
-0.06726660966136197
-0.03434191872490866
-0.09946192418104327
0.09086860397813677
-0.03241512520619201
-0.025596297395633606
-0.11740139351566357
-0.08126938904028644
-0.09300585880363875
0.044069699408076445
0.10532942530153373
-0.043965511508097396
-0.09149212112766003
0.07647336407923142
-0.1155191519022825
0.07924132339815664
-0.04769920267263212
0.021377879408262464
0.05427213364723475
-0.056080919723311445
0.056938693015803774
-0.14589579898613483
0.11083186862798884
0.05994564679567097
0.011849667196955042
0.06601175141430392
0.05108252305922002
-0.002798957363613375
0.08821176034913461
-0.04163001769770302
0.01617518547133517
0.10736047862361107
0.005648506541084235
-0.10005231501756083
0.0014945973815047662
0.00539758494110285
0.04957084787541996
0.17422098384923798
0.11149260248924177
-0.056426295942860145
0.05821914730806972
-0.04937548748183005
0.006933845937524651
0.05055071798888678
-0.014257989832101463
0.0020223991800692237
0.011533664211791405
-0.06634045343199313
0.11689569393104844
-0.08994222117790313
-0.04482770498737559
-0.0016860375351696634
-0.0604929731001871
0.001969930779442365
-0.05709872252792376
-0.0488127060620222
-0.016732136416463823
-0.01289976837244495
0.034882460291304006
0.053885442056005546
0.0028055480012977563
-0.01656032122360691
0.043634714562542774
-0.006669015265265284
0.1191956142458365
-0.061528116496816734
0.022314547545681254
0.07891847207753346
-0.033475712764832084
0.08952631774488713
-0.08443669410955103
0.051198116800394954
0.0924753631859712
0.020254759864903413
-0.04543130495495552
0.0028641077674914804
0.01374813990982011
0.05218437981489561
-0.12542907681095836
-0.17278659964578366
0.0775572742860671
-0.10021484342705267
0.11326279631708545
0.04166384363264898
0.043895881239553895
-0.08359893576838473
-0.0017035056097301747
0.08985111816717488
-0.029159564704434326
-0.05237632520197998
-0.06795368485697152
0.031742994802775024
-0.11633463506568752
-0.08016184030202725
0.0008664868425897425
0.09545021290505783
-0.042007333429724424
-0.07616715827700855
-0.012806676152505638
-0.022939670308558046
0.022221043185335767
-0.08268919411104864
-0.11586087420148532
-0.0013911257211534323
0.08192492368593675
0.12156303013768013
-0.08058899351153276
0.050873093959766226
0.08315367125941452
0.10787823337384903
-0.07475400083983913
0.07685398389078248
-0.01418340058562566
0.03355364117789303
-0.11622022456938531
0.005553358937738214
-0.03559549820407723
-0.06249638233590607
0.04218059934589869
-0.04990121643613678
0.04776216616956459
-0.1907810090237251
-0.0860829048452465
0.04202830988874224
-0.035336865351597906
-0.03863606885675436
-0.13880582675090927
-0.04200072240795224
-0.05011331716222132
0.03758772870845802
0.022706997236073445
0.09185861171038438
-0.0773628592534066
-0.08452527474145523
-0.09176524276247262
-0.020796532674869875
-0.14743231097840742
-0.05983304606452938
0.07007664074042559
-0.09529736774415132
0.004465343703626881
0.016579146613110364
0.013170185375759827
0.03459652809355313
-0.12058966262540746
-0.1050200389850447
-0.0018014228783831457
-0.07264756061855547
-0.010021244125478812
0.10162449161567
0.015685185519763247
-0.14690720422940842
-0.015395261819738092
0.016863232367286644
0.012457377851181964
-0.02261948246939858
-0.01394565814712204
0.12949850364458465
0.06985919881858119
0.00639953982994181
0.07180200882402264
-0.09572750783318199
-0.04698650131292456
-0.09544934769389148
0.05425361136319014
0.00022682623064346872
0.026071603826862504
0.09977120209708024
-0.11559077409805117
-0.03821655351883269
-0.037919336387036456
-0.029527753616030616
0.1164267296338899
-0.06172150261992065
0.0823738059577513
0.09514955541075874
0.14287609761310163
0.09674648837257684
0.03122937445895276
0.09511747853276592
-0.06878414759579628
-0.11188192818368718
0.03942193031519831
0.22540385020153808
-0.0009183443927594444
-0.007618884136047449
-0.0598794648733834
-0.11733118955698632
-0.00222737090683801
-0.02317540110189032
0.11896054200616965
-0.03481538350630775
0.11162892009257251
0.005938809501031491
0.0659835609866124
-0.0841389324449441
0.004532876257404631
-0.08357387739077513
0.07299177425626584
0.10008272289313941
0.01238149261205346
0.10291359244774308
-0.08273624795197455
-0.06596157399103512
-0.04859792423572183
-0.13297149620395865
-0.07053887107531728
-0.07752863674125773
-0.044222419034673
0.08118030671842531
0.04370014212581028
0.03334820763769963
-0.020512637705679175
-0.05230044311397378
-0.11722690460966077
0.1526704293487131
0.018130031638417133
0.025331168303896916
0.057059930175023844
-0.035315025572960485
0.05311929476436964
-0.024919499348941183
0.012761875387147245
0.13831422308197852
-0.00775540653515931
-0.04558903499096134
-0.05109922907751566
-0.019948509535060867
0.014011667963377508
0.0001666390907308613
0.09729166661872125
0.0060476331147588875
-0.03214571680539817
-0.11593563112591625
0.017261581207104935
0.003636853603189807
0.06359732684255673
-0.04522439476531689
0.01438186178216383
0.09729140467073154
0.046895824888705966
0.025867800726142285
-0.04843599835514234
-0.0505490391459879
0.03842073897203
-0.017996143443912923
0.015062623332088774
0.03016537069703496
-0.05793864457021015
-0.10308079737655661
0.0523337673206468
0.015540884666809978
0.08927205853127385
-0.10497954339218347
0.06707272976874505
-0.039183679857957836
0.015552529771836864
-0.04840077758442773
0.026366202383302263
-0.029822724139961388
0.03351571932765539
-0.04170143232476752
-0.11828244283916575
-0.05065929587902188
-0.09661582479244318
0.09205777382832374
0.07712195707141777
0.0244861042968525
0.025247166300033912
-0.07751012061968512
0.00591345723996466
0.09685359031317389
-0.11069979727279398
0.07686720120629757
-0.01038828711080773
-0.1315004187447803
-0.08492868669366194
-0.11613597893195081
-0.05602183422035368
-0.08430237928692956
-0.036267294746820056
0.09157252000829831
-0.06187892601541355
-0.07926395003520671
0.020052625605574862
-0.10017541458481419
0.04266146250797412
-0.05034894131099875
0.062042824925066506
-0.032209309662661764
-0.04278646183050406
-0.015600273112036643
-0.03599377136403246
-0.02787985972382821
0.11708519444806549
-0.014556005573617463
0.01831878377266407
-0.05653018546675941
0.026641177675276257
0.0353797000331134
0.019726302284188594
0.04357436033375504
-0.10487922631595072
-0.02766571379575921
0.13283191423286528
-0.06102573209786364
0.08781443423487599
0.056688257781368184
-0.01750325408108512
-0.06090623361376268
-0.04059726456812219
-0.06060128743971265
0.008746400586048069
0.024077141442430748
0.07936762926794017
0.0830488728947408
0.10359566715091109
-0.05233380485072067
0.009299977386575821
-0.08700003119317695
0.07429045127154717
0.0005773644088693717
-7.23819290508709e-05
0.07010509516667131
0.041539277718667084
0.05406019576368558
0.015874460635472418
-0.06421154492740293
0.0566242653058262
-0.02686296921520904
0.010348195162804684
0.10062192484067392
0.07568828669347301
0.01387163227649278
0.07165328267296292
-0.07550428477356642
0.0061437630658122975
0.0065844795683553175
0.09598179644468186
-0.07645821934167137
0.031973445364677076
-0.08386309240093072
-0.045302868622218315
-0.06382630206626314
0.007175081305431254
-0.06759275730029188
-0.05377026247897759
0.09561776178960765
0.060018461858841514
-0.08648844225812884
0.10143086177706817
-0.11535780546530343
0.008835220149044583
0.07121788204615333
-0.03583151125285573
-0.1607944086051262
0.10287051692821429
0.019887021930803522
-0.03600076306790082
-0.025397893663398195
-0.030176719899314346
-0.024940535318021186
0.07867742330051332
0.058477766586995536
0.06483671865811022
-0.016500308547690086
0.03507243991086327
0.11866933526887447
-0.021542397552042427
-0.10186403840644395
-0.133807501905277
0.025702409593661848
0.10067502404796518
-0.052483801617794375
-0.09804848992262279
0.0604871624172169
-0.001496180167061207
-0.11035476492228052
0.10300030607444026
-0.019226817808435225
-0.11872274172019766
0.029569755644930563
-0.2062866342880488
0.001975378703958968
0.009046532119171082
0.06705071527099546
0.1078712403661071
0.002713769594605878
0.01992000198453708
0.09367787751344918
-0.052738785774456176
0.04437182276149592
0.07693204192695378
0.17595838731971186
-0.08198126864374432
0.02857116643312882
-0.0441495700429746
0.023419565381485784
-0.02530351565860506
-0.024126470462214132
0.03531378295186301
0.00896602951080862
-0.08421151169302596
-0.028749149212566244
0.12840569007917532
-0.018595880433997354
-0.13262903829519737
0.033428641243425525
-0.04306097388515977
0.037178533402745816
-0.12241374882652933
-0.05154124842557689
0.1762323667514258
-0.202579839101472
-0.02240486703297444
0.07894457008856304
0.02882604751731317
0.09682752002618658
-0.031005972273151487
-0.06485366447695246
-0.1130965563803227
-0.08844487097497128
0.06039871612751797
-0.04459384980924456
-0.0178337002434165
0.03531177172118113
-0.18465171768526878
-0.00015798431299782157
0.08603701867676858
0.01605385782014465
0.04769699014410861
0.00948208519775238
0.025909018322124836
-0.058862596283156814
-0.03690357751480404
-0.05198095007966983
0.06781456057881692
-0.08498545958577212
-0.034245905335359435
-0.017340480560999773
0.09539520636961646
0.10524236639934649
-0.000983640056041826
0.002488845534305196
-0.03400634456804874
-0.06008036236174116
0.10802936523636684
0.06716259999034586
-0.09224328821384352
0.066035374208622
-0.0969343085872113
0.10368990890556648
-0.006597101517360129
-0.09678783618343957
0.14223368733760977
-0.023692908897202367
0.05728120711642655
0.0054995645297327925
-0.09657881795461086
0.02352458413851959
-0.0014296211600760339
0.0631779428253643
0.0543123319566434
-0.032922288540420896
-0.0804468676102411
0.0731607797833056
-0.05864891225541214
-0.04519765983583299
-0.016477640033219935
-0.031728271398026295
-0.05345933656246633
-0.008434842412430943
0.12277167553685778
-0.06497827169552803
-0.011938014243776962
-0.11295501639185032
-0.042303173529829645
0.05672776172135979
-0.05186195283735567
-0.09254257021248535
0.07844926226988704
-0.002020279742506272
-0.14014220841722996
-0.04607467207492065
-0.021298260122259254
0.058414087216143086
0.005923036330600359
0.023949534939151904
0.007322899732181558
-0.03682421560307272
0.02999371452730702
0.027455865120827202
0.12757598794359207
-0.029353779085268202
0.008982879204348395
0.03905424451038327
0.039555001622785184
-0.011075653455780361
0.004478732604941892
0.005874901745687501
0.07858505606977023
-0.043950098657623955
-0.031041030959066025
0.0832863795271712
-0.1156908568367958
-0.06883337942850662
-0.19727358765441338
-0.04521332089505335
0.018040064014259623
-0.05098005247337892
0.037685606823380714
0.07797695955847239
0.10148809050819109
0.0009804416426249195
-0.002868878866804582
-0.03539482037012469
0.008815236232458303
-0.009081586974110448
0.10715285366089926
-0.0015039967951968743
-0.003846783958824123
0.036090684133701686
-0.013052844365542854
0.0652306065436798
0.028386117241237185
-0.09429419507525279
0.01147083257021211
0.046423689057917016
0.010759915952108665
-0.08496290517726604
-0.00026449168128048244
0.08701830144599217
-0.07021119397542312
0.03444066050205828
0.10365572072395081
0.09741553706348659
-0.11528785518710503
-0.06890088765598325
-0.06557241762619609
-0.04910278968908922
0.08854959013156619
0.06372208541191521
0.11848727714531733
0.12336948391844522
-0.1716076944696717
-0.07775817861299922
0.004513067098873202
-0.11798954621821545
0.05046421589116574
0.030709144150270092
0.006552531519054952
-0.00042880067124253634
-0.0244031908173212
-0.0486607242887003
0.13861077558521812
-0.07359757511518215
-0.017509586832886306
-0.023577692313409112
0.058391227665443135
-0.09438543261047425
-0.04093047783426427
0.020712623454717694
0.036233112696767975
-0.028427794646024976
0.03713670114546775
0.0581071817525895
-0.028007433316423302
0.043000313155507425
0.01437745695026235
0.10635472506736596
0.09211717935386908
-0.037475649294981796
0.08389313573668032
-0.09874755710042024
-0.03401136931750938
-0.03690683455498998
0.020329493282831252
0.058111818740190516
0.01939504171743718
-0.04356314201302706
-0.06471251241277329
0.06348510737021106
-0.056090795793697634
0.008388844873193442
0.06918772457989181
0.014686574427682663
-0.030810775771457997
-0.07011281919326996
0.050466005091927675
0.02503771511075734
0.04141612331645706
-0.0034970548225130298
0.08143532199772884
-0.08621110878219353
-0.11818753305497841
0.07132172449394253
-0.06426920955030038
-0.0557239429699141
-0.08737643147731332
-0.0347851319121807
-0.012881910803380133
0.02700476294148158
-0.06466837567944385
-0.009884410544176651
-0.0196241657413014
0.014195499289903612
-0.030705936886528735
-0.07879464549637316
0.03311767931033529
0.07679663997958126
0.0419256557400258
-0.0037069223046119074
-0.012787170232801778
-0.17992030727108305
-0.003917247978988809
-0.04010657917054911
0.09949293279642536
0.13160032092417998
-0.09391551440865438
-0.06043959033793771
-0.07902149651399552
0.13466820039911717
0.09957644838195684
-0.06540309333212203
-0.0063754995938405685
-0.030265930342472314
-0.09229553618093748
0.02271444039217109
0.05580082526773138
-0.002929647430626652
-0.03990022797852614
-0.09243977593114959
-0.01491760849057063
-0.1543218314991573
0.07505545537621645
-0.06294355345173541
-0.0405551101788583
0.06844589040665092
0.1231722533353232
-0.03764366000933213
0.03765315796146414
-0.05189238721513456
-0.00022201753959183576
0.06565608410899129
0.0715699111258087
-0.08496581562676153
0.1018487818178186
0.09039640320454996
0.07184696144195726
-0.031024597018158736
-0.03962736382416165
-0.09892907469057274
0.05143561401731612
0.01924966594464572
0.05551263406839649
0.018081532854313166
0.07791310042956424
-0.05404830547281417
-0.05964644079064387
-0.0660018160281148
-0.1188817887647057
0.028083700726847616
-0.03382601846375384
-0.10311167577153685
-0.12060545550294337
-0.09072471591900104
0.004507841135428908
-0.01625957288927781
0.01125603862247889
0.1169259840732059
0.0698520411001871
-0.047097240250784066
-0.038519175904809154
0.04726205762949852
-0.028789266199264977
-0.04062580882955907
-0.047702444106189706
0.1379316634309241
0.059950183511160215
-0.06765180817147685
0.03380796187240498
0.1386328332446283
-0.04938919586425892
0.06706892473812065
0.08650643129860366
-0.051735631904565746
-0.0406749491365929
-0.09084383917930587
-0.12043425859826759
0.09175977623296382
0.016742914546218422
0.05709754698066311
0.11990320881438382
0.0015813075421871668
0.051430372683634845
-0.0032000654946555095
-0.1256328006654
-0.04033948038201955
0.0526669291856098
-0.12774236434094616
0.048865019488503046
0.04920153028591228
0.06344965960652962
0.05252465224902438
3.1349781171617004e-05
-0.003654237058358828
0.05880721231430578
-0.005976649553307614
0.02163396780727553
0.01772182968673186
0.08433466017404564
0.10977073191064624
-0.06622233652960877
0.11957820929964406
0.0457171976441915
-0.012495174214662938
0.16144511852292223
0.07895105427144483
-0.0031648867700488077
0.046463974446730116
-0.012964267323632844
0.11564288900613805
0.1276599188130155
0.08197227885155257
-0.03129712972353351
-0.022964494811119188
0.08877809783616279
0.0179757652401011
-0.1305448669387263
-0.018062524241279625
-0.07796186396212687
0.09976772271934248
-0.06209835076381729
0.00540053042944342
-0.06362656396386974
0.1672207720409773
0.09642270303718846
-0.03702838685871419
0.026566054435778797
0.03711548627140441
0.019074589410119854
-0.09635763228347209
-0.003859307636975934
0.05594811293966017
-0.04597063347636035
-0.002154781541240687
-0.02576257231460401
0.036679195110488255
0.0014963181489449674
0.10396016083727819
-0.0801867247264218
-0.01495724467110195
-0.1373394879936826
0.0907254974225743
0.02833034532538062
-0.012283100640855193
-0.010881457256410907
-0.015624369333369626
-0.08341889924873204
0.058851874817416286
0.0012196417420441065
0.022630337679997208
0.047190481075937395
0.0880907768093273
0.01495057592967834
0.03531045149234559
-0.08196014101946625
-0.0784102256368794
0.0816511974254329
-0.015401603677960615
0.05925661844249242
0.013962596489819389
0.010683772189240132
0.06759830180425758
0.0009332560494032464
0.09853666241175768
-0.027507023131227184
0.12361130092220679
-0.09032271611231889
0.10967395665221441
0.07257632302242745
0.0621494277960664
-0.08725410562850365
-0.03736508601393511
0.011470877534380147
0.10142527598427198
0.0733130905356872
-0.02395260447391321
0.0010485695489048234
-0.14910072529118784
-0.016685929133153983
0.011911197418699861
-0.1310880149818765
0.12258238813704617
-0.11676736255295873
-0.032443030902805925
-0.09928093451976142
0.07779753829878545
0.1655398264983482
0.044678971964960394
-0.03477904826928937
0.004632365892699453
-0.04792371743055046
-0.034322745326293896
-0.14031683162237701
-0.10120825149275264
0.049448047833977826
-0.03828065082355282
-0.024873855438034928
-0.07649312862507764
-0.09211123290925533
-0.11584116983451793
0.030629913086564157
-0.045938707039708274
-0.055919820924103206
-0.12274067975690967
0.043148998922529
0.06647417668784736
0.05984405847301975
-0.06751294817390122
0.033406215929330754
0.07312993300494507
0.07955326916111292
-0.10938156816731717
0.027870776630709082
0.08985545217164459
0.07262443584079174
-0.006534713902918142
0.09702395819244515
0.03454069685141852
0.08593868501423067
-0.02297134565721283
0.047618839311882724
0.0010273717046637482
-0.11346207344594192
-0.021918856493291214
0.07439793215469896
-0.10944301892730077
0.016412611225611395
-0.027498707006102942
-0.046067276715576366
0.09225275253095908
-0.04916410744897315
-0.07093341855602961
-0.11698981384986253
-0.047529575907738486
0.10688394935229474
-0.05530254332885431
-0.14647825913123683
0.004185094627906964
0.08708514929111319
-0.011401510800281777
-0.0004601629660777751
0.0844968386231175
-0.09769029387462706
0.07034232451886675
-0.12780173708855183
-0.0529777631137225
0.06146243429795258
0.11432307583465876
-0.09256177166128528
-0.054032371854541295
-0.0695480064055812
0.09770375919082343
0.03919613231629584
-0.05591349003692007
0.03920331427717854
0.14789160531570905
0.05980414077097867
-0.0855346915005792
-0.016437483924843833
-0.062461433930882264
0.07328741314311285
0.07089180796153847
0.03209825338634131
0.03222952426346752
0.0040426505866759214
0.08149263960744546
0.01530673110600601
0.05116414839739519
0.07102236852218315
-0.07546022337031023
-0.05876206635024063
-0.008768789876244479
-0.08073037807734007
0.07447294451322276
0.008064281819512197
-0.09504152680880121
-0.10636549235314643
-0.09189457943253598
-0.017123994262263707
-0.008433275104406123
-0.09640301687165913
-0.058253119157094316
0.018293782877994713
0.0022037129611281476
0.1419128537992759
0.03405503887977866
0.13312006784431524
-0.005879948541501994
-0.003878996253583445
-0.04593889425651512
-0.0704696467018784
-0.028666018827056543
0.07491671013686345
0.0818050117394
-0.07189506979085578
-0.08199368844939434
-0.07189293237701452
0.06983318801960368
-0.010003661225002158
0.07883513986162788
0.05851802849821752
0.08594078483506402
-0.020460926823646315
-0.02638825174464326
-0.12150387840044394
0.003028140470679173
-0.03411157363481265
0.023688908109767554
0.09385067795213171
0.038555595702725286
-0.011484196055332288
-0.07426318644425342
0.10671149668509915
0.05040792766802269
0.019969198896476387
0.09709889188664915
0.08111750241274185
-0.029877637563466772
0.14412300351825214
0.05250179906613049
0.05459384160412551
-0.0007359374569430891
0.10574504592421317
0.08444417048379001
0.0009591127381344153
0.08778934219786522
0.010025523296310039
-0.07108288056898639
-0.07665538316209014
-0.05528254809821846
-0.06472958787462614
0.032511272171844456
0.0023034865358949937
-0.05685679132089991
0.05214092902967708
-0.11803801267578594
-0.046604085333131505
0.014166156021710157
0.14679503525955928
-0.024711134571789698
0.059296834062616266
0.08244732401265077
0.11304416623999153
-0.01408765761408711
0.006019786601702559
-0.08235159435708865
-0.13500314832972632
-0.012671020223966696
0.06427505928569814
0.006380480206978903
0.09995869593257861
0.09292088679962857
-0.07071146296022335
0.07157192017240646
-0.1100187996954874
-0.06402375001692587
-0.05661870262144676
-0.00019406862676431377
0.10486672259508768
-0.05422807396877283
0.0038950960272302747
-0.021127019811812506
0.00407874617080972
-0.2054623073626337
-0.14939206371510563
-0.03014045889583086
0.0017060007798315588
-0.005110098011305557
0.12954005570471622
-0.019615167565293138
-0.052141544811688326
0.06471499110610578
0.06556057748698778
-0.09667230132169301
0.05726852317319551
-0.0024709354810888134
0.06861251067548069
-0.006978524671188282
-0.06579262793669699
-0.07696271732564963
0.006490580960319925
-0.158077031933127
0.03228685601313318
-0.05089585967838271
0.053722235056652363
-0.03036057542003926
-0.18001421634866563
-0.04364701968738462
0.03292927812856906
0.10325775166776242
-0.11822480731024815
0.08860436472314481
-0.031151301454854508
0.038051138584932725
0.06714624135604366
0.039895078774747454
0.06038926485418201
-0.02978782847747483
0.04542059155814742
0.04434824744302715
-0.05126183685916451
-0.027593132428482874
0.04125199698606794
-0.0335518374005939
-0.10280833872972701
-0.046628641550454736
0.13941417065603326
0.011531020809389286
0.026441862663198645
-0.0666647196556999
-0.07228536685911018
-0.13049443770096197
0.012434100995897118
0.05244508068078083
0.05513099118079219
-0.06898563446780809
0.09813408720633557
0.09713993096849804
0.05395199235076483
-0.08894339422092207
0.07801587915557136
-0.006952235841259754
-0.06048146952921974
-0.12356453706861928
-0.06375896400115502
-0.013756166666409775
0.01047930523742843
0.029979711169825125
0.06463634225688994
-0.02041263623225879
0.004745053996486895
-0.10339911455527634
0.003698348415041489
-0.0010256760835275084
0.038770246002381326
0.06360287194601162
-0.08856473618796115
-0.06845396965912694
0.08650129642726627
-0.09782267181399856
-0.15701127307949322
-0.07192891510265077
-0.019749483605019835
-0.11685484753246472
0.08621533843110385
0.03595201610254611
0.02261607570056465
0.1311965113592886
0.04556997899722721
-0.001442547797894108
0.06615395422168834
-0.00404270247018209
-0.07146001590969756
-0.06872781437973802
0.011251734140943472
0.09043689852298452
0.0759665817717813
-0.11112167730004491
-0.06821853395308418
-0.1300738772848506
0.0709354592179792
-0.08504352784548364
-0.06226387179112252
0.030129000422237186
0.09501593577379393
0.09961868272742118
-0.10131958933353517
0.027554491095722822
-0.0822574072589946
0.05521664183966421
-0.06783052283712372
0.13419115826884664
0.10402035992327867
-0.052090477094618844
0.061013094215355224
-0.1749336113886244
-0.021119746913767605
-0.12242999138578647
-0.010041299786404258
-0.020604068867226426
-0.043743446705725976
0.06478160164303005
0.08658373052798479
-0.10264714627722007
0.06858019431775646
0.02680018513248504
0.04168824402896657
-0.026295807860696175
-0.00017815351595230935
0.09847841698025472
-0.03255160510382845
-0.05574960034597041
0.03263850523541817
-0.03385770714890451
-0.0002951475348634411
-0.027968220108971976
0.0012768972392181081
0.023625196446681585
-0.046828922839029154
-0.08682255595029321
-0.139252777874334
0.037736876365358364
0.036699232522409884
0.10041719926880936
0.06697477228964097
-0.0813633345734193
-0.0417720511580435
-0.007691153719033682
-0.07486124127311256
-0.011870001965743726
0.030513375732272814
-0.10710115548804795
-0.090261925027221
0.02815105333850851
-0.08561383659632239
-0.0009747486456947099
-0.05009863233010618
-0.09741876683492788
0.1276585430860859
-0.00038141663687607774
-0.09516423344548815
-0.05087665945462175
0.08393338063692055
-0.05106349638215213
0.02474892410273211
0.008228090981233924
-0.07405591880972395
-0.011772058405148651
-0.01579524182290168
-0.07988000542647218
0.012035026168769584
-0.08024877036139907
0.060221270198965005
0.039709257856938504
-0.07458313685782653
0.08278179798461618
0.09513774045250371
-0.11080361782179375
-0.00613359758652922
0.13382673436223003
0.09084077518779973
0.023707881634851546
0.019649211640703358
-0.004851981140951894
0.034918073818750124
0.051264279801037635
-0.02989542531869256
0.12515116662309295
-0.046285134357043484
0.07137383295660332
0.028574789944874498
-0.09421617125025031
-0.014261963341540394
-0.05354650603179374
0.10268673177595707
-0.01204894582030115
-0.005230440221255213
-0.02421676927086791
0.006262623748502545
-0.05948018309954162
0.032295199256555274
-0.05103415810439629
-0.11555415750868823
0.055752494189918865
-0.12763016324159157
-0.10437670944419285
0.026373877720139362
0.014509345199317604
-0.0202481615501471
0.018144901843043605
-0.040268827674753524
0.04974225613253239
0.01680229678204191
0.10747709047821279
0.10805639138274598
0.019344211036206975
0.016518358925457666
-0.08835534237760943
0.02776886870829788
0.09013777969421978
-0.0765315699271553
0.08232285997290836
-0.04561477746642224
0.11898353234264902
-0.05522547860319495
-0.10416718537597226
0.016974457735689626
0.08819492735997086
-0.002668743188715985
0.0642781580843362
0.02859792947350799
0.019709147591614476
0.10626409374187105
0.0943748543485934
0.09677948967086851
0.05430124596706357
0.051432588244066026
0.0008018870990481842
0.10005743799844354
0.0685978935014406
0.0671506054163974
-0.012651282269201482
0.008902609834736461
0.11269082729892355
-0.04739844453455615
-0.11834319852063369
-0.03536251783449779
-0.06581795926347851
-0.03923013606024884
-0.02192845983457189
0.055083940844339443
-0.005583304442620362
-0.07645604880253368
-0.07147710789357178
-0.05757461349594711
-0.036713570736536354
0.07798282551018251
0.10487114747626664
0.001334883275305215
0.05516331462891078
0.06004123606078504
0.12378996858328553
-0.023099494907274126
-0.047597775091222434
0.02375266250804029
0.020636241190371628
0.07371605637633585
-0.035347241990950934
-0.020494231244093837
0.0013527068130812486
0.00024490613538190927
0.03746940234307064
-0.03891216228033608
0.07391001960881503
-0.004092254701615683
-0.06441414640953162
-0.10601271061852313
0.057566149555568484
0.07232900566208479
-0.06961076820237283
0.1229685128352003
-0.0882601284199304
-0.05265707243920757
0.02872157479915398
0.07544015418173401
-0.18229460270904868
0.07489400371091656
-0.051364977601738394
0.06812860851224373
0.004982458459327946
-0.016440578463221125
-0.020433174762295298
-0.030204212561953207
-0.006497202379400318
-0.03249870352346333
-0.02004198857427887
0.048397982785401306
0.09617544454737731
0.024964405767001815
0.03961209117862908
0.03586488293290538
0.02183900433165067
0.12135560811724533
0.1655474372827611
-0.10147854318770663
0.03853425513009343
-0.08965472019174862
0.1267287602002107
-0.03862040717377492
0.09099110708040063
0.055983223672551256
0.013110288069181738
0.028925643221017715
0.00882846267868578
-0.020167375090113702
-0.15424752582445264
0.09103597872906499
0.01968754154897034
0.06010767141492238
0.01987351418628904
-0.008644409331124444
-0.006365970676806027
-0.03978493628692858
-0.03381264261676729
0.09894043486230926
-0.014504853856500372
0.04392423888285533
0.004555771672968208
0.13425979952312675
0.01331972425367107
-0.04197781661034201
0.017556342570808545
-0.05854967584320633
0.12100741982192131
-0.08768459140132243
-0.09912580890590553
-0.05504582325028535
0.08905323716741388
0.0905632291072156
-0.03718237960833938
-0.0015612557040914975
-0.022860427607682185
0.037424144200884045
-0.02464543442384061
0.09980806565998356
0.055298881998878655
0.05381096103839083
0.04052689971265564
0.04549528209725396
-0.020653340850750546
-0.09151121555876279
0.1483763558712227
-0.1295683123378569
0.035814193848367204
0.008122728168976221
-0.08874006717619948
-0.17963426654777187
0.03615740743184241
0.11286363391969519
0.14902168792950365
0.14768750935717198
-0.1784183707255175
-0.004520844647227509
0.024574426954398113
0.021806001625781286
0.041016064162285634
0.09910840585480762
-0.07825553218341158
0.03280200464850893
9.443642765914231e-05
0.06977779286451098
-0.02936268290988895
0.044998222817475356
0.032823226444394824
-0.0007915216097630929
-0.07185686515619502
0.055678447875331834
-0.059106747143737294
-0.011298015415655309
0.034782334011664966
-0.0837260840349238
-0.012034394689724745
0.005136088370565359
0.1069305912895979
0.0670981687108624
-0.037915320195920074
0.04365169130932261
-0.06030217229479459
-0.013257567148485727
-0.10764260865963941
-0.07153786540783344
0.10230155155505134
-0.11909062644412215
-0.1788060702171364
-0.0005049020019746981
0.04875585383670573
-0.07707705748216676
-0.1140759868177384
0.04309000934494632
-0.0020566492095209846
-2.8316556617788273e-05
0.05390699535770186
0.01819259104281517
0.007789420820669662
-0.05011649517482597
0.08081647940688338
-0.09944397605603593
-0.021970579792347063
0.06308673778554716
0.0954020322228784
-0.04205633104702892
-0.04377919500005448
0.044743326959180214
0.05318808474253162
-0.01932441352065737
-0.004226165367160996
0.04686593493817497
0.0580136910089476
0.010240960243740369
-0.0021223617743847253
-0.052083972502833045
-0.04419481148139092
-0.06745010888207642
-0.07186356805118932
0.004629046327078521
0.0703244907587211
0.11894026429408878
-0.10764429013047748
0.05256068581257102
0.018550171508634732
-0.03498865593862854
-0.12492081153983584
-0.011748870371772465
0.04156567384726083
0.028754594998008632
0.13427784729518846
-0.10532507456817541
0.009098518804836581
0.00044373889843007355
-0.07171884072412499
0.11356239765530321
-0.047532838109522475
-0.05608324044595639
-0.02494875677204715
0.027192678245046575
0.06052365759142171
0.02308469177008225
-0.0016706278239967615
0.06636795056018079
-0.042119761189346426
-0.010522704479023232
-0.006041649022181239
-0.11536717277212233
-0.03367125813429781
0.042895080720371036
0.11720231204636215
0.01594188610655705
-0.0627618334105431
0.08307955325099556
-0.018464554731138675
-0.08877743757429543
0.101060454137013
-0.12258777112996667
-0.025710233536543878
-0.04573017302082425
-0.1424243074813734
0.03870097467323389
0.12386871668039756
-0.029955281030100266
-0.07326388371308888
0.058496983346422886
0.04783762336184688
0.040679582080144015
0.1072949287542177
-0.013079046495544007
-0.025841445907518662
-0.09006272738428386
0.10827257197120195
0.0025405390940205375
0.061584571113704294
-0.03802749380375979
-0.007133272073790576
0.044183537306501895
-0.01832641170804851
-0.09609006618663182
0.09300574191132858
0.05959108173148119
-0.05794843164253627
-0.07699739504085491
-0.00018347805865116896
0.0008862974902659281
0.08253818220397253
-0.0019132624975255993
-0.12738735205248294
-0.03788063209603955
-0.05512152135493486
-0.08829569174080727
-0.06495917602687622
-0.021167489780002217
0.0910602273215747
-0.0013682113362055302
-0.14070317876585103
-0.020042258450180674
0.11688018751985359
-0.12198522046064895
0.07339926204669517
-0.08418058796161436
-0.03787751418540433
0.03934813543652564
-0.15841207301321128
-0.058015946542834006
0.08965224377500375
-0.07530606037798623
0.07973900944927659
-0.0318939504088103
0.007958303995365791
0.07835346708474134
-0.047816431767408046
0.16130257695513261
0.06505238359783007
-0.06841428182878205
-0.004544847994134854
-0.052658789079101036
-0.018481746835531027
-0.05964705801887358
-0.11321397844192731
-0.06035457639404308
0.052572788323600524
0.035547925851683204
-0.04334260786787013
0.07129227230773276
0.10794371392074092
-0.049266595166132944
0.08739070574137503
0.029554951592052826
0.10071904014722041
0.008008525438654695
0.055626564609345494
-0.11297868713496541
-0.009495584622909848
0.05661158651170072
-0.008812837090416416
0.09740808615251917
-0.0915818022790397
0.08130902657391864
-0.08937377062593752
0.10002319968111484
0.024801994528398163
0.042007597225453726
0.06316792656386194
-0.13013149273053792
-0.10457867878574774
0.09131447541160957
0.14327515210592706
0.06436265395832645
0.019788248176090734
0.04446668503800545
0.11698149405420316
-0.08502288236194183
-0.18152124104976586
-0.05435295935214822
0.07881085420534052
-0.04180657158829726
-0.06190800428224028
-0.09836185824190709
0.11461660718912611
0.09953932838423238
-0.0366306357445277
-0.07467281760388125
-0.04985394016685089
0.094402041844553
0.07399023915960874
0.004483174740197456
-0.021258748572430406
0.03975726171751961
0.03050043067166319
0.030002957651267526
-0.029702966351108268
0.16561760890769492
0.14066514330295604
-0.022465111593453924
-0.02178653444831584
0.07423043376393158
-0.007072615622792389
0.054156062585324176
0.08714333814500362
-0.003192084087952487
0.015072972004332883
0.031137783261709656
0.1197415528467001
0.004375585404719454
0.06213854392526317
-0.0801246999675758
0.06314302158860362
0.09735271323685803
0.07635952701120892
-0.08051512977566574
0.1054242347100138
-0.008621169641089662
0.07985326619457815
0.10155193853297302
-0.06244584623896297
0.09273511262282591
0.07863993611077805
-2.7394321171838157e-05
-0.09356903589665774
0.07498775157147998
0.03540244839146348
0.12526439026299221
-0.0883007444238324
-0.06270706149584998
-0.1219264686624248
0.05382429971629099
0.005490025564669934
-0.009536253178720581
-0.13475463706381793
-0.03911167529234873
0.03728773843877631
0.1272740355721712
-0.004250671573036553
-0.043091354402670014
-0.04872841488180456
0.02775129949116842
-0.08040625700160514
-0.02665689239361948
-0.08210253560062751
0.1563638226594382
0.010331296591567576
-0.026097034849396107
0.00276653953428945
0.0805332190516303
0.12023514086184914
0.09553812893695512
-0.04810390622620558
0.02660311831043095
-0.08622322921855115
-0.06195125683202798
-0.016284791592716317
-0.11914857806227958
-0.10060552822036993
-0.0773371871595887
-0.05649384761236561
0.09338685475200462
0.04669138871560037
-0.01924648492166588
0.005245752571403392
-0.0383088570414491
-0.057858215270031425
-0.04825279836177314
-0.06952592747566767
0.0700303241181865
-0.15907545775029802
0.10175467330900674
0.027567714056811948
-0.014194211060790997
-0.02641376479678964
0.003745188925763636
0.06938759789780037
-0.0528774949898297
-0.011634962447388122
-0.11297880601084935
-0.1470208951184094
-0.021061634883258754
-0.07674580539623187
0.09811675347598563
0.21624113114261972
-0.024305110057930634
0.1618112881810246
0.006619171865343377
0.005303201501266815
-0.05224620006560994
-0.003401938751253587
-0.07021668548519863
0.14373986525857416
0.03008006731154407
0.07021420981054134
0.027088078387974453
0.002085949105294754
0.06453042395774268
-0.010055089923665888
-0.005279241548971095
-0.013720542846407674
-0.11814974444279687
0.07590219533215069
0.00026003248144311285
-0.010212818887394693
-0.07410486936116581
0.03420496647972525
-0.021400769663244838
0.07231539581071722
0.023575287448871537
-0.04105279295890943
-0.046886227575277065
-0.004345028660022536
1.9416402026345132e-05
-0.13794472096604632
-0.05043057073880808
0.03803770115475498
0.05301845007405114
0.05234064361663478
0.05516166256422958
-0.0568340434158703
0.0436967469447379
-0.019506253139313447
0.09535961604178024
0.053964640896768015
-0.04340165503009542
0.011216089328567875
-0.05621827718498887
-0.0022868396490579217
0.14098824431801432
-0.043841231840895604
0.08623911654852152
0.03677793318254829
-0.14129957414918434
-0.03175133531311625
-0.0427827060668818
0.01690110617957275
-0.05441868521540915
0.007869380788975233
-0.11070054633381846
0.058424164885475666
0.11214624036477464
0.1135696259689856
-0.024872755683190834
-0.0838054421172307
-0.06391045766320588
0.12155586155180181
-0.14062454147478917
0.12648610280891098
-0.03446969373036851
0.09625818455777571
0.06770156020072968
-0.028527143791001023
-0.026497608910929362
0.04293861753876263
0.05709160177129198
0.05954051170038973
0.1560426960448509
-0.11801214533751744
-0.12507575683982966
0.03729987143983987
-0.010998147333905566
-0.024764235729180215
-0.023791621222945075
-0.04104734360563196
0.10950432766399004
0.033848630887130006
-0.10272154115126932
0.09504127740803148
-0.18344320345934825
0.006570789259895596
0.025124245339624568
0.003814907603229003
-0.05422276556611749
0.04278547512179371
-0.006724671135481368
-0.02851447266292212
-0.0028232742755010913
-0.001997077905650646
-0.018646500217639535
0.11370296979687851
-0.045219327422628214
0.050343542679088055
0.07422167955936505
0.07886455713576546
0.10427782536064054
0.05447254212357659
0.03013140600929181
-0.07421780209711898
-0.042941726846669935
0.03060796436689406
-0.027646328508236048
0.07027430771257762
-0.01566007642200579
0.04310582023494566
0.010390006494739572
0.08093061843852932
0.1196166744710687
-0.10745587088643457
-0.03962968304533249
0.07549358868465261
-0.06978823155839131
0.0445595728755167
0.010105181413644165
-0.11645930256650215
0.10717954535221377
-0.05349951623701624
0.005228595607368803
-0.12013211452184477
0.027974473102872256
0.03214422773766742
0.06379826769298261
-0.029213505324279528
0.1039109383844775
0.0575862007955061
0.10152470703075799
0.016774896617767883
0.029997097714357584
-0.06869698048626725
0.002571849586844961
-0.06728063640687708
0.01111115852010046
0.12248357575347149
-0.08342260017240066
-0.12224718241879082
0.000577729250339996
-0.026487371029760627
-0.10980280616142078
0.04461702234705723
0.1375711532625626
0.03304692548268054
0.0997323936706121
0.013267502555360192
0.026166121500418537
-0.15657981708765553
0.08751323042623288
0.020931001270236862
-0.019492163148432787
0.15668644007317975
0.052729408777827017
0.15488809388106262
-0.0006768910149708503
-0.13491631300409734
-0.04669961832966571
0.00480487185212922
0.05279086692237327
-0.051272456059430996
-0.0027463909361643804
-0.05129560675318456
-0.06845679432778251
-0.028957867426805978
-0.012731911868305888
0.09425589858975329
0.0322362126638491
-0.03396795720048087
-0.15448262365393234
0.08707893332765466
0.0852760611463089
-0.032406915288697775
0.00012011098921938913
0.032680269168537765
0.023912113100765926
0.11623211986435412
0.12350837136700511
-0.08231599369977725
-0.13844956636282188
-0.010731314672170924
-0.04242642248161112
0.028414685182227364
-0.16268812633969365
0.062345602302858266
-0.11167910801686035
0.04022506918707707
-0.10659552550171839
0.07772371528883977
-0.0543367073749706
-0.028621137667896056
-0.11193396436388871
0.0007329363874190945
-0.0170104989683975
0.010097976207915225
-0.09465271917701083
0.06626775350670608
-0.04900725283233634
-0.11654454424730262
-0.0763917775182368
-0.11748772666521723
-0.09727660467232442
0.0449509328150406
-0.025192684273284322
-0.05541335088709484
0.06630243026117777
0.06894663323544405
-0.004471737582526596
-0.025694626722111716
-0.01849860389383918
0.08967801793674524
0.09558210380262991
-0.06035772933532289
0.09670746843813553
0.030417156106363
0.00479140986600409
-0.024403492820412525
0.0008305349058336769
0.20318644534986147
-0.061419123788438265
0.026342940306005837
0.12685444943163915
0.0002045280876371156
0.12209093646366696
0.0815101138464588
0.03160371677583103
0.10761219271062326
-0.08235412986211064
-0.032493758115376074
0.048360200940459494
-0.01139617925870097
0.023778678017483613
0.15952211296342642
-0.02260958672279649
0.12447024998264208
-0.009236145363043876
-0.07437280554385117
-0.05032959980660282
-0.020674401369287193
0.00864148946368529
-0.04910476183736107
-0.07034729267675562
0.0839309341283622
0.06809680504618891
-0.06853584906525531
-0.039623725468450374
-0.047432639075702276
0.0018731631730024396
-0.07319567644308114
-0.041571974816361136
0.05683015447002463
-0.108528176649898
-0.0026375409466607943
-0.13248772725641617
-0.09413577166420765
0.00979076532259441
-0.12406218079712186
0.08764794635146064
-0.051358089841046194
-0.029662167030455832
0.062121412162128145
0.06063088055875753
-0.11112156329200626
-0.04940908312009224
-0.04949454293412484
-0.03896831627818677
0.008802988470399904
0.027470248990296067
-0.038356455124788615
-0.20112519199479217
0.12219849422133319
-0.08182581925731566
-0.011159531276449983
-0.013398236983194827
-0.017738410692887837
0.0059635006560318235
-0.03646099943927097
0.0077126850583860256
-0.07651940455340538
0.03825488615283565
0.04338039114973682
-0.02075475595269511
0.009311861355767347
-0.06708838828616656
-0.005143488190560764
0.03823780098687416
0.07131732388059261
0.008423957972640953
0.0656418848270917
0.02974017842293464
0.05097689373279925
0.09583606915635504
-0.025107276638429054
0.053012984498640385
-0.03509614064429388
0.03798951965250328
0.08802962238786934
-0.04356536140798733
-0.0032046616442635498
0.03459218316270389
0.03971132324814558
-0.03517165574557964
-0.05147557834952372
0.05920629635242546
0.06467183048102033
0.00380386945827321
0.03109450457440727
0.09063728344649677
0.010358352790427029
0.07813381477447975
0.043510681517139285
-0.06696778162797191
0.1471323487218018
0.09578899843701166
0.0765214822995866
0.0375410997758164
0.06978593279270925
-0.09993565773038733
-0.04763169775408945
-0.08368616588790077
-0.02817915361060799
-0.05435584880969863
-0.05178138785122317
-0.06908647499629231
0.03421222949681107
-0.057474160660776395
0.025981262147889077
-0.035391684039492784
-0.1366992452759192
0.0556102441528267
0.07910455067809213
0.02385352481033819
-0.03936039466475697
0.11499638298977514
-0.051595523180766815
0.0022067623543888747
-0.10495814364390876
0.09384134992790744
-0.08387094275808663
0.030348999288428193
-0.09632637417631011
-0.05460132047895122
-0.0015775535467424861
0.0821307710386393
0.03099285289459611
-0.1268369527800009
-0.006234531750485386
-0.09279812446987597
-0.08210873276721574
0.03348874218508884
0.0052531142475960805
-0.12156719932036658
0.07780374517309609
-0.052934738156783075
0.02837552496124188
-0.1589190997757891
0.051727412441418257
-0.11255251909330441
-0.11716494290964817
0.01515882462077933
-0.07518109492766874
0.02319814231551557
0.059338355017790216
-0.028140824301641106
-0.06484486675976563
0.05518278263385131
-0.03846267371016676
-0.0008086972278604105
-0.11325158780779153
-0.13726890588032148
0.0026897134899871284
0.052850412779467865
0.01889123679571729
0.17222593388810978
-0.0037416700470928477
0.14273738389643417
0.0765704371704599
-0.1093847313347599
0.10889948849601619
0.10107385881411143
-0.053809110985129464
-0.008312247529685969
0.04655732931890957
0.006695101896221723
0.14844410282172663
0.01715356601400921
0.03968609325133426
-0.016726512321882707
-0.040637482079857505
-0.054449568267313876
0.06259155877445528
0.13819325280565786
0.03428518535637691
0.04407630840563154
0.05927648236631998
0.07739664186581158
-0.06568735320448865
0.10056947321840078
-0.019086283456822978
-0.007774600829556352
0.01768864788718015
0.11361210012465585
0.018506351862085515
-0.12592939512579787
-0.0034418929109058965
0.11291295166694139
-0.035978282291698416
0.020145248980146562
-0.027074135012772938
-0.07896226854774227
-0.08722769247882804
-0.1187762507311995
-0.07844446818187699
-0.013549963620986724
0.07376548723050436
-0.060096873594390025
-0.0397314873145065
-0.0860194727591732
-0.028732072508722176
0.048138083054800454
-0.06004338255760407
0.0813008733535902
0.0034386753037949783
0.16402236991241936
0.06074435897517232
0.09273593783714912
0.015235013492166197
0.012480755438908524
-0.08618684217819064
0.043780899247140674
0.060288018967595204
-0.0741275362547167
0.05521923048690982
0.03280212602338363
-0.01835651569926881
-0.06125308614129189
-0.004365860755538888
0.13050896982306995
0.014183719741744365
-0.02039639436016195
0.045552473833419024
-0.029561643874889902
0.08866536618637806
-0.06305181706450458
0.12058102510050125
-0.012310643940854609
0.00564138100552044
-0.006447207721542956
-0.005857501325027761
-0.021801902612301503
-0.02009409801830275
0.04980562183144387
0.07481240572742427
0.02278900151965384
0.042558158063488685
-0.07612659249812448
0.039602005334979026
0.003837385375034385
0.014216376662759305
0.09089425929618318
0.061739966188152896
-0.07081782811167382
0.07163307620785722
0.07090148507689009
0.020658190677905204
-0.02942886884689264
-0.04005208041872003
-0.06023433777698762
0.1010032300937686
0.010453176064973245
-0.09080465792517702
0.036187184055072576
0.09671536002552429
0.13132170715261002
-0.1396227324524325
0.0443800865991987
-0.03519556909786128
0.039800993897208294
-0.0065738407693021845
0.04513773401271263
-0.08080209757409561
-0.1352695799674013
-0.06939915247264082
-0.07194311852739896
0.0418751701493872
0.13046157114243545
-0.07261299112721196
0.0033617033052399294
0.10330943591627914
0.0620025565676197
-0.058696128485671524
0.0010228055539449766
-0.0009962448463418576
0.11756018698685329
-0.10307906770228055
0.11874430229466817
-0.0627487063000305
-0.023118113710028268
-0.007671772444461454
0.00736236806165576
-0.0016207113465796018
0.12675443207959686
0.005511157653312373
0.09881358789552369
0.009636616926070143
-0.1205643463439443
0.0009636590369475632
-0.06835655934675494
0.00716468424250737
-0.0028554973220136226
-0.014021297352558807
0.009616659461242736
-0.019525985526835953
-0.07915298384273776
-0.0862597307314211
-0.08758561750000005
-0.030507150341588296
-0.023404191489989814
0.07670917760270353
-7.0251809413655e-06
-0.005937443781804152
-0.007334878666160395
0.05527779939726456
-0.01768947512264841
0.07930743826325769
-0.05377946053136572
-0.046958161636470534
-0.12858509136190588
-0.07379669709750702
0.038775618338074046
0.11829185594106337
-0.0030742142184209615
-0.0193984728892316
0.17594678848846557
0.006054174474601731
-0.012801012272540532
-0.028153470777738925
-0.04250457349201735
0.026104164967219564
-0.07013462484396606
0.13428300254024705
-0.08786388198467933
0.11063622992395396
0.06253931022922617
-0.101513181437091
0.06557496312987392
0.10742064065805908
-0.002860372299386432
0.058663012817909074
-0.013523516892121851
0.02126640856508463
-0.04416399731108576
0.0070170721256043855
0.012355579723653249
0.06400101773685657
0.04910604747402481
-0.08619102762892253
0.1414352824542707
-0.002955510609609925
0.022898791845698083
0.1378341448537713
-0.04318588494807069
0.07640245824439408
-0.03962435068887203
0.10857419442315357
0.06840022815745547
0.062459468578264725
0.055323899151881434
0.02435112193092754
-0.05411447203426356
0.01219678467955088
-0.11309068430633527
-0.034899757951851205
-0.04710876171868473
-0.12747886960117294
-0.04665588898438415
0.020813867023822555
0.059330988090182425
0.007252047898942484
0.06552637618019469
-0.10643990071079798
0.012722811894547438
0.035675859384370304
-0.000563622237731932
-0.05817306007001168
-0.09027294673718286
-0.0234879131194365
0.03544031166632354
-0.02973591959116966
-0.13870854466356436
-0.0762560242079663
0.04598151147793229
-0.09576901971638081
-0.08973038675730569
0.08583645557291644
0.08247280344362802
0.0303666026823197
0.03181435818687771
-0.0673868904918169
-0.07235044769156086
-0.07552490090576922
-0.0692694957141579
0.0620756556621302
0.10550482930949179
-0.08809771665099914
-0.07669821912272942
0.1280694554021443
0.052487155607508294
-0.031773591155260024
-0.008796935000605886
-0.055448005461227134
-0.019559916336968228
0.06729645546604816
0.08085721446865272
0.04933231559505832
0.08346944965030932
-0.039225939947172765
0.003346157332711346
-0.0383803303695706
-0.04992020450235628
-0.007497763588445461
0.08869432262078775
-0.0004314509448688612
-0.09047103092509166
0.0754861872868539
0.13211222764454492
0.011982602422290257
0.13997656549823356
0.12297667399347631
0.033412527655886565
0.03485467766587012
-0.12264855988171261
0.09503700874701818
-0.0615018026492154
-0.014754185136360214
0.10475319168629846
-0.05989787075292643
-0.026175056271231328
-0.07871157781221211
0.001844906478771121
-0.003300350318740096
-0.08443342367663505
-0.01551926596469797
-0.049478913672013194
-0.09388291538259602
-0.07635046314557149
-0.09183520445506128
-0.06001322882363165
-0.05043352357643464
-0.0649921912930258
-0.03992025095998733
0.028215870875124036
-0.06864390545799415
0.08375853719693593
-0.07621988072079182
-0.07677145178266713
0.07980193509581975
-0.06540517563310023
0.05648408962966645
-0.10767393562673858
0.01858627355358339
0.0019269608706429802
0.06526981384152654
-0.061116672133777965
0.04847609728627797
-0.0013570302017799655
-0.02669921149681127
-0.12877281558173365
-0.0626305720531965
0.052829630939621786
-0.009551111750372604
0.04100126994808316
0.022040303995839814
0.1059193540428597
0.04289136460393595
-0.09586898894486763
-0.04728110024084445
-0.14071551725615017
-0.016894794881262217
0.02341415847148379
-0.11662944671914609
0.09177978606545757
-0.08833171185657737
0.03958481156152183
0.0973779100237706
0.08289881134917199
0.0030921027802803015
-0.029018382784752165
0.04172480630159434
-0.05398685467536367
0.002775616766230996
0.052260421923942806
0.06706533318198793
-0.05666813942038294
0.048813097583613234
0.0040130962799894716
0.05813194589780286
-0.05936631136605477
-0.08233037718400701
-0.04367665256202514
-0.06975294610074317
-0.009086320336772214
0.052767136998028014
0.0036800073423595373
0.13691088021236897
-0.058320002318072224
-0.05000995209083245
-0.02853480736954793
-0.02217712992726486
0.01657988354943084
0.006396511921112895
-0.006605451921725272
0.06041220452489783
0.09482935440691427
-0.0036587348821190972
0.08118723069510073
0.006561820897074105
0.004331950612418397
0.14367564666494526
-0.021585513834330133
0.12369824994025026
0.021424912789918198
0.023410144367990406
-0.014264733229822598
0.17199304502691773
-0.000842717757211841
-0.12398573566277563
-0.0017079515183216802
-0.04739005039263595
0.12520994629632856
0.05018520919286182
0.0383408417545027
0.09629508544159145
0.011357145730764939
0.1366783643109095
0.06351493719217156
0.03588239571787037
0.07261603203523401
0.05070099697608727
0.022575497888803052
-0.03817766729585648
-0.05754072274605099
-0.13476195897452697
0.0035048292148715673
0.015947403537669016
0.09271527596814683
-0.0024628791926234773
-0.07364585122400591
-0.04452623577841163
0.047957381386035274
0.10377921931169876
0.12782625710032025
0.0030209491959155435
0.02258606374249918
0.13218187166234568
-0.025563877220190157
0.14513732146860883
-0.06580073788710859
0.03240078721742381
-0.03840252671533022
0.03364985600724474
-0.02163412645322523
-0.0055482223933607504
0.020544299807963243
-0.016613219056023386
-0.06774603845039007
-0.06798214566240982
0.10499176241739615
-0.021574972521790182
-0.03568394676859576
0.04730250833508572
-0.04444774509274602
0.008959403871692735
0.02859691126078412
0.049177503443815766
-0.02308422148191674
-0.0921993044143371
0.08135721819283052
-0.08589781003880856
0.11191726726150499
-0.1039234025656275
-0.006050924758765065
0.08793020317810506
0.07871708502336289
0.03103718957677975
0.01593729645489478
0.019026090272749034
0.0238193806563481
-0.10255705113516517
0.008188982042895714
0.0051377415930408486
-0.04548321707311174
-0.001890827803842701
-0.08477986385412438
-0.06324264586943633
-0.007515647105010229
-0.030636424569651124
0.09982282334500467
0.010866727267024976
0.018751479798029
-0.052700709829387744
0.12688860423815043
0.10608867670751396
-0.02094076179247601
-0.04860969515206935
0.12559405472450766
0.08950349678727723
-0.04870921934241169
0.04295096744000632
-0.11650863846165237
0.01351192113841391
-0.046364384600301276
0.005041563632991141
0.03748772107748271
0.12058094218498795
-0.02963629127774378
-0.0739344975098806
-0.0018970766873702524
-0.06282939687614347
-0.029298985247509735
-0.0444886777366125
0.055001311755004834
-0.06499384189420315
0.03709416403044377
0.10658338115696138
-0.08647294020602347
0.09240366973305954
-0.07468656179576577
0.03577361980345428
0.042136441092423316
0.18386601546338255
0.027145775519416635
-0.012789990493350771
-0.03830405396824133
0.07365827653809197
-0.0908767739323267
0.1299595985734429
-0.012720435204110335
0.06686929246934967
0.004288208454438628
0.10083234585593841
-0.014934319577855019
0.01282551701811497
-0.032277826856723556
-0.016478621859126075
0.07209656371526019
-0.10948346172790482
0.11646159454109342
0.021855939282389204
0.030917301336839217
0.04551759712488844
0.02823448366641773
0.0013356044260806913
-0.042605653295511185
-0.05345631933193028
-0.03219792705474351
0.0029125634814533012
-0.053713163332675326
0.07354705512841445
-0.00542538140443241
-0.08619743968802651
-0.07025159313959119
0.03590534951079482
-0.029873589704242233
-0.04512877952401791
-0.049945678789409594
0.042309819109591945
0.005555149782363145
-0.1067426917571555
-0.023726364917468146
0.05177401723882025
-0.10927651061144907
0.07169488040412851
0.07367456522962917
-0.1406961480563798
0.11858834697346109
0.04017327173853306
0.023334542083132806
0.17243700253663188
-0.002284258334117331
-0.13632515287379482
0.023371935017586713
-0.06645442800282067
0.09019156333179552
-0.0029496512045373686
0.05928535758643089
-0.09800948904632187
0.009111249614827522
-0.1293305118127372
0.011119450839508266
0.058575271931277095
-0.021684223948874988
-0.07135213155299333
-0.02289835195270033
0.06150959422023605
0.023917275158354106
-0.03144920126631119
0.06892125812901699
-0.1028985537366248
-0.0075462441854296895
-0.06264563003247572
0.06999306625696057
-0.034492503523324614
-0.11984049576687503
-0.11745302015569323
-0.10202614256430631
-0.09605272666371578
0.04144411653615757
-0.05184466696798723
0.03752977671572421
0.007784313064050199
-0.07642222356423596
0.060609121537896195
-0.026887902363440012
0.04442867533847739
-0.0719863507346883
-0.05819844052417634
-0.05527600394498284
0.0012441310782276818
-0.09598848092261966
-0.12982597965318335
0.03936117655645002
-0.049857792469377805
0.16603437402140464
-0.011688608012931069
0.022720714183071408
-0.11155416956668819
-0.04620237709727314
-0.12421360317012427
-0.1138537923225276
0.09047463393406459
0.09341161083001365
0.024545696025561364
-0.11119343962165235
-0.12415409316185258
0.10637988502325692
-0.07778971686899151
-0.05082234513722753
0.03956001835944585
-0.03397721558224207
-0.07888583646552422
0.09579513205728955
0.1142520369598386
0.04902179823263957
-0.053065157295247925
-0.16445162399158983
-0.08355638548498141
-0.033008176705740744
-0.0033630770559019215
0.07030226112499885
-0.015186487380596919
0.04283134903433395
0.04587601389948569
0.1322720942921816
0.04332407102525517
-0.04458357113151388
-0.05831877845157985
0.0734688557872472
-0.10371003409309167
0.014252186129635216
-0.03960559777015004
-0.017103588773845282
-0.1440864974887882
-0.05522594806502994
-0.06637874379307386
-0.08470916908904552
0.05179951563601897
-0.023544743753908116
0.09339036623242043
0.14530403764451708
-0.021259636499294857
0.13528304088049262
0.04745209422739837
0.1375475207467544
-0.0823477803424515
-0.11148279035156386
0.0031605155577323096
0.11029722095500463
0.04331374294764191
-0.011190378797244086
-0.07705242310429507
-0.06338268444634018
0.08109413695084533
-0.07537524751116657
-0.21203156085261354
0.034886453386157645
0.1112918182924165
0.024835261989941813
0.116994709206643
-0.03182325464310918
0.03278328800386512
-0.06786986469438556
-0.08485991756227908
0.04718622491970804
0.036541796432454164
-0.05717000479730583
-0.05950556826045044
0.001165533270625464
-0.00018336510481139858
0.06591392457238898
0.04776182675088481
-0.013475166552729081
0.026843990662617903
-0.022218578842162873
0.1348542216711911
0.05533042321497346
-0.011504189866607775
0.024307104989203375
-0.09474763928328625
-0.059396345300282274
0.02261863953242975
0.03866922958660108
0.010414288665624516
-0.002968149856087922
-0.019142003752616866
-0.092099773398669
0.05647955580190129
0.003599180801488286
0.05206055357996248
-0.05541716170476985
0.019465591058195415
-0.09737944451135491
-0.049680658284220865
-0.03048126362776294
-0.08424343503550703
-0.1341097976263917
0.01701525326025826
0.1028245941370573
-0.08435307408515005
-0.08814144688780573
0.09808234728368018
-0.0969223258772788
-0.15212574971124965
0.007374466512240787
0.10513673927494441
-0.027769016303224942
-0.0011491446833498205
0.07916227413045208
0.014842849707427231
-0.012175056985820826
-0.008441777579958913
-0.06389046030035721
-0.0554548353885229
0.06153274716833094
0.028822415669430362
0.005681909202541694
-0.017879945909914485
0.025793479262981627
-0.02686862738630418
-0.01720343607846733
-0.104481063481848
0.05719861056471046
-0.09533076193988604
-0.05963166216916953
-0.02773431684557148
-0.05946095211172067
-0.039077842314784624
-0.11007104157118688
0.037796400245334774
-0.08555712596224466
-0.09956070422810939
-0.07011232580322524
0.061062913646878
-0.007874884744992764
0.018559100962619902
0.01820739361934675
-0.046884472182391425
-0.10018082627366187
-0.04997447195982006
0.0695021320255679
-0.01993004402858661
-0.05614634428443601
0.06210202557835991
0.02044418637982661
-0.006513794747704801
-0.00090978320630631
-0.04200181488656871
-0.12627051345529947
-0.09739685505344475
2.641668412164982e-05
0.07478196423794699
0.049793883874540756
0.04067421752370765
-0.09165550039874437
-0.10254120555395674
-0.10656877257918433
0.00041055895326879923
0.10042417999565002
-0.067180252541583
-0.05713594967965506
-0.06610531448689368
0.02533034797278347
-0.005983161735525453
-0.10544222125693233
0.023892364033977546
0.11419530995532151
0.05414451013337174
0.0012771601826945557
0.12146246466669197
-0.024452279554782505
0.10140653334370822
-0.0890756309926313
0.05372603920966519
0.07774894310095945
0.0007654858048259715
0.01738390758741976
0.02479194702859347
0.13722600575168503
-0.14500458780328765
