-0.0026714225406828593
0.00423679773635347
-0.02131518294931046
0.003175715861450358
0.002185956668758191
0.0008518827779276921
0.0007252866250141202
0.00017633268976091258
0.0011017635993988868
-0.004581873896360025
-0.0087324492905133
0.00554467759765414
-0.004805582604463024
0.007292106773969895
-0.0021553387106266627
-0.02598963754895725
0.015282188448672313
0.02289105320788498
6.575449268444323e-05
0.00022212184858211336
-0.0008153257253623272
-0.01056440957868629
0.00013388761094185764
-0.0183728423579379
0.0005002080940244928
-0.014830421383873381
0.009499235806205913
-0.009794623218475417
0.001449426091904605
-0.011115271651116294
0.0009973302377316124
0.0020256374078531643
0.002960288643444713
0.003923510715567922
0.00016865604962221047
-0.0003729066881791719
0.005311541742777017
0.004202174772599334
-0.011946829425103143
-0.010574954333483115
-0.0012780252152594846
0.0030365365596006504
-0.006994106427338725
-0.001423510958924727
0.0020291884039837136
0.04036559688008426
0.0113801728899235
-0.009255187342269438
0.0022230659300894627
0.0011354764604542807
-0.003925869916685235
0.005370234018137979
0.0012411141359115303
-0.002763889498515071
0.001812475395699227
0.0028047438029912644
0.025331574561547453
0.0002893017311456565
-0.001078706325931083
0.0008906509685572635
-0.004818863641246892
-0.004054592176558527
-0.004796353979495202
-0.00800401780572543
-0.0049650541275535875
-0.0005090540041029027
-0.003023864865761973
-0.017999739099668604
-0.011992270222012666
0.0018042266514592265
0.006055028523819448
-0.0029575644593318167
-0.0006805529537470415
0.0027366923167772284
0.06786433319311273
0.005941994009369173
-0.0031699414871555263
-0.0002962600703117207
7.350169185756579e-05
-0.003025392420440938
-0.0010435268563172527
0.0031921800902268106
-0.00016346518863886896
-0.0019413685368240546
0.029122047845769047
-0.004764341205489528
0.0032022591308219885
0.00043800691760747656
-0.002535425981080339
-0.008911402181626633
-0.001454137588422776
0.0044376456668328785
0.0034661046770573926
0.005348075803489973
0.0026724751930645133
-0.0020171424324304113
-0.02437838962041637
0.002061733351930606
-0.002820100576045085
0.00430877182699371
0.0020571752346949484
0.004848867860247759
0.006143934208507977
-0.00867924838987084
-0.0018985779459373164
0.0017770924829789742
-0.001225206885207964
0.0030238938859582067
-0.0007060202488903019
0.009706497353501417
0.013024097727047613
-0.008411717642787022
-0.0038556624876795167
-0.0005874568275004201
0.005583703900438941
0.015407533522035327
0.0014858168949547271
0.009295984353376122
-0.00536205078447913
-0.0016643109196964232
0.004437898959275647
0.0025300213608596984
-0.00424782185944365
-0.018198321114723977
-0.0012138995435371526
0.006794352587746784
0.01476185407053183
0.008765512633430752
-0.007435556168298325
0.008606887415131098
0.0007616314550218925
0.008375323632058364
-0.001663292446960158
-0.0037079453271678256
0.004219107684876979
-0.0010819478584446318
0.0006976032482143746
-0.002608908939265042
0.0004455286909108186
0.01718474694621986
0.01771918235144009
-0.004560168073509857
0.0011867328046134616
0.00441673788634311
-0.01844763419958638
-3.813553697647896e-05
-0.0032169236966464263
0.004537995159776763
0.001888509131448593
0.007049933107093543
-0.003591318592762425
-0.023934720853234535
0.001252646041145771
0.005008390377794439
-0.0030753685203142164
0.008707619942521401
-0.019283480973103354
0.002844566774152113
0.002384238048020405
0.00596591913774182
-0.019121787251513575
0.0165706834998777
0.01639809851854631
0.0037072158139854383
-0.0041739233909414055
0.011005612942378777
-0.0017620307021394006
-0.005190433325060255
-0.004357615938820996
0.006655234330262749
-0.015534929291668899
-0.0011554616412012713
-0.013684058342014183
0.0007148869615440788
0.0004588519370924321
-0.03415619583599226
-0.0031858745533058395
-0.00783935597132073
-0.0026284849005529863
0.013816502355605194
0.009635514771703331
2.55890705333118e-05
0.004254014673274906
0.013628916500941514
0.0031697764410965447
0.015788983644533187
0.026242628501871708
-0.023699106866937127
0.0026953197105037455
0.007974506598272776
0.0010749319814288985
0.0002933453184339269
-0.027444041930495277
0.026734142314118307
0.010592577898216368
-0.0017504159133781012
0.007323004150769934
-0.0005207346791199404
0.00479754533194064
0.018820247782801107
-0.02970205381125027
-0.013786023611546789
0.009330576147536367
-0.005834929531449332
0.02951761339726584
-0.002703365870046339
-0.014343950042543017
-0.0023530454743610984
-0.0017804266028223425
-0.0009713166118212981
-0.012817786898598915
0.02020505434763748
-0.0006806490631102132
0.021879939573615507
-0.009441349506425407
4.395462600638421e-06
-0.011080242446352485
-0.0020300885989808243
-0.0066910147674713125
-0.00010362264051369244
-0.014574980100910967
0.004502401991346398
0.006701688375611179
-0.0033219271988264346
0.024310223775654522
0.014913373538520786
-0.0038711997515785525
0.04093136848600129
-0.00939270508191769
-0.009150838550721409
0.0037575831934962105
0.008022461271317184
0.002040289516554605
-0.006724709439282191
0.002768145854134731
0.014052239176021221
-0.002147018576120293
0.020341117434440493
0.010779005941824809
-0.00015407374372966416
0.005108425457836555
-0.0013250639456475568
-0.013924392770106543
-0.003818198320656102
0.001020729584730595
-0.013434670316105643
-0.007982770135555282
0.0018193821879367053
-0.003366515889798109
0.0010514021167084809
-0.03306364229543652
0.0032784642157465457
-0.008516595354854412
0.003667640123665008
0.037133817348924125
0.004909006531018168
-0.009435123140550592
-0.02917161761989185
0.010682217036126497
-0.00907628635590902
-0.02589157017321367
5.515088876723097e-06
0.006940952540649641
-0.001429941343890855
-0.00445212988145419
-0.0014313253732875348
-0.04090273398755304
0.0017533654323703828
0.001534611075454005
0.00023710931874799953
-0.006989935257431066
0.014338098914250832
0.00033502737328672906
0.0012068722894582246
-0.002119813977783907
-0.0002918149746383402
0.005154430750632557
-0.00034551282937113765
0.02201089893957916
0.004466972973016257
0.002414794868112934
0.00014992339159854598
0.0006797240866892853
0.00690052008908247
-0.0004749249408816905
0.019259901869178756
0.0006637659849195991
-0.0027086665855797407
0.015138771303681933
-0.013202383763668552
-0.009071300209769758
0.003509046768295003
0.02479515297744334
-0.008746935138228905
-0.012587739019994819
0.004704259596833615
0.019767429916057
-0.018140897339584072
-0.0008930389910253448
-0.00354388350134053
0.0008090908544350691
-0.004581874283914432
-0.008192471156247506
-0.0031553349252583765
-0.007852198490414509
-0.00011116345962529444
-0.001036178142271717
0.005378851117302577
0.010236813465146457
-0.017306819128827793
-0.004431626366827465
0.00857173819845387
-0.00048017941584073973
-0.0040707402350997285
-0.002130938216372937
0.02505452256514185
0.00417159199656141
0.03785740960290969
-0.015649579723107945
0.0017523835610582098
-0.0146494551682553
0.0035135092518684325
0.011637071526102135
0.023928859395302777
-0.0029097587439829383
0.007068108199691065
0.003364484335294368
0.01086415422316624
0.018144512303389943
-0.005744187713413416
0.0006184352672452593
0.027632770298023718
0.00011196093221551562
-0.017997384277002006
-0.0011720927734202246
0.006314764945576741
-0.0024232916677039626
0.009056642779417727
0.019139323657282697
-0.002931051808842919
-0.0015236731276877657
0.0015535049289297392
0.010638025328361373
-0.019005743058371053
-0.011307615389447682
0.0001808961707618623
-0.0035188106756559624
-0.009485678722407461
0.008274889848652014
0.0007872449335245533
-0.033698456218056096
0.01568007659928513
-0.006224896109233812
-0.0025640718964025765
-0.002740814744493951
-0.0015726128751358164
-0.003061150186126052
-0.006764251418709486
0.018288455644463054
-0.009730493156356415
0.0034598862040936696
-0.0017238056619694206
0.0009498613262285116
-6.628660235874624e-05
-0.005322791982226247
-0.011164199806738835
-0.00038349762176257535
0.003727063881312555
-0.012237120100344123
-0.00034878533833770974
-0.014851090741950991
-0.007722931810942345
6.028128536567699e-05
0.011863135044674787
-0.010549364101484496
0.002291812005952752
0.006089566374389678
-0.04517259766888565
0.0009493978142310545
-0.0033057089110697965
-0.01830730965552964
0.007800793727241766
-0.02022679315506992
0.0007000070234062989
0.005998071945637626
0.00197073420676789
-0.011587318153596546
-0.04330550405254707
-0.02249932476403071
-0.004927305146800115
0.035719410125629805
-0.0013967981945300402
-0.0063723958973727676
0.004268531001349309
0.000732559088664021
-0.027512757620590002
-0.010633971636128272
-0.0021761535791207072
0.0013794765827593646
-0.0004140297630716678
0.0057285502871383745
0.006663886450583706
0.005542067027273142
0.01706767036921543
0.014153810583507242
0.0030039740405067472
-0.009136143826111585
0.007415851222160238
0.0025894846370646185
0.0025151345983931038
-0.006820880600760862
0.015484468011532956
0.02369348678210016
0.008808173139676516
0.002410234435712581
0.0037626326767272547
0.0023998400494669556
-0.008648064899420814
-0.015526395297932417
0.0022140786700334423
-0.015946582577837844
0.0010311463823705282
0.00131360622605258
-0.025778453333510164
0.0004468555125208683
-0.00019216955641989332
-0.003172547740764545
0.0003081068727469515
-0.024089003486731035
0.0033615362425442425
0.01536786038563866
0.0011980220818151688
0.0006213595034401272
0.01122721855687822
-0.008176692004484197
-0.0010000255688612178
-0.007993744922536275
-0.0008786027143802163
-0.013924136272652324
0.017257456650964138
-0.015147176196570735
-0.02330906688495988
-0.002659355090972557
0.011514701963479944
-0.006136718559331964
-0.004276351087838626
0.026932335065312722
-0.00937500222484006
-0.01395291249852734
0.04599887601441474
0.0012585707324435462
0.000168387741353968
-0.03046751773924153
-0.00374979582074887
-0.00030467713024992364
8.715688539846675e-06
0.0025116854649987206
0.0025735925132281696
0.0053737688721703135
-0.034622241014389335
0.007876686069991751
0.0004957256757702949
-0.0031338762108201676
0.0023160513722631174
0.023085082665598586
0.00034178206392770634
0.01311225943485046
-0.0001903645257530978
0.0010404369128027245
0.0054769509903499275
0.007180042686340067
0.008703711700428942
-0.022632774107820323
0.01664353474018176
-0.0032591445882150113
0.022496980545259334
-0.005167986375691344
0.008148429572611941
-0.0031230899928989006
-0.0038440450140165994
-0.00593348505306077
-0.013862811972926456
0.005131306745388819
-0.0019296864713594063
-0.011935772889196578
-0.004984868720471111
-0.0014543588986250155
-0.012305941130530594
0.00587009286206227
0.012890538646779354
-0.00552018010173682
-0.006531909693292466
0.024395717906944104
-0.013203867660933382
-0.006810172800574313
0.0014988766107985423
-0.008187642156773062
0.0048637708511898615
-0.012832505263695344
0.009430347085003756
-0.004545489691713861
0.010241455548783796
-0.0005811541193488697
0.004398541313517923
-0.006633044452927279
0.0027673458293743223
0.0030580013934411055
-0.002147302109164935
-0.002376942093911932
0.014156591165932585
-0.020733952697814362
-0.004452247610619827
0.0031198906017513217
-0.0013911561114541583
0.016431997561205315
0.01062575932107503
-0.004655122442367265
-0.014155916626954115
-0.03641668030086631
0.011891568254844885
0.01693238401916141
0.0013647574457722003
-0.006812958445309019
0.011144423565251858
-0.0019546403230430087
0.013735758542161022
0.0001823953501985644
-0.007295586571256722
-0.00862116030797188
-0.001319056156209085
0.02813079272772974
0.004363817675727202
0.002057589165798304
0.006315244441952012
-0.00865220160996812
-0.021712722316826874
-0.029809847664173644
-0.022527739907998286
-0.006817625634757547
-0.00607559214632783
-0.0012750385531418915
-0.00636878650079887
0.0007870190161058812
0.0007521747489226065
-0.0004939782419557574
0.008523448266324197
-0.0014452735189733042
-0.02592705466729307
-0.004846142142953856
-0.010881665136880093
-0.0026490609130080593
0.003941726764736438
-0.0048993259509267865
0.018355071731958106
-0.0016179025203335506
-0.004202251191887021
0.0004029108910224847
-0.004946420626780624
0.010606322313372062
-0.010534021758738863
0.035255939399053325
0.000836010562292086
-0.010707029372157761
0.002761762253771293
-0.011445171915607942
-0.004955220599981395
0.015220765117266697
0.004529451411652512
0.005285289829048884
0.0001542589208559602
-0.015855532732226858
0.010035938655486434
-0.0036553864292766095
-5.464450636195012e-05
0.006100661885181863
-0.0007583583375911213
0.0005896586583535871
-0.0010945933669617015
0.014817767048266985
-0.0033640727457094656
-0.0055990714842115204
0.00418133549198351
-0.023508405049561077
-0.015509448175372392
-0.010538947259075242
0.0244011330039946
-0.005330566398773682
0.008575655820693114
-0.004687685896989564
-0.00019511109606930034
-0.00030306673597701794
0.0007974520753287921
-0.0015448648774301214
0.002790651079614102
0.002340440767854725
0.00034755800715361633
0.005063695417237606
-0.003860321806817641
-0.0026076246798500654
0.007226450509526275
0.0008350936506252428
-0.010414929991822752
-0.00775422044162816
-0.004231282656778116
0.0006275624272483865
-0.003435667074819707
0.004041169303803942
-0.0025715281064251556
-0.0008049559083090349
-0.01710950780841764
-0.0007917633178601561
0.0017382176784612716
-0.0020774672746710914
-0.00854076888869487
-0.0010034861497100153
-0.005039875947361761
0.025904329554377287
0.0007629177115590912
-0.022425427545766773
0.022096424216635654
0.002898392198417559
0.002945689731437446
0.011330933620987088
-0.0008065244798600659
-0.008630746535652855
0.004232690324022914
0.0030469918039013164
-0.005439831675471442
0.015183529230137247
-0.001210585763103733
0.014315439133779943
0.008010558916095593
-0.01195571915730468
-0.017449123659535173
-0.007644968510012982
0.0010336565356554696
-0.0017894416785800686
0.0039288724498492454
-0.0008125579905891169
0.0074693416608670425
0.006113722575699197
0.0005549758939309431
0.0014870282597788426
0.004895752978256719
0.013890503934561977
0.006127583360401741
0.009654337673135099
0.008849613264897508
0.0017420069082179472
0.0031270436771654387
-0.004959281548766514
-0.0015140523346629583
0.00732485466866119
0.0006184899674958049
0.016343193425698614
-0.03648911799170608
-0.009795480581958118
0.015650957315823687
-0.005979493345319072
-0.0006105731091894874
-0.02054696343024336
0.03140130231286427
0.003509564076823117
0.004623573688238303
-0.0002443963355390042
-0.02146823302145068
-0.0002469099723087947
-0.000929737207498573
-0.013040820096468666
-0.012327586755589332
0.0076793855425913654
-0.003058809430999391
0.0009836945385986518
-0.0353840710266772
0.004043553602281875
0.005413611299422289
-0.010615072148093109
-0.00781819373089624
-0.005580671934059965
0.004765082053920234
-0.0026287944254771603
-0.012738894387758114
-0.005209787212610528
-0.010212568675927331
0.009318510197581882
0.006152165568779641
-0.001971160152271771
-0.012412496141373455
-6.757023485904984e-05
-0.020153115811557765
0.0015051182887789018
-0.0017443079025826753
-0.005548933588862841
-0.002100675125852055
0.010058086858402294
0.010009043290398364
-0.019288202090395112
0.026147885456825854
-0.014120320028552064
0.02912258972392758
0.008708024714285825
0.005626210500821082
-0.015609336952658403
0.014492794907527503
-0.005526873909297379
-0.009449561359795884
-0.009274538794744243
-0.004314838218708916
-0.006766328662472394
-0.01149521121646365
-0.003217583982652118
-0.023375386916792508
-0.0002520005763502118
0.024246279232839757
-0.00945268164719886
0.0015166746814479284
0.000417425002527352
-0.018986689259458123
-0.0019567729774319386
0.003905277185760869
0.0031184563042053566
0.009817010114924005
-0.0046981478616435045
0.0017816227765791893
-7.602406131036046e-05
-0.0010812059556819203
0.0019805857097989652
0.0005689192159522761
-0.005396961350972245
0.003292971520213632
-0.004735229225711561
0.009896009309039852
0.002586913637080973
0.008846804247777201
-0.004244903584267215
-0.019177559531963
0.0026967568028665218
-0.0015257331726348995
0.005702920207182077
-0.00204390033572944
-0.01761301424918438
0.003696966423923843
-0.013545017597410816
0.0009493596763736002
-0.015448234963933705
-0.008432986986734831
-0.010160121781406992
0.0008833617054754127
0.0007592941519561308
0.025560940523451352
-0.014269206814413503
0.00029328805650031474
-0.009990402257472593
-0.02417459976518434
0.016218755796960426
0.02859087091668007
0.00833268021070286
-0.014223051506298715
-0.03720525876289277
-0.004496144453320159
0.012187847771037161
-0.008133543361819503
-0.005525092658075794
-0.008755437839343067
0.0034591958265459367
0.004323447426448952
0.0010392877854557584
-0.0023138994636385246
-0.0010694542901588866
0.008457201392230749
0.020513399868684282
0.02337069021342319
-0.003985111608145139
0.0029463542395085124
0.026764652248083994
-0.006029786757582785
0.002962250411798341
0.014706703770184657
-0.00360492533310177
0.013605494415687626
-0.0007305662341519382
-0.007643180892526301
-0.0060839689024231895
0.00041758659587417987
-0.002814997799920052
-0.01334387215929116
0.0002580410183395419
-0.03556451851238097
-0.0049401432021980085
-0.004462554614408877
0.010201027599308889
-0.0029070906535954124
0.0012990752782259512
0.037230955812982094
-0.002404152241143414
-0.00302537959576881
-0.006548221450303341
0.0014203964115031829
-0.015963050639979045
0.0012801088044792812
0.004848943902099757
0.003668736013646868
-0.0005490280563243571
-0.012153781978779938
-0.004591539648473963
0.0049278549690476335
0.010280476601120752
-0.0014439630310365966
-0.009044954497986306
0.0010867098722449188
0.00048269608651089633
0.029126081473016326
0.023972090885359672
-0.000807355117524878
-0.000193810473795606
-0.008573066672177297
-0.01040075381556565
-0.0008761410568489996
-0.0001253809095258279
2.4071471699173967e-05
-0.008795077341562447
-0.0010750642718590276
0.012740269462589196
-0.015735545253496023
-0.000598701341999773
-0.016433751181652655
0.003777117235116271
-0.0001283076526032301
-0.008621212462330219
0.01605667417030185
0.0068218297721589875
0.0006383457116581334
-0.0080093222155136
0.00038169049965221014
-0.0014566562681585446
-0.0005390051589293304
0.04688265173495252
-6.79484321344426e-05
-0.0028075747112813808
-0.008569726883994225
0.005661925390657785
0.0020946072050657756
-0.008555695171326037
-0.007351818784842636
-0.009986880776677096
-0.0029137104255877364
0.0011832576475479938
-0.006625464346365426
0.00014720264801420846
0.0017913103519510394
0.00626775496552466
6.937824175911386e-06
0.0037744608914990077
-0.01461970859552163
-0.011192271161738274
-0.01723603091301978
-0.009887590687072328
0.00015288078862136972
0.006556754254072656
0.004248117600794679
-6.547511416725134e-05
0.0005764073003124167
-0.0024253535154617756
-0.0044453190838827095
0.004470443551058993
0.0032850498612092345
-6.479730363241821e-05
0.03841979770136543
-0.0043923114175315695
-0.0021076854785909522
-0.003064089540203247
0.00790722167244749
0.007074979052001688
0.0132524320281455
-0.0019359199765176254
0.01714267833187419
0.007006714531072779
-0.004314985224186401
0.02467941149126986
0.0028371839083796975
-0.00108833175754542
0.007368839555623245
-0.002542151170077703
0.007269200492252261
0.02577637552873943
-0.003050733297048862
-0.00377528529270856
-0.00920854025712755
0.011213338625423423
0.0070882635746729655
-0.0024656171003881494
-0.0030216405463407677
0.003293716616051321
0.002559124797676471
