0.11102718198826611
-0.019295573951388745
-0.03894207676861542
-0.07056181942386781
0.06427999538049074
-0.025101804147525764
0.05746824923329274
-0.053584715103703835
-0.02749519680275963
0.1225724899410074
0.05143401295890365
-0.05637997863303672
-0.005062447481947304
-0.044314108632742266
-0.07045667423567685
0.11011849595543531
-0.06861798339867872
-0.01703713933219652
-0.05127296466247531
-0.009217202413608794
-0.042188132380035985
-0.05997673214549345
0.03841353334696122
-0.09926729496152874
0.051008360525814325
0.06773018363067039
0.004490171162505918
0.0879959588081572
-0.02999000144233504
0.1042775319156836
0.03881185854530819
-0.07596367670923485
0.04899183649284218
0.04941652379061148
-0.04506414938115859
-0.08743233069339935
0.03640209498880056
0.038815603183668786
0.08727037802391911
0.03223618963618958
-0.08050680238823138
-0.08207057712584069
0.018979722617923973
0.022491447609666926
-0.026665225530707878
-0.1277724878136269
0.09935520528003809
-0.11016232088838344
0.033209565683434555
-0.05142527470112356
-0.05414005204475187
-0.060910778162195006
-0.05535842353402573
0.10332255488769454
-0.04882786793079094
0.001408089634849983
-0.07942085077004946
0.02198301335046141
0.05157151127301699
0.10642701127665427
0.0906062488158485
-0.12675802686553725
-0.0013478061160244203
0.05848477773283999
0.012442077165140111
-0.054134357090581654
0.009247174103686697
0.00044876542364625263
-0.04617407053254592
0.09347301442317574
0.06426709270607098
-0.050523264733999186
-0.045288512054254035
-0.10510439047945562
0.005506697887475962
-0.0625227443488609
-0.11821958342606433
-0.010166587153549731
-0.05225992015210616
0.09998654581826422
-0.12974086361895978
-0.06605560878477919
0.0847901660492012
0.06031040055379036
0.10853108135585884
0.0440937354736293
-0.06987316105855347
0.05495954581399763
-0.14410527967260722
-0.03996027469817983
-0.049041826775583115
0.0886602704655193
-0.025423045774621306
0.09441432176796395
-0.05687518721597171
-0.05657550965373205
0.08157253792284636
0.12367976797504575
0.05498286828773291
0.007046204233622598
-0.015557142048169168
-0.07225285973459514
0.028648143793680428
0.02273498366996022
0.018065721144154327
-0.05554850584414599
0.04260829459262375
0.023359466017573872
0.11340252713647675
-0.11511635886361686
-0.03438757340964084
0.09245827987024374
-0.08827013530783433
0.01329945787966245
-0.002329748856200779
-0.0025009827301740862
-0.03777398743564287
0.0809298723563905
0.09803804582945987
-0.038354965346886455
-0.0785521192759123
-0.01548996984131247
-0.008524966285177887
0.020875556441860975
-0.09683700992066528
-0.05339213401622333
0.06936308246397664
-0.00048419733222159747
0.06888042626788121
-0.030443269890326946
0.010816633914810862
0.00015061097871323442
0.060377283869928654
0.02783345305097693
-0.05892599934874352
0.06235179389544029
-0.03112381763989402
0.004227787122934282
0.059667163871448436
-0.08222278511136083
-0.07231812250268378
-0.09486440550884627
0.07180431711630357
-0.009362695311934252
0.09019735830939182
0.05598360593568256
-0.11088252147361488
-0.05882228609584421
0.029165161317773258
-0.006081801222681335
0.0019132771776245727
-0.03636217118169512
0.03330735880066004
-0.07188926810643491
-0.10561231178616959
-0.016371808105136033
-0.06282531537927522
0.04037938189511899
0.057268997787083754
0.1337962250794525
0.007733563902586063
-0.08546391098047833
0.006882508344870241
-0.09037702156533316
0.10849782793686981
0.005677548806896171
0.08678248569770783
-0.10092902444010814
-0.13724932916259572
-0.09137281033089349
-0.01014464495213742
-0.009788808734060116
-0.0049908012759848136
0.016542585822002624
0.06566227602194821
0.012991001178865409
0.04984582891030449
0.08584679435691744
0.003210430447543926
-0.01707710569726615
-0.12607572008008647
-0.08256670372747078
-0.0028414038885758493
-0.0680155734246008
0.06645072688319953
0.0418925998394182
0.04680612096635979
0.16913527161777556
-0.033473127396777526
-0.04152362249054029
-0.051058834842590946
0.07070420287614225
0.05895609275787718
-0.2214759844342445
0.05072602402716065
0.06522945444415656
0.12892079075648294
0.005815017046314443
0.13192696830085907
-0.035875444138784504
0.14406602504319518
0.02410423221765687
0.139600863042555
-0.007434083341817897
-0.04975206542292357
-0.004568223758237224
-0.005990483733432791
0.0755326341080913
0.13229219716741183
-0.05909665765932864
0.00045108024583266615
0.06582112460707887
0.018364146063410476
0.011832620697529413
0.030840487625846166
0.04308644757734613
-0.04301292167178804
-0.012674604626539781
-0.026318563842702137
0.02028396424586034
0.004229387038409676
-0.056375571886526275
0.01394421741901896
-0.06552244343130431
-0.017039712944577755
0.0027052868944977162
-0.012410840985315462
-0.14624174103981807
0.06444455458110854
-0.04662200354977446
-0.08520430973933221
0.07190764428511477
-0.00628100168325573
0.0015050376232019214
-0.14247743545248395
-0.0009288623555560129
-0.08419693954564586
0.04083237039890152
-0.08511301726442033
0.04924700564031614
0.07687663082091226
-0.17502800436671123
0.10946074605993965
-0.09380139480428984
0.0021449831405418065
0.03587405264582908
0.01323495349290157
-0.06896399616683588
-0.10510205486022478
0.14277897617116012
-0.009880888190701612
0.00351805550267563
-0.026214471541504403
0.011844330821608821
0.033988892962909856
0.1232442181911411
0.07590945753900956
-0.08740484940953341
-0.013637778405588784
0.14047837570438101
0.08382821941174215
-0.013295636429565936
0.07478108037647892
0.061367841585288074
-0.027655357778593088
0.023432749468158758
-0.0016013720635074398
-0.06782306756218306
0.11953736629498704
0.07723589067877991
-0.017462252202366496
0.007151324963400639
-0.011711109497916651
-0.06493744833702252
-0.048294714254858345
0.07258214024811138
0.08747293112639272
0.11732381990174619
0.04778215809316876
0.11529774619465097
0.023834278492971494
-0.11160367404192051
0.003933575338011894
0.021361136545458057
0.03735616877949634
0.03475506958269106
0.1045453169511759
0.15534669329482056
0.02726849604836164
0.08404281891955005
0.022704120458725052
-0.07533684424352684
0.002527063380811044
-0.08299551292839288
-0.11540269412865878
0.049476515859124125
-0.02639356264264362
-0.1493360703187804
-0.12990282201664677
0.0038632577527554575
-0.06108671182674903
0.11854233272406607
-0.09846467289934045
0.029172572199984072
0.05205917220140964
0.04124137343198218
-0.0042248626812782675
-0.025094727757567298
0.032837062818124034
-0.006811035592905004
0.05260257358891722
0.007290188322377239
-0.027543876477572143
0.02967696661309963
0.012980635557743127
0.0663146428014905
-0.03356947728547827
0.10934056400305636
-0.060282757959700124
-0.09083477120196987
0.04370110606356115
-0.11561583315558549
0.14800518587071823
-0.09920477707043958
-0.10741370350002198
-0.05287938976843779
0.07740423809079242
-0.05348091376876888
0.002316344864244575
0.03838226564031879
0.020349119021056104
0.026766701929589524
-0.06283173648959585
-0.033039282079436294
-0.07241130192066714
0.03027572058736149
-0.12962623195426362
-0.00013333201782504816
0.08448432109923208
0.06018232288528153
0.027266005902525023
-0.07518350410824234
-0.03652904182240311
-0.15787808428587402
0.07288351917716282
-0.07344947002011915
0.04608754588831593
0.032271414745421584
0.0028781565071204227
-0.06688654546993607
0.04389185916500225
-0.004111188778740564
0.08179139305828757
-0.06553218587843311
-0.09524150538280976
-0.13794689448140393
-0.014110835692646675
-0.019623709016171068
0.08049791864619991
0.0003945959148116231
-0.010721866497950953
0.0012340225107213252
-0.13697961467284453
0.019895199423613192
0.020914464415062443
-0.07713267886734176
0.0449611133867589
0.011597672415300783
-0.07089359064447914
0.0484928547886674
0.010030858853860378
-0.008967160199390582
-0.04221806957443802
-0.006648473684092694
-0.03230359171295706
-0.1289469414546836
0.02457483911366444
-0.13528268523363515
0.08036627172677614
-0.1025132777211865
-0.14357913946925022
-0.07847089190542851
0.10761676664178549
-0.11216034413013339
-0.12956842173776245
-0.021971679577312997
0.12497006933171909
-0.07681581422539814
0.010503360319722566
-0.10773912983912302
0.03862643769685241
-0.03991654687996198
0.0036558555067289183
-0.015544202886155668
-0.16319793521344897
0.09800731814460627
-0.006180881986278285
-0.05074409722204555
-0.04031129375777706
0.03575717961979886
0.05785246126246182
-0.0994593202446592
-0.07224411633902995
0.06644648212418178
0.007663799126798566
-0.009990744954146955
0.08505963038708061
-0.062410101425154775
0.10588914918090726
0.05300213135569117
0.13125792569026695
-0.11175596522943484
-0.012787519960739405
-0.00610923617559752
-0.009186629954247618
0.0709628729104212
0.1840839502598915
0.08404889323689925
-0.021523470088838446
0.007109866517793593
0.06330189365896159
0.08442713673975376
-0.08502716012828634
-0.014189822998663029
0.08148610843132582
-0.10536879130522464
0.0670434793477146
-0.059624870684644685
-0.1230923651331835
0.08881319213714838
0.09903328448523036
-0.06208985743862797
0.1319704320927379
-0.01426069481638165
-0.015329518800624225
0.17388151544852642
-0.14480436573691982
0.045316208739281855
-0.13237096058377348
-0.11784571822546508
0.0748279983312475
0.04208714439547647
-0.036102256961403054
0.027712423825273304
0.043717237646263785
0.060016321179276494
0.05768120516321303
-0.09141129337190816
0.10533592968150975
-0.005238420797102119
-0.07835543436498238
-0.08655147006655275
0.0401058019735028
0.0530316512035387
-0.010328811450615984
0.20290097144640665
0.032454818136829836
0.06811401527993449
0.08625304625238445
0.03229417197374878
0.10135622399947729
-0.048003223540609825
0.1694342848175278
0.06173726131351026
-0.09412470832189741
0.09318337359102566
-0.01450425029146195
-0.1495645829536415
-0.060756677859550974
0.1334336425534464
-0.026860719009441016
-0.010596803263393594
-0.013608369935270329
0.04655319040766895
-0.0032305000470776533
-0.021113566296305734
-0.01823275360131511
0.009204684677789898
-0.09137641073146194
-0.00826649742103977
0.07504785626808472
-0.04479290994480627
-0.031882632428788055
-0.034798762442883026
0.1040209659759897
0.018168842660429303
-0.0516491176853223
-0.0762058908678826
0.02203339540588459
-0.0539937577490854
0.025792667578427263
-0.07330675833700995
-0.08144080104008869
0.009325756862585327
0.10461005026420556
-0.0006187322634996307
-0.06589923946416572
-0.0626840732300858
-0.013029713101061222
-0.016582859947407103
0.022979502035933786
0.007458855847311395
0.06869687731333822
0.12299711960832659
0.10429818953998952
0.030466254127096613
-0.011630806980032412
0.058362570408014465
0.015705425861977217
0.0023961509359611004
-0.07182186180461853
0.08183062542009742
-0.065578823568835
-0.12410824891537015
0.09068289046763116
0.03912861782862255
-0.04748364035223682
0.04791555440124087
0.011576720227866863
0.10270839198606585
0.00842212410342381
0.1268492785505733
0.0867488424118496
0.010359986552306327
-0.038272440034816904
-0.06793702392338934
-0.006210978486731069
0.07534778011645644
0.08502084989573808
-0.00894598706164719
0.06626313785129206
-0.10633379823487771
-0.10561259335117575
-0.06742243150653641
-0.12549031065365288
0.04559619508269279
-0.00676760480317957
-0.03775952696798515
0.0551429601394989
-0.06894283354188266
-0.0261787439715183
0.022911148847876133
-0.013651525041737665
-0.02247122373932194
-0.09741814853831451
-0.09194445115640808
0.15470096408419093
0.010779942746089437
0.1659415074187567
0.159534074844739
-0.09539994577384557
-0.03636074776752976
-0.001541730736033217
-0.13614940317299412
-0.0719381594899672
-0.08061576323373004
0.07678284802186988
0.1414607064413993
-0.019399621513622293
-0.10805481759714623
0.05205622270325062
-0.057931737388544506
0.10490812500817763
-0.047554968473041595
-0.22507867651392052
-0.05125658492558907
-0.04826214297236667
0.029297335088541057
0.014378332773436862
0.030673757143909013
0.0015875859248353442
0.04345188478483819
0.021990595675980704
0.027098286081180766
-0.03310490011904329
-0.04590243400017325
-0.01735545201020976
0.007400181716172732
-0.0049185150483471865
0.06602053925685081
0.13876102282007574
0.009115358835494207
0.04268123829195666
-0.10265175239375322
-0.10949225512929667
-0.09326665403823524
-0.08321944910976754
0.013799540682074132
0.19572059475331702
0.004771430476532584
-0.031146058694943555
-0.05572226183776256
-0.028340555729538364
0.11154217745244369
0.12800124722776518
-0.0693985550910096
-0.01668022490383126
-0.08933287550320147
0.002234451585376078
0.02144612333964592
0.02046319231040192
0.09293929176922461
0.0566947550007452
-0.15308727224545995
0.03322861206943676
0.08788046112899184
0.1018757577409834
0.05784174890846422
-0.04598231581600766
-0.037179270480606534
0.11032151626321417
0.04745758460080648
-0.03467966662047191
-0.06219446815529837
-0.05274835513841527
0.0016349715641896777
0.07256179885911351
-0.1382639294284883
0.038686895340539325
-0.0008023392662455775
0.11176681959011142
0.05000825306103656
-0.021616249576498298
1.3526655047744636e-05
0.17221629969529337
0.12309898341113965
-0.04009492633980119
-0.07982650846275617
0.040355816407064295
-0.02797609087967807
0.10210745776800743
-0.004691721450715679
-0.021594196365621193
0.03933825387676871
0.04491633322622363
0.1044669173765294
0.07360674406303448
0.16467553036319227
-0.0039644395225158285
-0.06725572987542808
0.015809765394151538
0.01031623160233963
0.02856010872307536
0.05020430599379795
-0.04222521334068869
-0.04773005963313242
0.044616788309412625
0.07773987285030241
-0.007660885449274813
0.0179862860111878
-0.007251812325235402
-0.027367912935854808
-0.06207019421220467
0.017291319863530042
-0.03152695827085934
0.07349937073153973
-0.02862243421370339
-0.003424800996600753
0.01084499893697987
0.033391017709130416
0.06900572700736748
0.003671856027994722
0.008556954455168046
0.06640426228319121
0.009991992919681844
-0.053820768396741915
-0.03525393236932019
0.06682350090058127
0.05370317072369151
0.1346055829994995
-0.12064233893181124
-0.09562206748326355
0.07788261142229816
-0.12407253600913824
-0.008037698187955272
0.08189311662461225
0.03733648304515013
0.07165375260835788
-0.025071221438509626
-0.08440977165784613
0.12786057054391065
0.020578117163648386
0.08174513215061743
-0.10411751777012315
0.05936445360870103
-0.10406340930620069
0.027596006423040498
-0.040240539743340215
-0.016325012641100988
0.04164277898819071
0.023374222677937168
0.011500506841655312
-0.06412708416612346
-0.018268167791241696
-0.13227465894431184
0.07146840365280221
-0.07497304430156117
-0.08672435939411877
-0.031399923569380934
-0.13354966683638395
-0.0346683527747438
0.08076544354188753
0.06873718115619293
0.03262692246861051
0.024634270960760863
0.042785468929589655
-0.08976782055581659
0.15284902272346101
-0.11192115480860008
0.05451884468429948
-0.0587487398023013
0.1353214483538759
0.004937240467698208
-0.1844931623623211
-0.08685415191498506
-0.023171286324190965
0.08650335154488728
0.05124216072875738
-0.11249563071575558
0.058551348852417646
0.1153140841029289
-0.11688191741520138
-0.04654703709781487
-0.02363068841706946
0.029016084973524862
-0.0006442456912092555
-0.013240695143164298
0.04548747843909435
-0.048014797910419425
0.05950144943709024
-0.034434009266312016
0.041410759219354255
0.04137459928087647
-0.0022630897999969994
-0.014093535670779459
-0.09704700504620933
0.008125795959063075
0.13127149327459156
-0.06040113130621737
0.0658195583425835
-0.05405756735428639
0.06896433019239016
-0.07094174129131259
-0.02004602285979537
-0.08589063553026899
-0.10717517451452548
0.0037494987035647537
0.0748917645657947
0.0053280693692984386
-0.0437589655585797
-0.0023919673196215506
-0.09820917124710392
0.05590699896645543
0.05830339988756452
0.032179053772997575
0.0019214981419879973
-0.06492091623118557
0.017179138055751563
-0.11287842724293379
-0.10222691379611637
-0.06180065348357865
-0.045463480371935754
0.005683590793771823
-0.08817338979040248
-0.06998664246067941
-0.06059979967191428
0.1299913928498121
0.09132986756561319
-0.043741222817136584
-0.01733201119682295
-0.010144839678511255
0.04023613532318774
0.016169532891975136
0.0397333041475589
-0.003387714474260691
-0.040380650669229294
0.08786835992020062
0.0008079845102207389
-0.03943791982806687
0.021338241956485562
0.07337537834756304
0.05033969375752653
-0.07093386928890157
-0.04434684748349147
-0.08566194203187673
-0.036417075879703824
0.08719099900357524
0.08059350082497437
0.06707871683313124
-0.017152906420275373
-0.0041558183655930475
-0.10830266844979937
0.04555785357790863
0.12299002951067364
-0.1492177840896361
0.009110619744754519
0.07149891831281788
-0.12681030061280432
0.0149286423127548
-0.03496942217542205
-0.006055729982403554
-0.027936231459283603
-0.003427124664107617
0.04774117602113767
0.09164462513611929
0.03000404726396385
-0.023915659386023868
0.04122911019875708
0.03155995927279057
-0.0017392283889945228
0.0268172672661188
-0.02153488691610815
0.07306295078997313
-0.029062498589282518
0.09111426350621749
0.06127938313086596
0.07296921469617314
-0.16759269171157024
-0.05299754706199191
-0.08985584558321143
-0.020013414167194574
-0.06952041430207855
0.07984601139146238
-0.06857607112732308
-0.03161301630638237
0.022035015423323402
0.031319321854756096
0.13339168247645647
0.0466337252803907
-0.0008216906723625848
0.0013674354830109565
-0.10614060631513321
0.018226271604357535
0.023608138689157232
-0.07668793624384498
0.028164688314972503
-0.028617477380601494
0.005157941411209894
-0.07361375426022894
0.09411341524301217
0.0779817623245072
-0.0182449830075907
0.0370430373797981
0.04827405527214403
-0.007869255648896227
0.0023470211933389615
0.01982020119287548
-0.02720898792629377
0.0915228324372684
-0.03753916244977469
0.007450769665230232
-0.1246578901352022
-0.054599113430339574
0.0926877216387402
-0.07268972955469702
-0.025595990910458367
0.007260998605635998
-0.13212029777084483
0.021440116491051264
0.09708334262709098
-0.14193536007320304
0.03683819601568879
-0.014388864213936231
-0.006086566203659432
-0.0580643746031951
-0.08249002698197352
0.05028549864396171
-0.014720862916716265
0.017977908457658332
0.043822285162078436
-0.07317992426725789
0.17462406327267535
-0.019499607335754246
0.012087840372296179
0.07984027594760046
0.06434819678420221
-0.0019729287942316606
-0.0487009548135437
-0.07862622961958012
0.10016501568835026
0.020631628711948534
0.0055058323238603
-0.06646376788966912
-0.09643304917887865
0.02189572435110454
0.0549762864220271
0.012138002963588048
-0.002341978521570605
0.021906697091221432
0.11183293124716204
0.099024929390903
-0.05060520848063446
0.025973938708603695
-0.04729753207094203
0.04312469157137949
-0.015003851469025694
-0.08204500156321289
0.005949134620702727
-0.01941048254773643
0.12660206347037586
-0.0016305393266349253
0.06966623763575214
0.07349391908459267
0.09412818152489552
-0.03147488443395303
0.04645101487179688
0.04727817447211115
-0.06528239974660026
-0.024496297082262503
-0.03293095003358826
0.1417781401087663
-0.08122478958715831
0.0076016238979775665
0.022306580667188596
0.06122469924805522
-0.0425332802148478
0.07789188215339043
0.029621004633313745
-0.04541994469165009
0.039023906409601725
-0.021380929793029756
-0.05736357194622113
-0.04433159262346999
-0.05364728949631491
-0.04152051556724491
0.015694943515393037
-0.03165031409093887
0.024788444646629038
0.0572482550012991
-0.09736924823702417
0.031033919595603924
-0.058347038445517224
-0.05084841444880309
-0.029027204432853695
0.09793887474538539
-0.032426032894560926
0.08745609423819545
0.12234147159689375
-0.09546595164579229
-0.0008986183222941956
0.153823957205417
0.09131430624069142
0.05384030818267736
-0.004709517859487183
0.037896075004299166
0.073037582841358
0.013844750913828351
0.06463141839432875
0.03706433000282479
0.03611831249351572
0.04631496004370815
-0.06726660966172844
-0.03434191872439875
-0.09946192418023236
0.09086860397961426
-0.032415125207089265
-0.02559629739146639
-0.11740139351993152
-0.08126938904271654
-0.09300585880460586
0.04406969941101337
0.10532942530260779
-0.043965511510369135
-0.09149212113138633
0.07647336407750645
-0.11551915189934284
0.07924132339810547
-0.04769920267301275
0.021377879409658598
0.054272133651241734
-0.05608091972800266
0.056938693012659476
-0.14589579898853253
0.11083186862719856
0.059945646794001904
0.011849667196613003
0.06601175141782614
0.05108252306000437
-0.0027989573656144987
0.08821176034506094
-0.0416300176982419
0.016175185472121933
0.10736047862638395
0.005648506541867203
-0.10005231501924536
0.0014945973835887802
0.005397584944155029
0.04957084787952875
0.174220983846975
0.11149260248347796
-0.05642629594271233
0.058219147304698855
-0.049375487482083986
0.006933845939821789
0.0505507179913051
-0.014257989835214873
0.002022399180889121
0.011533664210153354
-0.06634045343248719
0.1168956939321853
-0.08994222117857091
-0.044827704986887165
-0.0016860375362780515
-0.06049297310354082
0.0019699307776960785
-0.05709872252443164
-0.04881270606136242
-0.016732136411501865
-0.012899768371124505
0.03488246028902497
0.05388544205961159
0.0028055480038604516
-0.016560321219428572
0.043634714562812586
-0.00666901526379123
0.11919561424441195
-0.0615281164971178
0.02231454754555491
0.07891847207815214
-0.03347571276310329
0.0895263177460378
-0.08443669410652001
0.05119811679825339
0.09247536318801851
0.020254759867649467
-0.04543130495194538
0.002864107763711778
0.013748139908148204
0.05218437981621799
-0.12542907681222934
-0.17278659964293708
0.07755727428309554
-0.10021484343365744
0.11326279631689554
0.04166384362815844
0.043895881240153395
-0.08359893576763419
-0.0017035056101137337
0.0898511181678873
-0.02915956470787784
-0.05237632520257317
-0.06795368485731168
0.031742994805146425
-0.11633463506809691
-0.08016184030339665
0.0008664868417264001
0.09545021290405083
-0.042007333433218816
-0.0761671582801969
-0.012806676149569641
-0.022939670302883308
0.022221043182350797
-0.0826891941115623
-0.11586087419970353
-0.0013911257205693247
0.08192492369066609
0.12156303014184876
-0.08058899351569813
0.0508730939579676
0.08315367126082018
0.1078782333798714
-0.07475400084226223
0.07685398389007857
-0.014183400588806966
0.03355364117839013
-0.11622022456930817
0.005553358937083208
-0.03559549820622996
-0.06249638233383887
0.04218059934144855
-0.049901216434399015
0.04776216616979781
-0.19078100902630862
-0.08608290484267916
0.042028309887773
-0.03533686535567869
-0.03863606885760924
-0.13880582675017522
-0.042000722409737276
-0.050113317162313424
0.03758772871396761
0.02270699724179296
0.09185861171106231
-0.07736285925567345
-0.08452527474026314
-0.09176524276250678
-0.020796532672922412
-0.1474323109785689
-0.05983304606911181
0.07007664074124653
-0.0952973677476359
0.004465343702975233
0.016579146613868573
0.013170185375656935
0.034596528094038875
-0.12058966262707002
-0.10502003898301362
-0.0018014228789668375
-0.07264756062022165
-0.010021244129094296
0.10162449161578954
0.015685185517491405
-0.14690720423165338
-0.015395261820266678
0.01686323237099687
0.012457377847357134
-0.022619482469664266
-0.013945658150177757
0.12949850364815568
0.06985919881900388
0.006399539830161398
0.07180200882202065
-0.09572750783413189
-0.04698650131538788
-0.0954493476952332
0.054253611366908
0.00022682623038542267
0.02607160383027307
0.09977120209909893
-0.11559077409612949
-0.038216553515498276
-0.03791933638443253
-0.02952775361475338
0.11642672963586208
-0.06172150262001924
0.08237380595732219
0.09514955541081847
0.14287609761453893
0.09674648837169632
0.031229374454868977
0.09511747853298573
-0.06878414759269129
-0.1118819281842598
0.03942193031532875
0.225403850199514
-0.0009183443940394819
-0.0076188841333167945
-0.0598794648767255
-0.11733118955999448
-0.002227370907396028
-0.023175401100751718
0.11896054200676288
-0.03481538350446792
0.1116289200905267
0.005938809500206659
0.06598356098326653
-0.08413893244425866
0.004532876255420217
-0.08357387738799513
0.07299177425508849
0.10008272288901167
0.012381492610680726
0.10291359244820592
-0.08273624795223737
-0.06596157399042225
-0.04859792423557788
-0.13297149620464743
-0.07053887107495839
-0.07752863674315978
-0.044222419036758366
0.0811803067193771
0.043700142126415396
0.03334820763852212
-0.020512637707822544
-0.05230044311415903
-0.11722690461106444
0.15267042934956243
0.01813003163545019
0.025331168304905234
0.05705993017282084
-0.03531502557342489
0.05311929476056172
-0.02491949934974898
0.012761875387446834
0.13831422308294503
-0.007755406535996474
-0.045589034992363435
-0.051099229074218176
-0.019948509539153336
0.014011667957467803
0.00016663908958535262
0.0972916666146252
0.0060476331137761545
-0.03214571680484155
-0.11593563112357505
0.0172615812071732
0.003636853604284226
0.0635973268438381
-0.045224394761770065
0.01438186178311704
0.09729140467423233
0.046895824889513014
0.02586780072702348
-0.04843599835185762
-0.05054903914641279
0.03842073896955025
-0.017996143443094914
0.015062623334105187
0.030165370696823936
-0.05793864457144341
-0.10308079737715421
0.05233376732266438
0.01554088466952264
0.08927205852801319
-0.10497954339130523
0.06707272977225358
-0.03918367985288567
0.01555252977437119
-0.04840077758393079
0.02636620238392097
-0.0298227241387382
0.033515719326669434
-0.041701432326723874
-0.11828244283764337
-0.050659295882166826
-0.09661582479196744
0.09205777383060836
0.07712195707125946
0.0244861042985186
0.025247166300881498
-0.07751012062205156
0.005913457239041294
0.0968535903135869
-0.11069979727444998
0.07686720120612979
-0.010388287110682888
-0.13150041874206977
-0.08492868669461204
-0.116135978932365
-0.056021834223356014
-0.08430237928897137
-0.03626729474920568
0.09157252000660429
-0.061878926012478914
-0.07926395003084588
0.020052625611560387
-0.10017541458523652
0.04266146251069214
-0.05034894131689731
0.0620428249243459
-0.03220930966389555
-0.04278646182915958
-0.015600273110404938
-0.035993771366412915
-0.027879859725339993
0.11708519444997763
-0.014556005573941736
0.018318783774884797
-0.0565301854696481
0.026641177672633944
0.03537970003514336
0.019726302285020106
0.043574360332071675
-0.10487922631790447
-0.027665713793042595
0.13283191423245527
-0.06102573209863821
0.08781443423447315
0.056688257781465204
-0.01750325408166086
-0.0609062336143948
-0.04059726456381264
-0.06060128743600278
0.008746400584485274
0.02407714143769051
0.0793676292711702
0.08304887289679992
0.10359566714908931
-0.05233380485242072
0.009299977383146592
-0.08700003118947675
0.07429045126933
0.0005773644087874028
-7.238193022830954e-05
0.07010509516504483
0.041539277712130056
0.05406019576642413
0.01587446063273102
-0.06421154492766146
0.05662426530860457
-0.026862969209969945
0.010348195165519773
0.10062192483829796
0.07568828669332221
0.013871632276747085
0.07165328267278587
-0.07550428476980656
0.006143763069542533
0.0065844795690643745
0.09598179644733193
-0.07645821934313383
0.03197344536062633
-0.08386309240321752
-0.04530286862612528
-0.06382630206764538
0.007175081306134166
-0.06759275730017468
-0.05377026247685416
0.09561776179014488
0.060018461857716005
-0.08648844226101704
0.10143086177779324
-0.11535780546730248
0.008835220146090122
0.07121788204583876
-0.03583151125608806
-0.16079440860440963
0.10287051692547224
0.01988702193137891
-0.03600076306513715
-0.0253978936612139
-0.030176719897351042
-0.024940535321321983
0.07867742329880392
0.0584777665835578
0.0648367186590174
-0.016500308548237953
0.035072439912006884
0.11866933527155903
-0.02154239755200163
-0.10186403840728642
-0.13380750190120644
0.02570240959478442
0.10067502405123388
-0.05248380162059996
-0.09804848992208857
0.06048716241843202
-0.0014961801650563815
-0.11035476492356419
0.10300030607457389
-0.01922681781287466
-0.1187227417175889
0.029569755641920343
-0.2062866342817223
0.0019753787049895132
0.009046532117825894
0.06705071527156485
0.10787124036686142
0.0027137695937072062
0.019920001985387563
0.09367787751347284
-0.05273878577304849
0.0443718227632939
0.0769320419263109
0.175958387318705
-0.08198126864046767
0.028571166429172522
-0.04414957004778148
0.023419565378221662
-0.02530351565497425
-0.024126470459714066
0.035313782953419456
0.008966029511925306
-0.08421151169137829
-0.028749149213081866
0.12840569008203293
-0.018595880435911642
-0.1326290382968575
0.03342864124454434
-0.04306097388273557
0.037178533401172435
-0.12241374882675037
-0.05154124842426798
0.1762323667511736
-0.20257983910526467
-0.022404867035455685
0.07894457009158298
0.028826047518823818
0.09682752002643309
-0.031005972271718075
-0.06485366447574809
-0.11309655638146891
-0.08844487097457664
0.060398716129105384
-0.04459384980706986
-0.017833700246739883
0.0353117717252199
-0.18465171768258756
-0.0001579843139297494
0.0860370186738751
0.016053857814144493
0.04769699014653395
0.009482085201030258
0.025909018321475453
-0.05886259628240927
-0.03690357751433776
-0.05198095007761175
0.06781456057890518
-0.08498545958666943
-0.034245905336205425
-0.017340480562600985
0.09539520637196304
0.10524236639874368
-0.0009836400561285452
0.0024888455343923914
-0.03400634456608643
-0.06008036236361741
0.10802936523460865
0.06716259999403244
-0.0922432882154166
0.06603537420889666
-0.0969343085880787
0.10368990890458607
-0.006597101514724283
-0.09678783618406964
0.14223368733678918
-0.023692908900788328
0.05728120712016622
0.005499564528178869
-0.09657881795395792
0.023524584137937968
-0.0014296211611543885
0.06317794282199886
0.05431233195906547
-0.03292228854181951
-0.08044686760909613
0.07316077978582351
-0.05864891225735614
-0.04519765982974039
-0.01647764003418029
-0.031728271401105665
-0.053459336569059816
-0.00843484241385114
0.12277167553602666
-0.06497827169653639
-0.011938014247113687
-0.1129550163920699
-0.04230317352883332
0.05672776172278542
-0.05186195283831826
-0.0925425702131102
0.0784492622708154
-0.0020202797424671297
-0.14014220841815905
-0.046074672073862226
-0.021298260122584248
0.058414087216614625
0.005923036328626564
0.02394953494108189
0.007322899732000187
-0.036824215603809815
0.029993714527611893
0.02745586511870609
0.12757598794312308
-0.029353779091224195
0.008982879207600405
0.03905424451226058
0.039555001624424095
-0.011075653454754766
0.004478732604420044
0.005874901745045867
0.07858505606847274
-0.04395009865812081
-0.03104103095860695
0.08328637953277307
-0.11569085683866577
-0.06883337942854795
-0.197273587656388
-0.045213320895111056
0.01804006401196807
-0.0509800524738675
0.03768560682471931
0.07797695955982588
0.10148809050731152
0.0009804416439831763
-0.0028688788660503027
-0.03539482036479815
0.008815236231714282
-0.009081586971016088
0.10715285366193135
-0.0015039967948552377
-0.0038467839605948596
0.03609068413113499
-0.013052844361590429
0.06523060654525613
0.02838611724097293
-0.0942941950742129
0.011470832568646316
0.04642368905672461
0.010759915954205774
-0.08496290517769331
-0.00026449168336776705
0.08701830144516572
-0.07021119397563647
0.03444066050129394
0.10365572072225934
0.0974155370623241
-0.1152878551838169
-0.06890088765370607
-0.06557241762392323
-0.04910278968579047
0.08854959013040953
0.06372208541704759
0.11848727714503832
0.12336948391846472
-0.17160769446813973
-0.07775817861136397
0.004513067097777936
-0.11798954621421336
0.050464215890649186
0.03070914414930977
0.0065525315215573705
-0.00042880067276563754
-0.024403190817237685
-0.04866072428938091
0.1386107755861641
-0.073597575115687
-0.017509586835881677
-0.023577692315072427
0.05839122766533052
-0.09438543261192489
-0.04093047783443034
0.02071262345356376
0.03623311269510205
-0.028427794644281364
0.037136701145581485
0.05810718175280122
-0.028007433316976416
0.04300031315472742
0.014377456951175635
0.10635472506977375
0.09211717935437609
-0.037475649293512645
0.08389313573479704
-0.09874755709968869
-0.03401136931876024
-0.036906834554775385
0.02032949328473207
0.058111818739129725
0.019395041713634563
-0.043563142016940275
-0.06471251241032387
0.06348510737227848
-0.05609079579031472
0.008388844874000129
0.069187724581538
0.014686574424841168
-0.030810775772336603
-0.07011281919663943
0.05046600509295758
0.02503771511028268
0.04141612331286938
-0.0034970548218394852
0.08143532200233757
-0.08621110878205265
-0.11818753305166874
0.07132172449296095
-0.0642692095541459
-0.055723942970671535
-0.08737643147495795
-0.03478513191203969
-0.012881910807880927
0.027004762938572575
-0.06466837567964355
-0.009884410545591365
-0.019624165741839006
0.014195499293762716
-0.030705936886845635
-0.07879464549959692
0.03311767931364322
0.07679663997982766
0.04192565574083618
-0.003706922303458211
-0.012787170235969071
-0.17992030726777664
-0.0039172479788088235
-0.040106579175046536
0.09949293280007684
0.13160032092508475
-0.09391551440648635
-0.06043959033866813
-0.07902149651981336
0.13466820039964078
0.0995764483804589
-0.06540309333476602
-0.006375499594829185
-0.030265930344003978
-0.0922955361791066
0.02271444039247546
0.05580082526770362
-0.0029296474304768435
-0.039900227980494335
-0.09243977593567908
-0.014917608494429562
-0.1543218315000299
0.07505545537892595
-0.06294355344884477
-0.040555110178084594
0.0684458904038421
0.12317225333400734
-0.037643660008582894
0.03765315796256051
-0.05189238721613698
-0.00022201753999494397
0.06565608410691069
0.07156991112724431
-0.08496581562537918
0.1018487818182905
0.09039640320436444
0.0718469614409965
-0.03102459701793667
-0.03962736382569579
-0.09892907469167739
0.05143561401508182
0.019249665944900567
0.05551263406830686
0.018081532854687915
0.07791310042894321
-0.05404830547225153
-0.059646440790508494
-0.06600181602945145
-0.11888178876692795
0.028083700729121294
-0.0338260184630301
-0.10311167577182612
-0.12060545550321762
-0.09072471591666804
0.004507841133791811
-0.016259572890936307
0.011256038624494851
0.1169259840738998
0.06985204109868726
-0.04709724025146455
-0.03851917590144801
0.047262057628337
-0.028789266198953882
-0.040625808827580205
-0.04770244410692078
0.13793166343032212
0.05995018351462872
-0.06765180817352205
0.03380796187099707
0.13863283324444797
-0.049389195861219315
0.06706892474081
0.08650643129624372
-0.0517356319049428
-0.04067494913668238
-0.09084383918360299
-0.12043425859689687
0.0917597762321658
0.016742914546642337
0.05709754698720296
0.11990320881311269
0.0015813075410068959
0.05143037268187533
-0.003200065492289089
-0.125632800666395
-0.04033948037967409
0.05266692918778595
-0.12774236434113578
0.04886501948623712
0.04920153028520536
0.0634496596046255
0.05252465225302109
3.1349780469756396e-05
-0.00365423705782226
0.0588072123160521
-0.005976649552804368
0.02163396780872727
0.017721829683695935
0.08433466017477728
0.10977073190948737
-0.06622233653144415
0.11957820929807177
0.045717197646358926
-0.012495174210440016
0.16144511852469703
0.07895105427183645
-0.003164886770309097
0.04646397444885349
-0.012964267326595924
0.11564288900528025
0.1276599188149165
0.08197227885038726
-0.03129712972305912
-0.022964494807668746
0.08877809783939557
0.01797576523724841
-0.13054486694330553
-0.018062524242445997
-0.07796186396024203
0.09976772271497776
-0.06209835076154064
0.005400530430878733
-0.06362656396471407
0.16722077204230232
0.09642270303731473
-0.03702838685958548
0.026566054437975908
0.03711548627161479
0.019074589412126395
-0.09635763228591275
-0.003859307636107377
0.05594811294213175
-0.04597063347980771
-0.002154781542249881
-0.02576257231415721
0.03667919510634388
0.0014963181476328699
0.10396016083801214
-0.08018672472682188
-0.014957244670686501
-0.13733948799724943
0.09072549742400562
0.02833034532400642
-0.012283100638839896
-0.010881457257543836
-0.015624369332162108
-0.08341889924902564
0.05885187481872619
0.0012196417412712768
0.022630337681156912
0.047190481078269855
0.08809077681033901
0.01495057592704854
0.03531045149259827
-0.08196014102062782
-0.07841022563468633
0.08165119742597234
-0.015401603679531547
0.05925661844325633
0.01396259649220345
0.010683772190438185
0.06759830180423769
0.0009332560503964788
0.09853666241047009
-0.02750702313322783
0.12361130092459077
-0.09032271611881024
0.1096739566490366
0.07257632302530496
0.062149427798719334
-0.08725410562459673
-0.03736508601462425
0.011470877537197418
0.1014252759853738
0.0733130905352782
-0.023952604475852367
0.0010485695493050178
-0.14910072528996177
-0.016685929131754675
0.011911197416806399
-0.1310880149819629
0.12258238813556084
-0.11676736255252121
-0.03244303090440824
-0.09928093452212014
0.07779753829786536
0.16553982649984286
0.04467897196730881
-0.03477904826767358
0.004632365892046927
-0.04792371743280839
-0.034322745327049695
-0.14031683162004227
-0.10120825149606749
0.049448047829773405
-0.03828065082343555
-0.024873855440649528
-0.07649312863067066
-0.09211123290990304
-0.11584116983465577
0.030629913081781424
-0.045938707040800275
-0.055919820927428414
-0.12274067975703865
0.04314899892006674
0.06647417668812254
0.059844058472131534
-0.06751294817574195
0.03340621592963971
0.07312993300599405
0.07955326916205885
-0.10938156816717552
0.02787077663148677
0.08985545217241703
0.07262443584236417
-0.00653471390557693
0.09702395818855797
0.03454069685203129
0.08593868501861143
-0.02297134565532256
0.047618839316763965
0.0010273717062745445
-0.11346207344771535
-0.021918856490482534
0.07439793215375884
-0.1094430189334749
0.016412611224854854
-0.02749870700631475
-0.046067276719329926
0.09225275252964998
-0.049164107449144304
-0.07093341855056852
-0.11698981384653452
-0.04752957591089792
0.10688394935232101
-0.055302543328671204
-0.14647825913251689
0.004185094627976553
0.08708514929143273
-0.011401510799655666
-0.0004601629657761734
0.08449683862493619
-0.0976902938751571
0.07034232451729432
-0.12780173709180456
-0.05297776311197788
0.06146243429643852
0.11432307583527926
-0.09256177166092915
-0.05403237185406493
-0.06954800640293658
0.09770375919350739
0.03919613231728795
-0.055913490039845776
0.039203314276938746
0.1478916053150773
0.05980414077197291
-0.08553469150167964
-0.01643748392233219
-0.06246143392930761
0.073287413143315
0.07089180796869342
0.03209825338771504
0.032229524260797386
0.004042650583281839
0.08149263960845855
0.015306731105566601
0.051164148396869426
0.07102236852415149
-0.07546022337045097
-0.05876206634986407
-0.008768789879082268
-0.08073037807491443
0.07447294451397588
0.008064281817496447
-0.09504152680935303
-0.1063654923532191
-0.09189457943038341
-0.017123994265035476
-0.00843327510652021
-0.09640301687449405
-0.05825311915697686
0.018293782881324445
0.002203712963981508
0.14191285379719365
0.03405503887930391
0.13312006784283972
-0.005879948544083838
-0.003878996253030358
-0.04593889425668658
-0.07046964670470764
-0.028666018827334567
0.07491671013785693
0.08180501173776697
-0.07189506978972113
-0.08199368844673031
-0.07189293237736262
0.06983318801462894
-0.010003661225782492
0.0788351398589151
0.05851802849788395
0.08594078483403293
-0.020460926824545124
-0.02638825174376141
-0.12150387839856346
0.0030281404697633098
-0.034111573641662424
0.023688908109137933
0.09385067795529828
0.03855559570482315
-0.011484196057521311
-0.07426318644578643
0.10671149668944618
0.0504079276740318
0.019969198898379698
0.09709889188584704
0.08111750241401959
-0.029877637565053947
0.1441230035242155
0.05250179906686232
0.05459384160276514
-0.0007359374573169389
0.10574504592496084
0.08444417048184404
0.000959112736246746
0.08778934220126555
0.010025523296230705
-0.07108288056499336
-0.07665538316213807
-0.05528254809661939
-0.06472958787622869
0.03251127217377007
0.0023034865356595415
-0.05685679132230832
0.05214092902991001
-0.11803801267926113
-0.04660408533363613
0.014166156023524126
0.1467950352603339
-0.02471113457189814
0.05929683406632086
0.08244732401178435
0.11304416624006747
-0.01408765761591549
0.00601978660107195
-0.08235159435482191
-0.13500314832971091
-0.012671020226899513
0.06427505928688793
0.006380480206833542
0.09995869592522812
0.0929208867975476
-0.07071146296319154
0.07157192017169205
-0.11001879969690484
-0.06402375001581712
-0.056618702616666954
-0.00019406862531694098
0.10486672259511705
-0.054228073968159006
0.0038950960294889462
-0.021127019813844204
0.004078746173747776
-0.20546230736200444
-0.1493920637123724
-0.030140458897642483
0.0017060007803667086
-0.005110098009085327
0.12954005570179586
-0.019615167566978776
-0.0521415448124677
0.06471499111068388
0.06556057748943396
-0.09667230132039802
0.05726852317108501
-0.0024709354806464233
0.06861251067515223
-0.0069785246718977005
-0.06579262793918907
-0.07696271732593311
0.00649058096521406
-0.1580770319331053
0.03228685601739373
-0.05089585967793442
0.05372223505978503
-0.030360575420885015
-0.18001421635262108
-0.043647019689630945
0.03292927812768872
0.103257751667264
-0.11822480731144103
0.0886043647255281
-0.031151301457294344
0.038051138582795255
0.06714624135538576
0.03989507877393052
0.06038926485226724
-0.02978782847633081
0.04542059155556715
0.04434824744252895
-0.05126183686348312
-0.02759313243148321
0.041251996987897485
-0.033551837402067804
-0.10280833873491213
-0.046628641549905196
0.13941417065867134
0.011531020810732134
0.026441862664382015
-0.06666471965613854
-0.07228536685602095
-0.13049443770381267
0.012434100997447383
0.052445080680337756
0.055130991182685475
-0.06898563446533713
0.09813408720167786
0.09713993096752783
0.05395199235084661
-0.08894339422393112
0.07801587915504715
-0.0069522358406423025
-0.06048146952859032
-0.12356453706855218
-0.0637589640019573
-0.013756166666982676
0.010479305237200908
0.029979711173572024
0.06463634225369222
-0.020412636231810725
0.004745053995099679
-0.10339911455465055
0.0036983484159794945
-0.0010256760832767701
0.038770246000962086
0.06360287194687628
-0.08856473619137857
-0.06845396966107775
0.0865012964252925
-0.09782267181403327
-0.15701127308163496
-0.0719289151021114
-0.019749483604526278
-0.11685484753211998
0.08621533842572415
0.035952016100982996
0.022616075699019567
0.13119651136095084
0.045569978995670286
-0.001442547798353781
0.06615395421541911
-0.004042702469362893
-0.07146001590529483
-0.06872781437846388
0.01125173414508468
0.09043689852075484
0.07596658177437347
-0.11112167730201467
-0.06821853395149201
-0.13007387728407113
0.07093545921767055
-0.08504352784474141
-0.062263871792086894
0.030129000423985478
0.09501593577406552
0.09961868272897671
-0.10131958933414892
0.027554491096429934
-0.0822574072613025
0.055216641839663246
-0.06783052283707626
0.1341911582690963
0.10402035992452965
-0.05209047709356712
0.0610130942131828
-0.17493361138685334
-0.02111974691368637
-0.12242999138167865
-0.010041299785161455
-0.02060406886750601
-0.043743446700495014
0.06478160164163124
0.08658373052532241
-0.10264714627786298
0.06858019431598966
0.02680018513291598
0.041688244031504
-0.026295807863411735
-0.00017815351748380083
0.09847841697787144
-0.03255160510456398
-0.055749600345508556
0.03263850523529986
-0.033857707151765684
-0.00029514753652597615
-0.02796822010657572
0.0012768972382806623
0.02362519644811312
-0.046828922841854914
-0.08682255594947012
-0.13925277787405013
0.03773687636300303
0.03669923252016534
0.10041719926618024
0.06697477228552882
-0.08136333457151915
-0.041772051155590205
-0.007691153719737517
-0.07486124127667802
-0.011870001965236797
0.030513375731372246
-0.10710115548691604
-0.09026192502516589
0.028151053343952494
-0.08561383659607362
-0.000974748647011638
-0.05009863233094695
-0.09741876683354975
0.12765854308395047
-0.0003814166382735215
-0.09516423344274219
-0.05087665945318423
0.08393338063843861
-0.05106349638053498
0.024748924103328886
0.008228090985195703
-0.07405591881041163
-0.011772058405384454
-0.01579524182335087
-0.07988000542631922
0.012035026170161193
-0.08024877036162334
0.0602212701952318
0.03970925785776039
-0.07458313685873484
0.08278179798578018
0.0951377404494908
-0.11080361782212543
-0.006133597586802306
0.13382673435933726
0.09084077519062737
0.023707881637206392
0.01964921164239531
-0.004851981140910806
0.03491807382064885
0.0512642797980948
-0.02989542531619131
0.12515116662722875
-0.04628513435802306
0.0713738329614822
0.028574789943002287
-0.0942161712521282
-0.014261963342756999
-0.05354650603136832
0.10268673177511817
-0.0120489458245986
-0.005230440222265535
-0.024216769267068863
0.006262623748956305
-0.059480183099866
0.032295199255447354
-0.05103415810057464
-0.11555415751046642
0.05575249418757661
-0.12763016324109003
-0.10437670943940931
0.026373877719516634
0.014509345199816934
-0.020248161551285827
0.018144901844864718
-0.0402688276830544
0.04974225613284669
0.01680229677870473
0.10747709047993102
0.10805639138581832
0.01934421103848286
0.016518358920683058
-0.08835534237628448
0.027768868705806575
0.09013777968890446
-0.07653156992924187
0.08232285997368277
-0.04561477746635828
0.11898353234540487
-0.055225478602811365
-0.1041671853765006
0.016974457736417085
0.08819492736220211
-0.002668743189971497
0.0642781580839562
0.028597929469589094
0.01970914758941387
0.10626409374690594
0.09437485434873656
0.09677948966944346
0.05430124596935411
0.05143258824659894
0.0008018871010102355
0.10005743799887867
0.06859789349892362
0.06715060542056553
-0.012651282269625114
0.00890260983602608
0.11269082729598413
-0.047398444535448
-0.11834319852079075
-0.0353625178297356
-0.06581795926251909
-0.039230136062512716
-0.02192845983551334
0.05508394084476512
-0.005583304442501157
-0.07645604880285269
-0.07147710789623812
-0.057574613498873585
-0.03671357073265736
0.07798282551079759
0.10487114747841174
0.0013348832772420627
0.05516331462788828
0.06004123606397326
0.12378996858694574
-0.02309949490759978
-0.04759777509168624
0.023752662508180665
0.020636241189579622
0.07371605637529703
-0.03534724199342937
-0.020494231245142387
0.0013527068114038319
0.00024490613343491614
0.03746940234000156
-0.03891216228300893
0.07391001961098127
-0.004092254701007874
-0.06441414640877792
-0.10601271061320593
0.05756614955664189
0.0723290056572183
-0.06961076820430001
0.12296851283643236
-0.08826012842017694
-0.05265707243631458
0.0287215747977223
0.07544015418019266
-0.1822946027109191
0.07489400371437616
-0.051364977602981844
0.06812860851344008
0.00498245846172766
-0.016440578462904913
-0.020433174763648913
-0.03020421256050661
-0.006497202378870935
-0.032498703525110015
-0.020041988575467518
0.0483979827865456
0.0961754445473715
0.02496440576893513
0.039612091175911086
0.035864882933782156
0.021839004332117502
0.12135560812227021
0.16554743727892213
-0.10147854318882774
0.03853425513031571
-0.08965472019222595
0.12672876019893922
-0.0386204071738862
0.09099110707679875
0.055983223672972766
0.013110288070876904
0.02892564322372258
0.008828462680554481
-0.02016737509229546
-0.15424752582295304
0.09103597872703252
0.019687541548038087
0.06010767141439759
0.019873514187290126
-0.008644409329170407
-0.006365970677891586
-0.03978493628468413
-0.03381264261976121
0.09894043486491476
-0.014504853855237244
0.04392423887732971
0.004555771674376836
0.1342597995247144
0.013319724253749138
-0.04197781660966271
0.01755634256889222
-0.05854967584554848
0.1210074198233934
-0.0876845914034759
-0.09912580890458125
-0.05504582325036323
0.08905323716749435
0.09056322910745747
-0.037182379610501345
-0.001561255702463056
-0.02286042760897505
0.03742414420066534
-0.024645434422628395
0.09980806565739438
0.0552988819991926
0.05381096104043282
0.04052689971414387
0.04549528209635202
-0.020653340848789316
-0.09151121555824603
0.14837635587300696
-0.12956831233649135
0.03581419384912142
0.008122728169945534
-0.0887400671822699
-0.17963426654572306
0.036157407430554185
0.11286363392023814
0.14902168792859039
0.14768750936000616
-0.1784183707260772
-0.0045208446473594096
0.02457442695269065
0.021806001627155975
0.04101606416036762
0.09910840585711966
-0.07825553218581804
0.0328020046474328
9.443642840364923e-05
0.06977779286364208
-0.029362682908983757
0.04499822281873614
0.032823226443988614
-0.000791521610740816
-0.07185686515608836
0.055678447875458864
-0.059106747143344296
-0.011298015416686123
0.03478233401194269
-0.08372608403142864
-0.01203439468816514
0.005136088373359518
0.10693059128951364
0.06709816871145059
-0.03791532019245287
0.04365169131291388
-0.060302172293908496
-0.01325756714751641
-0.10764260866224072
-0.07153786541285011
0.10230155155593408
-0.1190906264431004
-0.17880607022164688
-0.0005049020008162994
0.04875585383788996
-0.07707705748099766
-0.11407598681316318
0.0430900093447643
-0.002056649207969513
-2.8316555500329473e-05
0.053906995357296324
0.01819259104633592
0.007789420821394148
-0.05011649517751971
0.08081647940650664
-0.09944397605574677
-0.021970579789332114
0.0630867377878928
0.09540203222482263
-0.042056331047068234
-0.043779195001778126
0.04474332696092568
0.053188084740702905
-0.019324413522347445
-0.0042261653681872294
0.046865934941350204
0.05801369100526265
0.010240960241736092
-0.002122361774932275
-0.05208397250244602
-0.04419481148227942
-0.06745010887952702
-0.07186356805364968
0.004629046324858729
0.07032449076212899
0.1189402642983332
-0.10764429013174354
0.05256068581127731
0.01855017150749631
-0.034988655941403005
-0.12492081154418538
-0.01174887037362164
0.04156567384793085
0.028754594998765048
0.13427784729311842
-0.10532507457088157
0.009098518803566588
0.0004437388997677812
-0.07171884072669511
0.11356239765544658
-0.04753283811123142
-0.05608324044380401
-0.024948756769288004
0.027192678244772592
0.06052365759018091
0.02308469177006133
-0.0016706278248521825
0.0663679505598178
-0.042119761191376774
-0.010522704479888541
-0.006041649023482924
-0.11536717277182597
-0.03367125813324257
0.04289508071741241
0.1172023120462738
0.01594188610593827
-0.06276183340909748
0.08307955325239183
-0.01846455472762138
-0.08877743757341272
0.1010604541360432
-0.12258777113349227
-0.025710233539178843
-0.045730173020656496
-0.14242430748117785
0.03870097467315138
0.12386871667787488
-0.02995528103196995
-0.07326388371046
0.05849698334463529
0.04783762336126733
0.040679582082858545
0.1072949287572114
-0.013079046497412941
-0.02584144590884216
-0.09006272738144679
0.10827257196987945
0.002540539095574042
0.06158457111205946
-0.03802749380584331
-0.007133272072836029
0.044183537308460315
-0.01832641171001494
-0.09609006618649188
0.09300574191194573
0.05959108173392641
-0.05794843163964879
-0.0769973950380184
-0.00018347806072182955
0.0008862974907146132
0.082538182201926
-0.0019132624985900145
-0.12738735205526772
-0.03788063209680975
-0.05512152135641826
-0.0882956917381891
-0.06495917602672073
-0.021167489781827056
0.09106022732075274
-0.0013682113369996999
-0.14070317876547625
-0.020042258451095436
0.11688018752087982
-0.12198522045762722
0.07339926204964564
-0.08418058796503199
-0.03787751418774045
0.03934813543560944
-0.1584120730153706
-0.0580159465428106
0.08965224377429383
-0.075306060380965
0.07973900945008582
-0.03189395040763865
0.007958303996140653
0.07835346708130592
-0.04781643176748697
0.16130257695403527
0.06505238359677387
-0.06841428182822942
-0.004544847996273241
-0.05265878908228787
-0.018481746845296534
-0.059647058019637156
-0.11321397844101154
-0.060354576398143386
0.05257278832007839
0.03554792584910727
-0.043342607865535406
0.071292272313404
0.1079437139190736
-0.04926659517065886
0.08739070574447587
0.029554951591950266
0.1007190401455366
0.008008525439226649
0.05562656461302666
-0.1129786871359334
-0.009495584623840614
0.05661158651005936
-0.00881283709077165
0.09740808615312474
-0.09158180227739206
0.08130902657458718
-0.08937377062617763
0.10002319968216275
0.024801994528970753
0.042007597225074765
0.0631679265646383
-0.13013149273461158
-0.10457867878266097
0.09131447541096381
0.14327515210947425
0.06436265395859081
0.019788248180683272
0.04446668503530872
0.11698149405307601
-0.08502288236518267
-0.1815212410469375
-0.0543529593538704
0.0788108542084167
-0.04180657158948107
-0.06190800428020549
-0.09836185823951295
0.11461660718941022
0.09953932838330778
-0.036630635743978054
-0.07467281760295283
-0.049853940167911504
0.09440204184367135
0.07399023916127889
0.004483174738820087
-0.021258748575025358
0.03975726171664926
0.03050043067096266
0.03000295764931253
-0.02970296635210299
0.16561760890875218
0.14066514330476307
-0.022465111596493042
-0.02178653444959806
0.07423043376256924
-0.007072615622115498
0.0541560625879929
0.08714333814712275
-0.003192084089593785
0.015072972004661378
0.031137783261654443
0.11974155284429568
0.004375585406857391
0.062138543927965396
-0.08012469997054325
0.06314302158744423
0.09735271323246358
0.07635952701672766
-0.08051512977950954
0.1054242347070578
-0.008621169640137132
0.07985326619532139
0.10155193853496813
-0.06244584624278182
0.09273511262261945
0.07863993610925794
-2.739432078302906e-05
-0.09356903589361643
0.0749877515715381
0.03540244839394935
0.12526439026359282
-0.08830074442421412
-0.06270706149765069
-0.12192646866426796
0.05382429971804892
0.005490025563964109
-0.009536253177129193
-0.13475463706150811
-0.03911167529182334
0.03728773844128304
0.12727403557566036
-0.004250671573059636
-0.04309135440656149
-0.04872841488446226
0.027751299491680047
-0.08040625700011175
-0.02665689239630245
-0.08210253560146867
0.15636382265819945
0.010331296593500282
-0.026097034848973424
0.002766539535497018
0.08053321905285227
0.12023514086194474
0.095538128935446
-0.04810390622918583
0.02660311831129167
-0.08622322921559972
-0.061951256835865304
-0.016284791592308213
-0.11914857806199491
-0.10060552822415941
-0.07733718716229995
-0.05649384761133543
0.0933868547557853
0.04669138871264615
-0.019246484921660974
0.005245752573791028
-0.03830885704012992
-0.05785821526585703
-0.048252798363030744
-0.06952592747802858
0.07003032411837129
-0.15907545774857584
0.10175467330382353
0.027567714056906622
-0.01419421106748199
-0.026413764799604313
0.0037451889263896104
0.06938759789615674
-0.05287749498589231
-0.01163496244776189
-0.11297880600478868
-0.14702089511770566
-0.02106163488368089
-0.07674580539608217
0.09811675347898156
0.21624113114083546
-0.024305110056579884
0.1618112881845707
0.006619171864725098
0.0053032015005828725
-0.05224620006623026
-0.0034019387507346933
-0.07021668548616138
0.14373986526126936
0.030080067314100893
0.07021420980838076
0.02708807839230981
0.0020859491045772116
0.06453042395703487
-0.010055089923211196
-0.0052792415474855635
-0.013720542849457902
-0.11814974444596008
0.07590219532978897
0.0002600324815324182
-0.010212818888640632
-0.07410486935705583
0.034204966481058044
-0.021400769663922417
0.07231539581800259
0.023575287452365017
-0.04105279295482571
-0.04688622758051037
-0.004345028658533122
1.9416402200319465e-05
-0.1379447209678672
-0.05043057074159008
0.038037701155618386
0.05301845007652094
0.052340643618157934
0.05516166256423157
-0.056834043416909806
0.04369674694575365
-0.01950625314008611
0.09535961603987372
0.053964640897720934
-0.04340165503032031
0.011216089333027857
-0.05621827718648554
-0.0022868396484436774
0.1409882443177718
-0.043841231841637636
0.08623911654884425
0.036777933182987006
-0.14129957415217853
-0.031751335310119706
-0.04278270606515181
0.016901106178681246
-0.0544186852166154
0.007869380791677722
-0.11070054633271267
0.05842416488940042
0.11214624036409725
0.11356962597153207
-0.02487275568042743
-0.08380544211507866
-0.06391045766542255
0.12155586155439055
-0.1406245414737315
0.12648610281323458
-0.034469693728291145
0.09625818455789013
0.06770156020254384
-0.028527143786747616
-0.02649760890957522
0.042938617533290376
0.05709160176895704
0.05954051169696813
0.15604269604326226
-0.11801214534310799
-0.1250757568429597
0.03729987144191565
-0.010998147327529222
-0.02476423573330769
-0.023791621223037355
-0.04104734360227807
0.10950432766242499
0.03384863088241381
-0.10272154114594068
0.09504127741138674
-0.1834432034593888
0.006570789260016698
0.025124245338722467
0.0038149076022315305
-0.054222765568122
0.04278547512164081
-0.006724671136808714
-0.028514472665894724
-0.0028232742745337045
-0.00199707790604653
-0.018646500216131158
0.11370296979381589
-0.04521932742432559
0.05034354267711564
0.07422167955680116
0.07886455713306183
0.10427782536372032
0.05447254212381912
0.030131406006822598
-0.07421780210119774
-0.042941726851616284
0.03060796436726721
-0.027646328508126303
0.07027430771537185
-0.01566007642185759
0.04310582023151219
0.01039000649388052
0.08093061844018767
0.11961667447207337
-0.10745587088382849
-0.039629683044055175
0.07549358868468556
-0.06978823155838647
0.04455957287689829
0.010105181411707008
-0.11645930257012746
0.10717954535246502
-0.05349951623590889
0.0052285956081824505
-0.12013211452378711
0.027974473102008287
0.03214422773950955
0.06379826768981327
-0.02921350532122874
0.10391093838619649
0.057586200794199585
0.1015247070304357
0.01677489662342157
0.029997097713963115
-0.06869698048958454
0.0025718495887103983
-0.06728063640458003
0.011111158518613573
0.12248357575444337
-0.08342260017115923
-0.12224718241839953
0.0005777292494870109
-0.0264873710326812
-0.1098028061623212
0.0446170223472415
0.13757115326486388
0.03304692548242164
0.09973239367089258
0.013267502555960677
0.026166121502109074
-0.15657981709183597
0.08751323042399621
0.020931001269843968
-0.019492163148447362
0.15668644007034496
0.05272940878387837
0.15488809388013744
-0.0006768910144814778
-0.134916313003236
-0.04669961833029154
0.0048048718517498725
0.05279086692139964
-0.05127245605768455
-0.0027463909362041823
-0.051295606755797085
-0.0684567943252975
-0.02895786742763647
-0.012731911868556019
0.09425589859029931
0.03223621266579085
-0.033967957199594154
-0.1544826236539196
0.08707893333416616
0.08527606114392139
-0.03240691528788431
0.00012011098868615519
0.03268026917246643
0.023912113101670785
0.11623211986416988
0.12350837136718354
-0.08231599369530773
-0.13844956635912414
-0.010731314673745895
-0.042426422481194305
0.028414685180811736
-0.16268812634119847
0.06234560230221086
-0.11167910801494699
0.04022506918628343
-0.10659552550337453
0.07772371528672467
-0.054336707373528005
-0.02862113766965317
-0.11193396436755758
0.0007329363908409849
-0.017010498969250113
0.010097976206307018
-0.0946527191751815
0.06626775350595507
-0.049007252831085396
-0.11654454424218222
-0.07639177751802953
-0.11748772666553826
-0.09727660467579663
0.044950932813300315
-0.02519268427238678
-0.055413350890155554
0.06630243026140882
0.06894663323585869
-0.004471737583957557
-0.025694626724968632
-0.018498603890577402
0.08967801793460732
0.09558210380537992
-0.06035772933743914
0.09670746844055841
0.030417156105856193
0.004791409864664362
-0.02440349281956882
0.0008305349070102796
0.2031864453525813
-0.061419123786882475
0.026342940307200764
0.1268544494301303
0.0002045280866545527
0.12209093646835967
0.08151011384486175
0.031603716778956584
0.10761219270277221
-0.08235412986132161
-0.03249375811596286
0.04836020094563602
-0.01139617926005657
0.023778678016409982
0.1595221129640991
-0.022609586721798934
0.12447024998119353
-0.009236145369975744
-0.07437280554350209
-0.05032959980726104
-0.02067440136826727
0.008641489465179772
-0.049104761838224306
-0.07034729267727075
0.08393093412839622
0.06809680505011341
-0.0685358490629095
-0.03962372546796139
-0.04743263907587281
0.001873163171138397
-0.0731956764409579
-0.04157197481427375
0.05683015447304304
-0.10852817665018741
-0.002637540945641221
-0.13248772725838043
-0.09413577166340405
0.009790765324158525
-0.12406218079801788
0.08764794635105057
-0.051358089838190776
-0.029662167026286778
0.06212141216274711
0.060630880556889796
-0.11112156329205233
-0.0494090831228709
-0.049494542932383694
-0.03896831627672725
0.008802988472040032
0.02747024898926228
-0.03835645512754719
-0.20112519199221618
0.12219849421972319
-0.08182581925768782
-0.01115953127646145
-0.013398236980243054
-0.01773841068895918
0.005963500657562287
-0.036460999436723755
0.007712685055924687
-0.07651940455401143
0.038254886153263064
0.04338039114692093
-0.020754755950762274
0.009311861354971116
-0.06708838828511658
-0.005143488190270005
0.03823780098885025
0.07131732388232297
0.008423957974193078
0.06564188482826513
0.029740178425815177
0.05097689373187883
0.0958360691567328
-0.025107276639843714
0.05301298449784682
-0.03509614064587521
0.03798951965605085
0.08802962238564842
-0.0435653614061655
-0.0032046616453416023
0.034592183162700414
0.03971132324848784
-0.03517165574965267
-0.051475578345280194
0.05920629635087022
0.0646718304852469
0.003803869456526974
0.03109450457846875
0.0906372834409156
0.010358352791260262
0.07813381477486582
0.043510681514961354
-0.06696778163018385
0.14713234872343284
0.095788998436634
0.07652148229833033
0.037541099775658233
0.0697859327926238
-0.09993565772932739
-0.04763169775231905
-0.0836861658862524
-0.028179153611933003
-0.05435584881186509
-0.05178138784549258
-0.06908647499318053
0.034212229497992
-0.057474160660252585
0.025981262148769262
-0.035391684037507816
-0.13669924527654462
0.05561024415265438
0.07910455067679883
0.02385352481426595
-0.0393603946655344
0.11499638298827056
-0.051595523179546264
0.00220676235527165
-0.10495814364445778
0.09384134992621776
-0.0838709427599522
0.03034899929050196
-0.09632637417490747
-0.05460132047837884
-0.0015775535485864191
0.08213077103755576
0.03099285289784209
-0.12683695277889753
-0.006234531748419398
-0.09279812447037428
-0.08210873276915336
0.03348874218989026
0.005253114245576749
-0.12156719932114629
0.07780374517353243
-0.05293473815942242
0.028375524963398534
-0.15891909977613244
0.051727412442203566
-0.11255251909820836
-0.11716494290893262
0.015158824619488651
-0.07518109492772243
0.02319814231558631
0.059338355015793175
-0.028140824303011843
-0.06484486675951869
0.05518278262912082
-0.038462673713197205
-0.0008086972275860121
-0.11325158780604479
-0.13726890588152396
0.0026897134892165634
0.052850412778700014
0.018891236798077856
0.17222593389268692
-0.003741670049793918
0.14273738389604176
0.07657043717207002
-0.1093847313378657
0.10889948849003749
0.10107385881773412
-0.05380911098905724
-0.008312247528740465
0.04655732931875506
0.006695101896057546
0.1484441028203295
0.017153566015048548
0.03968609325246742
-0.016726512324130995
-0.04063748207985052
-0.05444956826884478
0.06259155877643444
0.13819325280678454
0.034285185354410774
0.04407630840449852
0.05927648236753733
0.07739664187026948
-0.06568735320632384
0.10056947321852959
-0.01908628345366828
-0.0077746008301775825
0.017688647891448146
0.11361210012498953
0.01850635186663544
-0.12592939512536888
-0.0034418929110627463
0.11291295166658084
-0.03597828229118886
0.020145248980363788
-0.027074135008881856
-0.07896226854933759
-0.08722769247978263
-0.11877625073182946
-0.0784444681806749
-0.013549963621262226
0.07376548722810475
-0.06009687359424273
-0.03973148731706647
-0.08601947276122808
-0.028732072506754917
0.04813808305600799
-0.060043382558316004
0.08130087335601849
0.0034386753028618233
0.16402236991544386
0.06074435897795141
0.0927359378377351
0.015235013493609015
0.012480755438247738
-0.08618684218567589
0.043780899251125965
0.06028801896900725
-0.07412753625288725
0.05521923048557099
0.032802126021857225
-0.018356515699258787
-0.061253086141693204
-0.004365860755035595
0.1305089698282557
0.01418371974282837
-0.020396394356508342
0.04555247383394341
-0.02956164387678949
0.08866536618879546
-0.063051817067052
0.12058102510343507
-0.012310643943582045
0.005641381003731802
-0.00644720771878232
-0.005857501326452212
-0.021801902608335786
-0.020094098016558634
0.04980562182993527
0.07481240572615266
0.02278900152442024
0.04255815806558928
-0.0761265925006788
0.03960200533600988
0.0038373853784046653
0.01421637666667041
0.0908942592971638
0.06173996619139435
-0.07081782811420506
0.07163307620273547
0.07090148508023077
0.020658190681760898
-0.029428868849238073
-0.04005208041585791
-0.06023433777314319
0.10100323009097276
0.010453176067452025
-0.09080465792116754
0.03618718405577868
0.09671536002471845
0.1313217071571802
-0.13962273245437565
0.04438008659975153
-0.03519556910151218
0.039800993900991184
-0.006573840766194521
0.04513773401648691
-0.08080209757238428
-0.1352695799677281
-0.06939915247212937
-0.0719431185244379
0.041875170150902176
0.13046157114395904
-0.07261299112686703
0.003361703303379505
0.10330943592057858
0.06200255656789883
-0.05869612848785232
0.001022805554335796
-0.0009962448465272841
0.11756018698742021
-0.10307906770475447
0.11874430229003735
-0.0627487062965158
-0.023118113713279764
-0.007671772444085565
0.007362368062147709
-0.0016207113461570858
0.12675443207670914
0.005511157653360063
0.09881358789652657
0.009636616926635666
-0.12056434633987878
0.0009636590368797435
-0.068356559350531
0.007164684248405445
-0.0028554973237576164
-0.014021297350866165
0.009616659461099247
-0.01952598552777891
-0.07915298384601711
-0.086259730730547
-0.08758561750043115
-0.030507150342087314
-0.023404191488684657
0.07670917759953523
-7.025180693186496e-06
-0.005937443782683053
-0.00733487866527086
0.05527779939362652
-0.017689475125319345
0.0793074382645985
-0.05377946053011508
-0.04695816162934864
-0.12858509135993162
-0.07379669709364521
0.03877561833587201
0.11829185594333683
-0.003074214217873197
-0.019398472890766294
0.1759467884900699
0.006054174476235218
-0.012801012275159153
-0.02815347077674395
-0.04250457349829094
0.02610416496399334
-0.07013462484322512
0.13428300254336703
-0.08786388198750843
0.11063622992469134
0.06253931022877235
-0.10151318143821021
0.06557496313120705
0.10742064066066999
-0.002860372301206217
0.05866301281676707
-0.013523516892143383
0.021266408566718104
-0.04416399731505328
0.00701707212529452
0.012355579724807912
0.06400101773505146
0.04910604747128713
-0.0861910276285051
0.1414352824502
-0.0029555106099919803
0.022898791844641185
0.13783414485313691
-0.04318588494697278
0.07640245824786428
-0.03962435069055829
0.10857419442300312
0.06840022816012098
0.06245946858144287
0.055323899156229775
0.02435112193074674
-0.05411447203532071
0.0121967846772741
-0.11309068430329183
-0.034899757953110726
-0.04710876171913961
-0.12747886959960858
-0.04665588898499631
0.020813867024708572
0.05933098809828743
0.007252047900896303
0.06552637618106755
-0.10643990070858181
0.012722811897864937
0.03567585938173725
-0.0005636222373201461
-0.0581730600717846
-0.09027294673822595
-0.023487913120940757
0.03544031166875195
-0.029735919591683528
-0.13870854466794832
-0.07625602420892559
0.04598151147661208
-0.09576901971509723
-0.08973038675937277
0.0858364555735021
0.08247280344241881
0.030366602681637357
0.03181435818839183
-0.06738689049059982
-0.07235044768868813
-0.07552490090863848
-0.06926949570893007
0.0620756556610297
0.10550482931091938
-0.08809771664674242
-0.0766982191220736
0.1280694554015878
0.05248715560494915
-0.03177359115399349
-0.008796935000205404
-0.05544800545933299
-0.01955991633534839
0.06729645546932642
0.08085721446765662
0.04933231559682533
0.0834694496542707
-0.03922593994868013
0.0033461573330894217
-0.03838033036702566
-0.049920204503432444
-0.007497763584857207
0.08869432262147037
-0.0004314509442287017
-0.09047103092539996
0.07548618728476164
0.13211222764477296
0.011982602424101589
0.13997656549599202
0.12297667399629975
0.03341252765696821
0.034854677670409805
-0.12264855988235925
0.09503700874809787
-0.06150180264667423
-0.014754185135674691
0.10475319168787382
-0.05989787075240737
-0.0261750562680535
-0.0787115778148382
0.0018449064782568
-0.0033003503190834125
-0.08443342367888058
-0.015519265971555712
-0.04947891367279837
-0.09388291538584696
-0.07635046314357492
-0.09183520445115943
-0.060013228820005406
-0.050433523577766086
-0.06499219129600672
-0.03992025096051708
0.028215870869063832
-0.0686439054612388
0.08375853719688262
-0.07621988071988488
-0.07677145177974572
0.07980193509330517
-0.06540517563429687
0.056484089629650056
-0.1076739356270394
0.018586273554020493
0.001926960871213921
0.06526981383927416
-0.06111667213506655
0.048476097286443136
-0.0013570302023280835
-0.02669921149759253
-0.12877281558316633
-0.06263057205581521
0.05282963093965504
-0.009551111754239028
0.04100126995039171
0.02204030399496764
0.10591935404108865
0.04289136460577059
-0.0958689889423359
-0.04728110023967773
-0.14071551725709427
-0.01689479488505197
0.02341415847097476
-0.11662944672187986
0.09177978606780067
-0.08833171185916519
0.03958481155765158
0.09737791002753532
0.08289881134837011
0.003092102782204888
-0.029018382786071106
0.041724806299690935
-0.053986854672595015
0.002775616765930605
0.05226042192455707
0.06706533318225431
-0.056668139419859244
0.04881309758415893
0.004013096279878393
0.05813194590070999
-0.05936631136736201
-0.08233037718148543
-0.043676652560992985
-0.06975294609780634
-0.009086320335043654
0.05276713700133204
0.0036800073422923766
0.1369108802132061
-0.05832000231625778
-0.05000995209358919
-0.028534807370527566
-0.02217712992635078
0.016579883548203465
0.006396511919051024
-0.006605451922704332
0.06041220452574139
0.09482935440346602
-0.0036587348825484066
0.08118723069461653
0.006561820899323029
0.004331950614445136
0.143675646661265
-0.02158551383535378
0.12369824994169924
0.021424912790604805
0.023410144368630172
-0.014264733231899902
0.1719930450203364
-0.0008427177575375582
-0.12398573566295606
-0.0017079515193079628
-0.04739005039680344
0.12520994629661045
0.05018520919051631
0.03834084175754612
0.09629508544051923
0.011357145731909782
0.13667836431028635
0.0635149371888209
0.0358823957183488
0.0726160320356118
0.050700996976407536
0.02257549789048714
-0.03817766729505175
-0.05754072274412344
-0.1347619589750606
0.003504829216875574
0.015947403537406736
0.09271527596710963
-0.0024628791929654776
-0.07364585122234428
-0.04452623577850501
0.04795738138525136
0.10377921931549457
0.12782625710271706
0.0030209491951741084
0.022586063747174326
0.13218187166702386
-0.025563877224754106
0.14513732146496017
-0.06580073788919838
0.032400787213738215
-0.038402526717046206
0.03364985600940259
-0.02163412645609297
-0.00554822239284857
0.020544299807692318
-0.016613219054809027
-0.06774603844906661
-0.06798214565897322
0.10499176241835632
-0.021574972521431292
-0.03568394677039452
0.04730250833362757
-0.04444774509541404
0.008959403871465236
0.028596911262175475
0.049177503445975546
-0.02308422148290406
-0.09219930441582315
0.08135721819149702
-0.0858978100357425
0.11191726726418735
-0.10392340256233482
-0.006050924759700956
0.08793020317732145
0.07871708502726207
0.031037189579902296
0.015937296453540587
0.019026090275219516
0.02381938065387921
-0.10255705113463078
0.008188982045687684
0.005137741592055262
-0.04548321707044169
-0.0018908278037401255
-0.08477986385179836
-0.06324264586887315
-0.007515647104684633
-0.030636424567190717
0.09982282334761265
0.010866727267373158
0.01875147979738078
-0.05270070983079781
0.12688860423726864
0.1060886767120548
-0.02094076179394748
-0.04860969515539124
0.12559405472265556
0.08950349678661823
-0.04870921934243343
0.042950967440557326
-0.1165086384640006
0.013511921141707224
-0.04636438460255731
0.005041563633870988
0.03748772107363807
0.12058094218714784
-0.029636291276311014
-0.07393449751134475
-0.001897076687818314
-0.06282939687761106
-0.029298985246910464
-0.044488677737150276
0.055001311756956855
-0.06499384189507591
0.037094164031237116
0.10658338115707004
-0.08647294020743379
0.09240366972997377
-0.07468656179781295
0.03577361980228144
0.042136441093413586
0.1838660154649764
0.027145775518569157
-0.012789990493216859
-0.03830405396765236
0.07365827653925347
-0.09087677392816862
0.12995959857411601
-0.01272043520075116
0.06686929247042718
0.0042882084541840315
0.10083234585306432
-0.014934319578298766
0.012825517018971362
-0.032277826856593576
-0.016478621858481295
0.07209656371269216
-0.10948346172842553
0.1164615945433979
0.021855939284076642
0.030917301336754237
0.04551759712624411
0.028234483667333492
0.0013356044256498743
-0.04260565329246852
-0.05345631933196988
-0.0321979270538726
0.002912563485107955
-0.053713163334400946
0.07354705512682234
-0.005425381405433396
-0.0861974396851529
-0.07025159313943484
0.03590534950704445
-0.029873589707842773
-0.04512877952826484
-0.04994567878717224
0.04230981910582889
0.00555514978162052
-0.10674269176038013
-0.023726364917814085
0.0517740172396892
-0.1092765106109661
0.07169488040062073
0.07367456523278944
-0.14069614805636652
0.11858834697594174
0.040173271734908055
0.023334542081889387
0.17243700253876554
-0.0022842583336155817
-0.13632515287262337
0.02337193501705255
-0.06645442799859487
0.09019156332980607
-0.0029496512032271232
0.0592853575872543
-0.09800948904529935
0.009111249614442015
-0.12933051181151775
0.011119450841242582
0.05857527192927293
-0.021684223948240898
-0.07135213155215314
-0.022898351949671093
0.061509594223479326
0.023917275160764324
-0.03144920126409967
0.06892125812561103
-0.10289855374201035
-0.0075462441849737175
-0.06264563002884332
0.06999306625525384
-0.03449250352583842
-0.11984049576679917
-0.11745302015694173
-0.10202614256610797
-0.0960527266638757
0.04144411653948343
-0.05184466697009577
0.03752977671847712
0.007784313064735719
-0.07642222356280101
0.06060912153866876
-0.026887902365953443
0.04442867533887417
-0.07198635073476693
-0.05819844052765672
-0.05527600394920529
0.0012441310763628363
-0.09598848092296003
-0.12982597965632015
0.03936117655414822
-0.04985779246673724
0.16603437402024673
-0.011688608013757587
0.022720714181705907
-0.11155416956758805
-0.04620237710063809
-0.12421360316869628
-0.11385379232225176
0.0904746339259433
0.09341161083725344
0.024545696025545877
-0.11119343962369
-0.12415409316112277
0.10637988502388959
-0.07778971686948677
-0.05082234513414257
0.03956001835752985
-0.03397721558180062
-0.07888583646439228
0.09579513205325708
0.11425203696347137
0.049021798233411976
-0.053065157290265216
-0.1644516239947604
-0.08355638548820472
-0.03300817670822508
-0.003363077055746628
0.07030226112391705
-0.015186487381256763
0.04283134903426264
0.04587601390130496
0.13227209429281303
0.04332407102536137
-0.044583571131022466
-0.05831877845275787
0.07346885578834701
-0.1037100340938002
0.014252186132636596
-0.039605597772130186
-0.01710358877298563
-0.14408649749157973
-0.05522594806404753
-0.06637874379382884
-0.08470916909064528
0.05179951563561377
-0.023544743750818775
0.09339036623418909
0.14530403764490732
-0.021259636504711712
0.1352830408763724
0.047452094227279834
0.13754752074409068
-0.08234778034485522
-0.11148279035303084
0.0031605155574477043
0.11029722095499442
0.04331374294756963
-0.011190378795358214
-0.07705242310736218
-0.06338268444588135
0.08109413695063253
-0.0753752475135864
-0.21203156085053676
0.03488645338431253
0.11129181829209947
0.024835261992338813
0.1169947092057691
-0.031823254642901665
0.0327832880033029
-0.06786986469664034
-0.08485991756250957
0.047186224919378336
0.036541796433006604
-0.05717000479632721
-0.059505568264533744
0.0011655332722430613
-0.00018336510529602082
0.06591392457649928
0.04776182675013927
-0.013475166552312366
0.02684399066486306
-0.0222185788410781
0.13485422166853106
0.05533042321884886
-0.011504189865777887
0.024307104989065104
-0.09474763928226541
-0.0593963452970868
0.02261863953142742
0.038669229585859236
0.01041428866724749
-0.0029681498553705086
-0.019142003752587296
-0.09209977340033332
0.0564795557981142
0.003599180797377311
0.052060553580156314
-0.05541716170446807
0.01946559106131259
-0.09737944450830559
-0.049680658283643875
-0.030481263628055682
-0.08424343503648211
-0.13410979762718564
0.017015253259100666
0.10282459413223094
-0.08435307408347646
-0.08814144688770781
0.0980823472831903
-0.09692232587747213
-0.15212574971275877
0.007374466515024663
0.10513673927598997
-0.027769016304033403
-0.001149144685639153
0.07916227412638208
0.014842849704717588
-0.012175056985606789
-0.008441777579720831
-0.0638904603036918
-0.055454835389332914
0.06153274716930792
0.028822415665054467
0.00568190920534317
-0.017879945909605843
0.02579347926208392
-0.026868627386947782
-0.017203436079278912
-0.10448106348332133
0.0571986105673174
-0.09533076194191954
-0.05963166217246236
-0.02773431684720709
-0.05946095210908928
-0.0390778423124703
-0.11007104156879008
0.03779640024203361
-0.08555712595998612
-0.09956070423183239
-0.07011232580456721
0.061062913642892964
-0.007874884744539333
0.018559100962100065
0.01820739361880995
-0.04688447218542969
-0.10018082627595033
-0.049974471959958904
0.0695021320260364
-0.019930044030866265
-0.05614634428742109
0.06210202557487306
0.020444186379716053
-0.006513794752656289
-0.000909783206292606
-0.042001814888918736
-0.12627051345331017
-0.09739685504832808
2.641668488607576e-05
0.07478196424117532
0.04979388387482895
0.04067421752294329
-0.091655500400897
-0.10254120555464356
-0.10656877257659071
0.00041055895420076066
0.10042417999520226
-0.06718025254285886
-0.057135949681701555
-0.06610531448557312
0.02533034797089466
-0.005983161736325694
-0.10544222125484762
0.023892364038649933
0.11419530995773527
0.05414451013290588
0.0012771601847377633
0.12146246467190419
-0.02445227955290752
0.10140653334254436
-0.08907563099240881
0.053726039207302456
0.07774894310233622
0.0007654858050124241
0.0173839075908899
0.02479194702553001
0.13722600574562105
-0.14500458780394415
