-0.010334324441118517
0.0835330801947145
0.01114660661406441
-0.06594562508643394
0.023558609120824688
0.06943142051488632
0.01492769653831523
0.020155305362417445
0.01090464609483933
-0.021433531617090978
-0.0012904057788145737
-0.009990761170279057
0.05873765020040987
-0.040583111588203026
-0.027643203838834684
0.015686923009976903
-0.056536531697075565
0.009862087484604567
-0.06201157837849264
-0.1499810638690259
0.04748412836833134
0.05190017051644546
0.0908867409226921
-0.04498076729640869
0.2706400871886726
0.09872612297028205
-0.10346095442549115
0.029771886698776385
0.023205500006700065
0.05495613300689331
0.0020630355124078154
0.19181034223146717
0.1509445158265196
-0.0948066595154409
-0.07854060545909608
0.06836817948462673
-0.06059444556341412
0.006530853085642751
-0.1122297797088647
0.009271880704233154
-0.00825792077180651
0.010398620296358713
-0.06258958868506509
0.05352949320829524
0.21974297568699044
0.05251401770112412
-0.001019928132239691
-0.002979376718554449
0.09415053270994565
-0.134127916601089
0.01882165254059785
-0.05346160931333297
0.08914726601294326
0.10416330780865259
-0.03999154938064911
0.01987559432541691
-0.15637150478457085
0.021908784279887156
0.05399974057890813
0.03561831203994786
0.04775004201489256
-0.022540784434801474
0.034546379974254235
0.04036770372610143
-0.013179002072506179
0.06277804246633141
0.03459152799301768
0.04759251626777938
-0.001505607192360065
-0.06030169425599164
-0.04320093047925469
0.05290284402312553
0.0016022745669222497
0.046394635518515324
0.031239694738644515
-0.015021563170189147
0.06065677814270582
-0.04429132343262449
0.11311215442349497
0.13457015776241177
0.0007753145585853116
-0.15861461971627708
0.004508226908445375
-0.01620255194335262
-0.010583413944839089
0.0930407840210841
0.04437373354578895
-0.06731042494349836
-0.10577826997336844
0.337711697350398
-0.03692563571558037
-0.11453964147719023
0.10595809408401653
-0.017677631848241
-0.08793712955422378
0.027163214107491753
-0.01963534407451329
-0.04185627062139801
0.07181640419910894
-0.13196356782644614
-0.16078903052970342
0.10382622836567704
0.031247087693241405
-0.0008290625593764208
0.2244602664412634
0.046944564498175065
0.03133807546373885
-0.014716888458805148
-0.11717650561212513
-0.03315810004369664
-0.08250389468073437
-0.015288139834394282
-0.12062022527447924
-0.07030862151210938
-0.09205945494340541
-0.07763070680978196
0.19241691220262627
-0.027759973597273294
0.1344461889581468
0.056107032312061905
0.013637607616456871
-0.00028992447312557723
-0.009925533128605554
-0.02006452641753413
-0.10199832577091451
-0.10737744326126301
-0.05516576788084709
0.1400067225846618
-0.10073815061981724
0.05020591281116455
0.04290283349716327
0.029635810508986664
0.017940117949266785
-0.09183856939741487
0.018299740235211796
-0.0021957914901557947
-0.16977277504634203
0.001802658218079936
-0.09260925589259562
-0.04013261514752121
-0.007080628481289522
-0.06458396186383406
-0.11914813121306676
-0.07457213132241938
-0.02446364898031307
0.08502467609246211
0.13064884674679406
0.17911466131560505
-0.18557094929516277
-0.24120852901468362
-0.0751479735016004
0.005350066548074697
0.10983084056590052
0.007597948992314918
0.017302072885827677
0.020352560938466463
-0.18617932458055717
0.15499446900732541
0.09962459359175659
-0.15070006695300586
0.16076388105662254
-0.0326549443913176
0.06856939016732297
-0.20091044238405736
-0.12678091737466057
-0.09854875677537225
0.14021348675138054
-0.13407536123716537
0.07798190541870285
0.02251671398579436
-0.04022150575678867
0.13029826208692663
-0.147804046321019
-0.021920186361009064
-0.12803655217679816
0.010443636982947428
-0.023088814022621747
-0.22705289082280644
-0.32413067891811026
-0.02631707065469947
0.05456489880977195
-0.07177877926072924
0.06870650401304465
-0.009081605024684048
0.05949776384447065
0.05624400881115872
-0.1217780774487689
0.25468763142795037
0.00357015713348118
0.036244782965370516
0.0019020970603604035
-0.2573186296991993
0.0008714330197904106
-0.07996377842415636
0.007493219862253741
-0.02881313284109782
0.0435403307370068
-0.04449735326056975
0.10206066596207977
0.1158351269858869
0.14014373186050214
-0.1816197184506704
0.04991216763724131
-0.026824858086817418
-0.11517652212992964
-0.15355488911673992
-0.19422886971600553
0.020618720623227768
-0.009823141939972194
0.05117373909709512
0.20362356136370935
-0.10790703395279995
0.017978998650410017
0.02015218677946883
0.005894700727178179
-0.09991022755241909
0.1737165508081965
-0.21920385217903732
0.03048944681331816
-0.2085341616830483
0.0933723956400465
-0.005080435362078433
-0.22222465713500422
0.016232192569730786
0.0826678726805975
-0.07444938252365756
-0.222496092403959
0.0021179318621255866
0.00246076873296977
-0.11899242341936334
0.0074207632884599395
-0.14550006752876127
0.0025756176215908106
0.03859687780152277
0.052343337691056584
0.07156189198370623
-0.07133909042117992
-0.012529623263836122
-0.0024159622947270386
-0.009631655446896762
0.056228725227680305
-0.02446104952793446
-0.015654626187601516
0.055589673979685374
-0.12251267559589095
-0.03885085980249249
0.037292693507872066
-0.1561403710556963
-0.08032286012560615
-0.06581380892428572
-0.09356205780841097
0.005330560295213236
0.025678096593939544
-0.25767635528267785
0.03625987960990478
-0.16636801708259896
0.015593269832606615
0.01537833600855861
-0.1700878189296355
-0.20107776568402302
-0.1580547592694341
0.14268944571184297
-0.0045716171944843575
0.19027977704349072
-0.043134954803837396
-0.07359857471112444
-0.01907849269754217
0.18883994931525877
-0.060855670617632876
-0.018373064241981582
0.006673446901172351
0.06725530729408398
0.00485684907706294
-0.14802720361787988
-0.011023241513742621
-0.003228466065495829
0.07669989425844928
0.04472315870942326
-0.03075706351302488
0.015605320351028074
-0.10782023956140367
0.04861913303400477
0.12421405260500923
-0.12462636778919021
0.11221034263073283
0.08286613427943705
-0.11102502902381438
-0.13016334272080832
-0.06704987776292229
-0.036999113098730115
-0.102198360556591
0.14604023936231342
0.18104209351933065
0.1894353174807202
-0.17928533178559672
-0.049465449053497736
0.001451330532571075
0.0620577925186484
-0.003939466461661656
0.02073297121563213
0.11518151975707151
0.05769191654075017
-0.15783990541150175
-0.09771253170421809
-0.3498494113078652
0.14453883725112895
0.3726055770012812
0.16113201699390464
0.10007133180133429
0.10349638667768993
0.24798634360292887
-0.0018240690747169156
0.006728219307862619
-0.16696870636720915
0.07928659678692516
0.012272595555689108
0.10146282683400631
-0.14798353928138616
0.09531581352291
-0.19871045006966687
-0.15753720089363302
0.008781743192617732
0.20435912643414444
0.16341882172324432
0.0363198022237583
-0.056281624474110996
-0.04873740080380034
-0.03400319830620272
0.26943135036786586
-0.03605984033236575
-0.028616735881077545
0.019702021381907357
-0.04041454383609161
0.10963639462001883
-0.0732335218159019
-0.10026091763798647
-0.008453681857899683
-0.019962888764201533
0.025894233925944886
-0.07418003122810932
0.05049686022152094
-0.0029805854665764936
0.05196400617236266
0.013347526165574282
0.13692519043871942
-0.06446067808475195
0.457726767645412
0.07486515347201385
0.000931481293233293
0.02348751723264989
0.038344257221273784
0.11470105812712339
0.053013255461213216
-0.03654792810335449
-0.023372126382495712
0.008419849655589165
-0.1293486613055679
-0.05648094934030883
-0.27807482113633464
0.20269227300364112
0.004363980029873868
0.011458711613209025
-0.07899355923215813
0.25727370954262196
-0.06483315410014076
-0.04710477919257402
-0.12809582557541221
-0.0014012292542183089
0.002321226158807265
-0.1943917940328233
-0.00618668154237737
-0.20486358048077444
0.42553737040365974
0.07179961609703304
-0.011833934267377395
0.1301149320285129
0.06206364506279889
-0.14617779964720726
-0.0004953233958567098
-0.1328860836664142
0.09540951393187984
-0.18527254215105843
0.0022881182353750103
-0.08248368260098325
-0.08050267681193994
-0.08509981485385043
0.0814959531534107
0.18147382618481323
0.0725877666255083
-0.21941115811624995
0.00601245117289632
-0.04799192544238304
-0.06266023673649303
-0.21803746683510553
0.1291952553771985
-0.07811156901186235
-0.08093064182942945
0.04761108092201876
-0.062071420606004346
0.07869375056555646
0.14103459395055
0.02114141662621856
-0.021372154513226715
-0.21517225845300822
0.045274142622014735
-0.0010172416494125083
-0.0703233804318696
0.053782477891747206
0.03248746237821221
-0.02720184541933082
0.02579019188272257
-0.09634795592615766
0.042125833147945345
-0.039070196862263006
-0.06548199161984475
-0.14399269165779552
-0.08043114527737061
0.16298122024981965
0.006273257318166756
-0.03764046255140646
0.10749717655693093
0.012155086829871709
-0.014611497317035978
0.02049126020624995
-0.10071855770380932
0.14850012585565125
-0.07082320849724215
-0.2335598898735099
0.021001076455603025
0.038170142763229616
-0.25197125366918544
0.06763701878024365
-0.2549622073996001
0.0215778609546686
0.07432044349624256
-0.177076141528558
-0.041354804894191036
-0.013080918241875577
0.026237701900273754
-0.02063240121405829
-0.003319526385380689
0.04329097444710473
0.14438462843156208
-0.1212570750829831
-0.04547957855965651
-0.09684002909784538
0.014135638495425498
-0.015127516281084613
0.0914753904642331
-0.12004595707370301
-0.2670870395298275
-0.05645381908720292
0.0442581137724819
-0.1301481203337637
0.14634717457067378
-0.16773324600009298
-0.013195311568084183
-0.1349748329492454
0.16396284073556003
-0.28827185091847063
0.04632416985496376
0.016366656285331536
-0.007736242629456023
-0.03241349099014728
0.09619159137434499
-0.1635194962826486
-0.00732128428477095
0.08260688382358405
-0.024707639255996366
-0.12014630817571358
-0.06580539252884128
0.29439307261495234
0.11570150993450228
-0.0791826138468042
0.0037046768867478844
0.03935562607221468
-0.054939550806551496
-0.067289815360867
0.01805184244292205
-0.0403197908103975
-0.00036050884682609617
0.09835072573607369
-0.1248943397021867
-0.0078084235817983206
0.1310992526027917
0.07684688216824966
0.0071149609590028745
0.004080589264259825
-0.0003907519904625369
-0.21746261035863576
-0.083051981681373
-0.07042541909932555
0.10581297606576157
0.005602918810037684
-0.06488905920689286
0.03094428511405477
-0.07278938689747565
-0.03695713233548783
0.005373934870971861
-0.2103997155414399
0.16947959557394876
0.3048403289568873
0.03630033197478234
-0.0025595468922503376
0.006501119723105797
0.0003996058870852647
-0.02865588200672539
-0.1327237786460271
-0.03694138010067198
-0.06021762428335156
0.01801657221667546
-0.042713885208114394
0.09722819464762444
0.09067837829382779
0.000500935468176272
-0.0007536512137056262
-0.011763060393415143
0.03215582479709237
-0.004406136011780414
-0.05126643773061491
0.010827037317232138
0.014416273596244178
-0.02449178588315089
-0.07584849264367291
0.18853450354615472
-0.20734427261800978
-0.004393091089760855
-0.10704433513930445
0.01641969342539545
-0.004001196486403701
0.2768191513639788
0.24599468863673873
0.16251248837283033
0.20354969686172084
0.013112879703571024
0.009611615123933746
0.16984711440205247
0.017809044840337775
0.10538377399430474
-0.014343462190127864
0.09898450734911392
0.16132336844287454
0.1739928284289173
0.07762834146765389
0.12308430935193365
-0.1625934154865353
-0.23168379317357993
-0.2564166648946997
-0.12222253675594828
0.0206069748014503
-0.08549965534527462
-0.041294350630901956
0.004979372497356454
-0.004496308186126678
0.08823869649612966
0.0427259331203438
-0.005876734876676441
-0.0761463444227166
-0.10822448388754913
-0.06673763360242826
-0.17076880463466662
-0.2362020251539659
0.026385855071148573
-0.025657986156782626
-0.052162494303302005
0.03214996607741159
0.07114582438484064
0.029866035998160904
-0.230975761164847
-0.07352935980995047
0.10389284024524373
0.04152399045874681
0.07300630978418088
0.009449872918197698
0.09240904865096508
0.1850930884764368
-0.01667318829121063
0.020155116040669562
-0.19852098060964762
-0.06905227202610277
-0.0088186152828575
-0.13089138746268905
-0.04988399376128239
-0.14650685756675982
-0.11487934462708481
0.006781561317085943
-0.1642470255776993
-0.06456535827831976
0.1226998495593475
0.07260974237494228
0.01415581149751529
-0.1479652949197013
0.23926844152104768
0.08027961087591892
0.14564005796621785
-0.07728481689593197
-0.010020657789557698
0.14620909077837094
0.01678682657980786
-0.054727631808783976
0.043725347039757924
0.009422386318704686
-0.022384704493966463
0.04714225105848335
-0.025123636060289552
-0.004312827041375015
0.027338950854206064
0.003337823975014773
0.00475875325349073
0.03474657165783243
0.35846970813235257
-0.39973574980547993
-0.21402962440785134
-0.004122617566215032
0.3463027954518228
-0.1579010450452872
0.08576812387882277
-0.00540966882573774
0.11032159755643343
-0.09686388029764363
0.11520848898461111
-5.5433810413546034e-05
0.08011820709644053
-0.10503391391726274
0.022630584691149903
-0.1227183853525746
0.03906602514074061
0.06197805733007124
-0.2488893997353868
0.009385481967405487
-0.0002641207490720245
-0.060973620409557394
-0.011650463286706953
0.05587121256159421
0.050396476513503354
0.0026333489466194085
0.12180802671636365
0.19543174515981865
0.08477884257287661
0.19584040523289756
-0.028602906942525003
-0.033843988973017235
-0.029008900313030533
0.0032185387891424267
-0.12847197948550423
0.025438410173170552
-0.03597065327776171
-0.010347406688043995
0.003395900574739369
-0.0011122389846311411
0.09464373456018979
0.002236785247587746
-0.27707246507694233
-0.04056715040144668
-0.18232451282113804
0.009368196608054486
0.044838331062378216
0.10676453740118928
0.040304625180133405
-0.2961012689779147
0.0358051446328314
-0.06566240283945059
-0.021878907997727022
-0.13695597823617456
0.11991036611879761
-0.1454652223292906
0.09889245597815803
-0.07922056327590826
0.005021565799030127
0.19607311481278641
-0.1483072691330882
-0.3138633730862926
-0.12986412260679026
-0.048247375070182986
0.06718029941640706
-0.24670495961179725
0.012149499189592279
0.22305057832685563
-0.1539739111350118
-0.06492372913822299
-0.08252484685739865
-0.030849423518750984
-0.13180339412074205
0.05607604782048823
-0.18687573617891956
-0.07206406152322363
-0.03653763726444808
0.23493896933928834
-0.04759626264401013
0.0003009392234736989
0.05543812925506214
-0.11747974468515363
0.019606446901786846
0.17950004595724076
0.04299743627664851
-0.011418917315495537
-0.29553239441778373
-0.0069179390504977845
-0.05200638166437997
0.03548700147814216
-0.17422167256743784
-0.000625931006008376
0.010106872740987908
0.13407266964302317
0.06298460667877778
0.03287175752270856
0.2038680616465251
-0.08929624923705196
0.07689144388258615
0.013467956370903436
-0.42004025144141366
-0.2527371760041447
-0.12701332156553083
0.08984767968879796
-0.0727053649036663
0.09904733464511427
0.02024308336964093
-0.0018987867713156042
0.052227341464683455
0.019753080432053465
-0.10120449004710064
0.09065134414470755
0.1975991303742247
0.08990206105978919
-0.03953516439447161
-0.1215472666375569
-0.1399341345295088
0.07869915302494862
-0.05902257860701623
0.0780868309925464
0.05587497991600923
0.16215275289481293
-0.03600488210715926
0.04022043381055643
-0.12085759306890233
0.11458265348303649
0.06715649501334127
0.09649746698806991
-0.21366942716986329
0.2073979573147988
0.18778752807030372
-0.07101317440061286
-0.013050703933413326
0.0877277472564752
-0.03621094044359165
-0.010959311737775243
0.012924822738886505
0.025224170449521986
0.0016051602967605643
-0.02786492939323221
-0.007768475524104512
0.009550653083319677
0.017439460084650384
-0.002325268184721803
0.01868786997516024
0.026004208039410823
-0.012007075013294703
0.13297404674104737
-0.028332742937603544
-0.05009179189999469
0.0582653217025637
0.10296580965066142
0.18957623984871916
-0.2138320413372066
0.03937192591321359
-0.022503026768622376
0.06141022417535596
-0.009217981158990914
0.055720852406890155
0.14177338952937907
-0.4070510366197342
0.03796969783181937
0.03282114056665794
-0.06311512975992456
-0.008491577670610777
-0.00041131243968489114
0.039693913308443865
-0.08894862940090079
0.08102759321589796
0.02044462841395158
-0.0221752173432061
0.09628177796094423
-0.04673295412832583
-0.02902381715893551
-0.1468432431753885
-0.040925844296086145
-0.07845231567612601
-0.02081866242742103
0.1128357094760931
-0.009395075138762607
0.05696615083689441
0.07575483405858624
-0.14126778783554203
-0.03913689876391398
0.027639032957028017
-0.03145218482054087
-0.1231806218231941
0.19036241305789145
0.0954035726679692
-0.019917621694733094
0.009756354493185022
-0.049105131670124626
0.05624878069522156
0.08772771890345366
-0.008348271378481228
-0.07457980812517685
-0.04301314755746567
0.2064441622836489
-0.0803044632433524
0.11258269457738053
-0.022396757128344262
-0.061466621115020374
0.1204829809708839
0.04603151956732312
0.049189437717485414
-0.05866819058018195
0.10424927732007237
-0.10892717693099388
-0.06049474891991834
-0.08874140791152225
0.0024621782469803084
0.07404620422389606
-0.2586949407147281
-0.06980360033806213
-0.11616888969386203
-0.0382254479251802
0.05802612611089852
-0.050167496970565016
-0.015919548565465184
0.050312402062063555
0.05230332551339521
0.026579347729909785
0.03186344994221906
-0.03297965455566434
0.2418000309004229
-0.0029719080233806612
-0.024800202140403266
0.030923746853403565
0.09742225900876306
0.0019289654133368664
-0.047553323792673595
0.07716694380495136
-0.12019559427309859
0.07478678898122851
0.1594257716646778
0.1233624907994248
-0.1819954184402529
0.07270732259808259
0.1230455482444253
-0.012262947355483623
0.06979296380900947
0.004950224726452299
-0.002516518845158511
-0.05369205147428147
-0.0404479414757188
0.030336355541401835
-0.08840434139409378
-0.13869906731608245
-0.1053568062104324
-0.1184574723884373
0.2384844536391201
0.11141857435653084
-0.10760874368912549
0.12616796507979453
0.027341131826294364
-0.23147433702985112
-0.14098602670722543
0.09949075735209036
-0.006993700035992406
-0.028412641406005336
-0.0016383702236760812
-0.12091716121446884
-0.19295857581350895
0.1176791435222587
0.060038809413691566
-0.0013490890631966484
-0.045421651474416076
-0.09667025191189547
0.025904195290841377
0.04490133504589929
0.05172966999687919
-0.11054473489543627
0.052363636736654125
-0.012445742496276828
-0.05253744559159033
-0.030587700701307056
0.0016655718851438278
-0.12015865604300248
-0.18370024964951068
0.2155931574074692
-0.004111759697851668
-0.09993898853052814
-0.0011488944648664848
0.11639945180021762
0.13248303984426985
-0.012161153517216314
0.06252882535897623
-0.1067516399844974
0.3458090490394302
0.0011983388972963704
0.10775503568178749
-0.07518629777334718
0.1057366217556014
0.10485266505263446
-0.08363898174561021
-0.020671555066724544
0.04351134829345954
0.26633530677274375
0.11107054942409643
-0.07163702732190325
-0.2899645371184737
0.1120065881459363
-0.30700945478335595
0.01638946500953986
-0.06711572145115324
-0.12424424260215228
-0.21269390626343787
-0.07252736181999722
0.3980357923349465
-0.020142645990985905
0.006499631211429239
0.012395278803121804
0.09459743283826141
0.06615858824603872
0.2816658499357221
0.020708035123850457
0.029774697601599353
-0.004142192037191768
0.11856767429107774
-0.1473152876633968
0.03350672271181863
-0.09917919534271576
-0.08139694205568741
0.10370014697697187
-0.09538046826907974
0.0012032744208958213
-0.07732034431942868
-0.09885000702596396
-0.15190085901688752
-0.004439490585917354
-0.22472134546203934
-0.0339993075110933
0.005227254789059629
-0.04554377688788274
-0.0131559084130828
0.24574267524033305
-0.009266288994986929
-0.13684985913499173
-0.03881505596770318
0.06561326168183775
0.06047956040523131
0.07695938060877502
-0.1727179796354326
0.05757963185971091
-0.037152068551201116
0.45566009540458724
0.36496192520982523
-0.18549707706178478
0.3994968385110782
-0.16331078608801225
-0.2245257605252799
0.13897600360789839
-0.09603345112087372
-0.1401622916278952
-0.017606656170938036
0.2559893232808319
-0.08477511394817405
0.05425867079963734
0.20767972338475296
-0.003208132246697672
-0.13591564958247046
0.19868232751516335
-0.054528676920554686
-0.12133553035289682
-0.058791510520794885
-0.3653051033405502
0.1642097477117352
0.08983328912045566
0.028428494745363856
0.17647329564191896
-0.1313697033707157
0.12804589109176254
-0.16200972135959668
0.023536182716098798
-0.007013013072711917
-0.2641268187408422
-0.012596610761471672
-0.1959453444878742
-0.05389305271926089
-0.13793323985660438
0.055835129261026864
-0.001461235337039834
-0.0038757708664106673
0.08192757697437697
-0.1096261366046157
-0.04719004462481283
-0.036319232978998695
-0.08633955917947321
-0.07530021510292044
0.09838686206062716
-0.1448693848003286
0.1629927621428273
-0.1258389810224006
0.23022760878412216
-0.13472513806106062
-0.132339050203092
0.2370225549678818
-0.2012023261764229
0.0289067945726151
-0.2292611259452865
-0.17450713559352207
0.00797199016524838
-0.11672482710161775
0.06819952798997617
-0.1723080450986595
0.11199178970703748
0.04552665163905363
0.06473339279375079
0.10887796961376298
0.016853531394752198
0.1533474019634664
-0.1515940337920781
0.1523346241901567
-0.36314234466408246
-0.10244658495669164
-0.067200885649749
0.04781607870475471
0.26616006075657594
0.12989356057742824
0.09181250243184337
0.026935946930967004
-0.08066539681455048
0.051444938250407336
-0.1527344558110985
-0.12198008480278659
-0.0821274856482453
0.05858559321589988
-0.023671472846933037
-0.023550220595802824
-0.191982982810662
-0.17873782053040896
0.06234625459064119
0.04621967577263763
-0.027457055999792153
0.02950413793145384
-0.07653524938501761
0.09347962716372811
0.019953001294697476
-0.1349631307923774
0.11837463467466698
0.4538206215692292
0.02946911672294811
-0.002242747248362623
0.05988565672867697
-0.061343673254635675
-0.004425156835634119
0.027865883821792555
-0.035763461257490754
-0.04578604331802595
0.4246140360932133
-0.017369227848144788
0.09048294216223196
0.0005206261699342694
-0.09087433465354348
-0.009481149153210704
-0.0091646902982613
0.11515225921126417
-0.05416701979049885
-0.0598549169423344
-0.22624520848290536
-0.1919458381681921
-0.08241765614861057
0.08369303857709368
0.09942752313003646
-0.05755232636611816
-0.08938859839240319
-0.010821495391613275
-0.04177363145037896
0.10325325285354162
0.0069205159627242704
-0.014640447986232282
0.5130952385444182
-0.08322098442583575
0.4425135957987929
0.13777336945053506
0.0008719810168194586
-0.09207349242660247
0.02537505045511065
-0.013417432927152598
-0.050389716067592134
-0.3582544756346674
0.3554191061575457
0.162931085067776
0.03420943666646884
-0.10394443903464164
0.039581778452237315
-0.10114418844282581
-0.010805798958201397
0.12999039059396164
0.13012485301313742
0.01466057561430656
-0.14034581510731114
0.07829239480955599
0.08222657290520788
0.02525199492756475
0.08782099172499147
0.12201216805936033
-0.03512639299034346
-0.02634388573798292
-0.14137873943752882
0.03323944055837824
-0.12507497152213953
-0.11818638832561194
0.06355874285695652
-0.011525406748451681
-0.03328314058671848
-0.2809518300321889
-0.32628786785941544
-0.03727952367206485
-0.3085027875682615
0.2534590374702981
-0.3259544049265653
0.009311190644708532
-0.015181955855263244
-0.14403787514587021
0.16567361440971085
-0.23776855765771618
-0.15461680224161164
-0.11457382715245816
-0.21278524163252602
-0.10289979000957247
-0.008005307161160487
0.08004616290466961
-0.008006843043165275
0.0023306764744716385
-0.12637456500037264
0.14899113335236272
-0.2789735446573154
-0.1522660770514211
0.014968900197732025
0.06743238566748921
0.0889997575112778
-0.1427788319684319
0.19694654726259572
-0.07334096402319461
-0.1075418031551771
0.16603404751553272
0.018385982353851575
0.006956576066255816
-0.059577689247320036
-0.2548128272952737
0.147461998377839
-0.1785972441927817
0.11079139254230685
-0.18357659922783326
0.3154250193444438
-0.010469541990008375
0.09263343753092362
0.0496510772447926
0.1172608691669549
-0.1271523002153835
-0.1778227281976821
-0.014800350285703118
-0.012004610813579328
-0.007316710771829787
0.23312221265120683
-0.01823049081474609
-0.07960261716285348
0.12761443178453824
0.02538439756989185
-0.027024463038416987
0.139502461606252
0.00291904027005182
0.003503264135785623
-0.20159230527453265
-0.1028790668940223
-0.06486457285572424
0.10477175007480816
-0.039439412322999315
-0.20042213268312475
-0.013608745463891356
0.022614305602725503
0.0578863638166046
-0.012837810060423206
-0.15168596492128744
0.09745181899678527
0.006021860502444491
0.017011867585922682
0.017965963411782925
-0.004298248533541
0.0606668503971376
-0.0685447814973537
0.03531107703348902
0.07076321389541967
0.2528016295260633
-0.170095366358164
-0.16579439857950307
0.16684431337542996
0.03912733092535168
-0.05799172302583347
0.06960098465933362
0.034540072462756456
0.019764085661592913
0.01223282733673614
-0.2098887231710193
0.17036174121714712
-0.1786010271025488
-0.1429293277895631
-0.21663995068547962
-0.2875130465962381
0.07112493978635322
-0.18534764867977752
0.16731932895614285
0.21868360789361455
-0.15568832353684645
-0.18200757656317632
0.10705265887992735
0.009750517788387399
-0.00953527972575984
0.003958701211890544
0.041075512892115015
0.08661101365060334
-0.048114306187911064
0.15972150920683542
-0.2538997716490879
-0.4546773720416612
0.2257265935427069
0.043149012516005766
-0.14834204086251915
-0.017225548836159302
-0.05616336192550701
-0.07832809581741479
-0.1907370073217926
-0.32556513693488826
0.12336338424914663
-0.1909626321828371
-0.21226629505365344
-0.07808005718280436
-0.29242573259466054
0.05156937026288799
-0.0366261374059211
0.10116529858035544
0.08057101453202514
-0.04758108833962737
0.03308976368306062
-0.000985609935939534
-0.01628832889838684
-0.07664086101349166
0.06870736369426501
-0.03723251700109053
0.1898510796697265
-0.006147422065342757
-0.03195489206857913
-0.0669436612920453
-0.1926341009495545
-0.00840629020078505
0.1249570656233182
-0.08444814198183354
0.03180211342381296
-0.10643042418313953
0.030322950834082086
0.0788520124889972
-0.040168501484277495
-0.14659889672032145
-0.11823630717111638
-0.0017956044341230575
0.015904526534970022
0.14208128052928834
0.012026163809422808
0.08049618051053105
0.19658798225013147
-0.365225127609865
-0.04120533111129825
0.07007951846564227
0.24148496502196115
0.35647923121725905
0.03358209197973265
-0.017145021194712746
0.09599722170759535
0.05387174379202623
-0.06428613992619324
-0.23042670838637805
-0.02108195597102665
0.09405311050926729
-0.003335188934332795
-0.0562719059334605
-0.0008763279741507486
0.05040409277257313
0.0003303644407879469
0.22869060676917075
-0.4531810692151438
-0.0058406734527576085
-0.1288729353553303
0.0028631052007531436
0.08640835840735604
-0.09328453118520266
-0.14590539998347354
-0.13458427659821062
0.024381298822546617
-0.03796903671012177
-0.07533591047160855
-0.15924080812495683
-0.02847886291545523
-0.19723606818188477
-0.17990035731780785
0.03763870015629049
0.027356812061335428
-0.1242031629695493
0.19072526554263003
0.2051893868761803
-0.13426901660722212
-0.06664497755224402
-0.0717453264632494
0.27804319990684623
0.013995014549687159
-0.1483051367609229
0.0332232810450262
-0.06097402632165304
-0.04389284413071143
0.09047376665977555
-0.01197154054996933
-0.1603497364778191
0.12033157471290369
-0.05216435965642035
0.02139913306978839
0.0007509882607474928
-0.23380596903704565
-0.03562712428721775
0.0048937826109457655
0.013015181074717067
-0.06096269078137342
0.15271601614718022
0.17428341846921688
0.15534030785892344
0.17157563067098003
0.15480395809897324
-0.11889152892060759
-0.10944269559383976
-0.08425735953912626
-0.14180912029616674
0.17553543276031627
0.3433419306379774
0.19769642535132353
-0.19904079314866138
0.18816306663072765
-0.24136991133206082
-0.18800655826640864
0.193158875919596
-0.005944433792114311
0.03422380438423449
-0.09806730163757471
0.0063179794104839745
-0.10345697252112
-0.0630945893393492
0.06593724008567199
-0.005650962901066632
0.01068059348974258
-0.014094365495410417
0.0838848336040599
0.2928053901636789
0.05887821251684467
-0.042300350715723786
-0.03400435823149603
-0.04514541280414726
-0.11204777638672817
8.326765673230976e-05
0.021256469215116355
-0.04346588747021858
-0.06251783345805725
-0.009606827759379965
-0.01178110643015298
-0.026151416585703694
-0.004082721325113546
0.0881125849629051
0.04883486990763287
-0.027977782452643287
-0.001370800150253491
-0.011993939953944759
-0.07049697041576435
0.0623715600944575
0.01822786479991876
0.02983638966311095
-0.02558409110659157
0.03690051952768162
-0.35582143719247883
-0.17899078898312237
-0.06929306978362275
-0.02233103561073972
0.30167191883200056
0.28658911318870073
-0.26417846789343546
0.07186008400526078
0.1243284170598659
-0.043486990762556764
0.18793189246992953
0.013513561357962375
-0.008815147915032837
-0.010239192119017084
0.16004910333831654
0.06630332793000031
0.110898440000532
0.0806959152027737
-0.13017828438419166
-0.21613041657135526
0.23367067288425353
-0.19335195389076026
0.10017385910526483
-0.3037292586368506
-0.038235604439768284
-0.08643232721722705
0.014159069916248539
-0.4763380731735846
0.04658963481465985
0.04821333600543002
0.16679977258872114
0.03414273979951036
-0.31248094130375803
-0.12049515184819967
-0.10560205218747117
-0.12152578498543716
-0.06989223471419798
-0.15214610403175902
-0.17058324897332663
0.07802402154874494
-0.18765967955737375
-0.07306626993789349
-0.030835949709546874
-0.07113442737503992
-0.12143864463040316
0.15459454421790622
-0.086788429927475
-0.011021268497640258
-0.10405441681128565
0.020674810736721415
0.14499156337330543
0.18941020351193297
0.15359471519065354
-0.14734263681300916
-0.11448786757526098
0.05137015624686025
0.014660496628871521
0.037480156682062955
-0.04661356872414483
0.02164341280153338
-0.09720112460821892
-0.06318538685496707
0.06869346282252156
0.18365265796005786
-0.019158293614970897
0.0007197263699790016
0.018268712483386674
0.044550633254992845
-0.05993375464930692
-0.15988497558836862
-0.010335431530915335
0.04063144105973436
0.0667801837970613
-0.1279670803533996
-0.031756044366333315
-0.0014582975019092924
-0.0375733594744705
0.011096186004475962
0.045316281113045316
-0.0065522223609855235
0.07315106944172904
0.1841790767577274
0.10117901985638673
0.21802456223863376
-0.08302952502371988
0.04761138757117163
0.2523462402435158
0.22650677637319333
-0.3009330287199429
0.030795716244067874
-0.24148740844760436
0.04332550696339342
0.14426449727540974
0.0016876415017898461
0.12197262236470127
-0.19362292305571926
0.2513458901647191
0.37607994243867077
0.04221436329344887
-0.10631230872184406
-0.006014407420006948
0.09029466963919798
0.01288565258915209
-0.11058403575589329
0.0066937393079121825
0.18424159544607197
0.07734217246221932
-0.03183682533484037
0.03500079795916021
-0.08144466388663299
-0.07542287142004978
0.42742112878453414
-0.27183350570655157
-0.008553192582633927
-0.04180279075725797
0.12404765022481742
0.0035522130256602233
-0.005240064508962846
-0.08851091985148972
-0.10257199591477419
-0.09498327385901202
-0.004033052148882349
-0.040346974237925354
-0.06335599680746996
0.07331755681997422
-0.08446439225242504
0.024764794695467
0.0319965947351156
-0.019220862252504852
0.05183729646732602
0.0473937211250916
0.146794931168347
-0.12780592114109962
0.20772599066100628
-0.1922952681474928
0.0696010240029699
0.1086100638796877
0.08816815046619893
-0.000461502361268131
-0.006508171980192975
-0.02150375154283885
0.17740505728138128
0.023889422255239403
-0.16721128725625437
-0.0764844198900251
-0.0983939225377257
-0.113641445497993
-0.1661072421908574
0.17209729439241356
-0.03562629668552856
-0.12249693656013359
-0.0012359196195305352
0.15901902083570335
-0.007339496963512067
-0.012974810789675334
-0.08736822884401828
-0.0293646032862369
0.09760513622577911
-0.007965890944433113
0.01250044364425692
-0.12279135714050571
0.023852042077795708
-0.01648178267061099
-0.10672202557214092
-0.0732069564434664
0.03088472423657945
-0.13356026149220032
-0.10883185275744632
0.0796010590282367
-0.16336156791573883
-0.07975720811980193
0.09110041206925969
-0.2742585853443742
-0.010952985903066701
0.0005553325438717899
-0.14441497695833258
0.10170427577907239
0.10629240406337334
0.007127415213134873
-0.12529525848361706
0.02848487456247705
0.008724307608287971
0.04491104894666757
-0.048125220335033234
0.10685574940334361
-0.07110895897034045
0.16657659414964804
-0.08528266973015144
-0.07738279907350472
-0.053452270081593825
0.02235786855240477
-0.05128344608711421
0.10331677605643845
-0.001690614612620728
0.07857434363648995
0.11829426731540427
0.06803512613078762
0.2120738254279891
0.23839117044569963
-0.17242468906678637
0.08338350224527025
-0.22047330029177867
0.0016414096890264302
-0.25092496897330197
0.02240763950737093
-0.19873478223876842
-0.1112863745755116
0.012294634183173146
-0.02943114538468392
0.08735515782168535
0.33814936887160474
0.23194444399576816
-0.01450908589087833
-0.17077615721203027
-0.1299908938870434
0.027046788296859962
0.2178459702650381
-0.14490454711583584
0.07589948579123375
0.0801728699848545
0.06577513741792987
0.1117573607676409
0.11940047496495199
-0.1208718796869632
-0.24487168724405772
-0.04995386796392612
0.13251152269503225
-0.12255236506105828
-0.31880483565993195
0.0925371750553184
0.0015959060446295837
0.1474987359696514
-0.1778418867325078
-0.08039725352877737
-0.2069904188606654
-0.2592776603005973
-0.13933312577885437
-0.0007716997776294498
0.023554651348123182
0.0009957865933244727
0.01366088461602875
-0.03352745351126815
-0.010240444921649047
0.07732516776919283
-0.5063508296752798
-0.19052788858575015
-0.030607779721713625
-0.003458322054654344
-0.058178092013405534
0.02443567612675722
0.02233635054390895
-0.019544409644139924
0.004021346547408403
0.19044038728063387
-0.2238373496683631
0.07747520069054427
-0.24247740858696723
0.2573923951880231
-0.21672706445098908
0.2322657484281009
-0.24190546936319615
0.11883967437556849
-0.18184059327856722
-0.11384803692900261
0.14488100825147587
-0.28548827753362793
-0.051234829587898406
0.11419067282707364
0.11914402469449958
0.03834933038807852
0.06444905240471674
-0.08443387756082515
-0.016678586336488277
0.06860207617655834
0.1260589765212304
-0.11146013566991438
0.3411339898163546
-0.04052903575824959
0.007821392828034473
-0.0509252522361908
0.02970215039502209
0.057425962468177924
-0.15491601119674395
0.027715293224140684
-0.027627864416829764
-0.1392980995505033
-0.10737471081161408
-0.049204620535129535
-0.2312741254500465
-0.08880016360095179
0.03170362602365978
-0.012567939565559289
-0.1766896585885641
0.061399252858107045
-0.0006288705804642051
-0.0760846530340313
-0.09195253697990904
-0.07096532191615439
-0.05041382010028632
-0.10532091962612809
0.005817229878770013
-0.04664198596616118
0.002269618449792191
-0.043085891173456375
-0.07836501221166312
0.04051551579126978
-0.0035320063537260275
0.2565463249104199
0.23653872936842232
0.3400021202760586
0.026897508590388045
-0.3630602455523085
0.11260545049479982
-0.08162425652898911
0.030208237954814608
0.04738859273662185
0.03825717115397956
0.0027138887354553587
0.11194610355232054
-0.0763970039216692
0.0023066507493142313
0.28113594354839944
0.16603723321475414
-0.10682892947371853
-0.02080982878251579
0.07467394560660566
-0.4630561882184678
-0.3029694764872322
-0.00933053399158212
0.16483796185214616
-0.005580595079943818
0.013028475887837312
0.09342169503994294
-0.14537087583140726
0.057371746564553475
0.004798413133409988
-0.04517104917752107
0.1062697309647174
0.2528213170208894
0.16108237273938433
0.13769706909621066
0.10894364002033274
-0.003481325450418248
-0.04357227408705952
-0.1847458976303078
0.2611589237087954
0.1172009095823575
-0.005454824827614179
0.07130622589455754
0.13801155339685514
-0.1196717358462026
-0.07578421909431114
0.08439150446697082
-0.08915575646020542
-0.08841106107562391
-0.2035490229014626
0.018471931855945825
0.10002436748792787
0.01108818969590363
-0.34734747737118654
-0.17401263149501608
0.06459083239993564
0.04949321057638877
0.09203943832911618
0.08462568965694647
0.16811593879234413
-0.2480903328511047
-0.03329694353534449
-0.01255498085188367
0.012147209669680487
0.03217146164412622
-0.046237738866992235
0.03200538359019212
-0.03782404603202219
-0.046552819189285236
0.06078092385072671
0.03328954211673502
0.05584109588773967
-0.021419137444728974
0.007763909868478795
0.016067038814517265
-0.02907794949937493
-0.09073340641002094
0.042797567277694064
-0.021073442516690178
0.19164050138349947
0.08529021494659493
-0.2613927581133881
0.0539644895172347
0.1476194696368008
-6.659909517877357e-05
0.21062637709158316
0.13146246238185869
-0.0441553145809255
-0.07950548368081295
-0.07288203949849142
-0.1186371712686448
0.06734857484063621
-0.1369198359735583
0.11062556055820227
0.11715291052195581
-7.448732360732708e-06
-0.17931632151262314
0.24741501870252508
0.29893777135045285
-0.12843777068403558
-0.03401128007763463
0.06458737935295221
-0.04938490159396992
-0.05018909754243439
0.034099936170210496
-0.03962196402978628
0.03533208108556554
0.021654268963385764
-0.04384570084487066
-0.03344766674524531
-0.16689854341863813
0.2853720248263454
0.18421257861024906
-0.19300176328438529
-0.14638372263900729
-0.30170213794651957
0.06611617783080105
0.047856223943325414
0.05621842928006114
-0.06649072788803641
-0.08488545079918548
-0.07426540636110526
-0.03817654738905745
-0.02719064087329938
-0.10729780557704174
0.26375750123901076
0.23138747613773714
-0.3174252054219577
-0.029336043667445036
-0.11453132955530121
