0.014649970132160515
-0.0025347624122264165
-0.0034826626507158914
0.014261635405406987
-0.008010777095301676
0.00018436664818107385
-0.0075683255438104766
-0.022757058272904244
0.014165090146743357
0.00221468077055409
0.007530269229635738
-0.018976123755892936
-1.7974538431318251e-06
0.023399873605714654
-0.004222028143591913
0.0031392039088072557
-0.0013442320427802263
0.0034193452515787564
-0.00047774092030229486
-0.007662935769604998
-0.0027834827228614455
-0.011979845751740846
0.00042114811506966033
0.012834942749785909
0.03346492755324186
0.016125182435137903
0.001042431110501192
0.0027773761218735545
-0.0022379898739548986
0.0028744507604105134
0.020044039768575148
0.010526665238333196
-0.00012206180263548436
0.005951733537452428
0.001023262918829262
0.0034470575044293385
-0.005837368492804136
0.0030488460258213776
0.0007833774804062206
0.001665682405596053
0.0005311592012744138
-0.013469148702180252
0.005266065499964595
-0.001962205161973584
0.006922217588728071
-0.0094056567615494
-0.01087729523818439
0.00608736155388869
-0.0009288383046290743
0.0017561934111804652
-0.0008413262764150709
0.0005942656727784618
-0.02253819687954392
0.0012646110983155073
0.006947001523713949
-0.006528182834263207
0.0015413030601523544
-0.0073532333428134354
0.00015763845988176148
0.004581285798302241
0.015012778830873664
-0.03230005711196855
-0.0028007227770005284
-0.011010304217285065
-0.0007254923432543066
-0.029928682235957915
0.001317119838803762
-0.0011420463050113325
-0.022624335594047956
-0.007416056212538521
0.008709652830767774
0.012738349765153516
0.03141174746450132
0.000648361632514885
-4.609918108181382e-05
-0.0016125941503674689
-0.025333609042605478
0.0007790116311840434
-0.007529347729210787
0.009148660252203745
-0.007316652702549004
0.0018470026524956917
0.015576864619848004
0.0057241664939088836
-0.004820745817168919
0.0006952534591191909
0.0017314960347939172
-0.0013883053377510858
-0.007904597795290255
-4.568203203320262e-05
-0.0020151581996949003
-0.0006279853544318111
0.012109489475431058
0.004245036407058663
-0.04548835475763552
-0.0009249030135944406
-0.014692597831566885
0.007453663234109762
0.012179321832472766
-0.0035453251962186557
-0.01324978448709664
0.004362348445328495
-0.00619795139599088
0.0016547573722173806
-0.005796058520305632
0.017067038401925513
0.020184261495301576
-0.010396545953221816
0.030521890373257227
-0.001360893083968366
-0.0007077996696205036
0.0007901932219015226
0.002370693926349614
0.005073744341567002
-0.049080980746038776
-0.005040297938718598
0.01603475693736366
-0.0032946980703642873
0.0009393111893136713
-0.002861673284745867
-0.003359578941651579
-0.0025993673192913967
-0.0008936706332741375
0.011126010352122373
-0.015829970611677915
0.0020697727621940714
0.0007418476291911518
-0.0017804272978969662
-0.009909961972208444
-0.004030002535491722
0.0008199994485206338
-0.008778027313230416
0.000677368875503527
-0.0016308693850479805
0.001230393693917788
-0.008688151748480559
-0.036025844300787035
0.01904101973695819
0.002629433765250371
0.005709496596743803
0.0012943267059426222
0.00022399377412631692
0.0005617500595006951
0.004428618329312677
0.0006524699714712331
0.005387017678710114
-0.005130818650665647
-0.0029873097045920506
4.780461832217529e-05
-0.0033802015561473393
-0.0016101758470660184
-0.008099770126113487
0.0002049366345280358
-0.001213083055318907
0.004459062723743675
-0.011368961635916752
0.001665131547081282
-0.0006410716000531384
-0.004134940571645137
0.0009685682547578757
-0.006068618674221301
0.006550549865673552
-0.004982888737929964
-0.023732494351898722
-0.030783698345227827
0.007808999638684772
0.001456794378773021
0.004344369918077704
-0.010986027585519042
-0.01486555369987618
0.018339843561428825
0.0044199354735488085
-0.0008378744538892352
-0.02330841267723195
0.0010521974800995414
-0.006189823915441367
0.001618891895122531
0.0030272757806424494
-0.018312546886405504
-0.008042233528894679
0.005288240010295182
0.0009082011061882936
-0.001551617366375874
-0.016496979697797187
-0.00798482875967862
-0.007797634532220166
-0.02768471756704562
-0.0006328580501454643
0.002800924293183276
-0.010340901202982526
0.015683029578133532
-0.007878016083016956
0.010411521131207127
-0.02038269636671859
-0.0004914028743661039
0.012530983770187234
0.0025231015267788634
0.011362825051964797
-0.004299015075903983
0.0036091235939387355
0.004846459258248306
-0.0038735304990176475
-1.7342761309864157e-05
0.004516628522456072
-0.002263182617418802
-0.0007504647679844322
0.007019759227230303
-0.004477863881556238
0.005861403394894098
0.00030767780955743364
-1.2689658413111587e-05
0.001320756400571928
0.008179605674133622
-0.0013011658785668297
-0.0035092481119601477
-0.002319142809911363
0.004383218125756849
0.001671079588490674
-0.0030627196364481357
-0.01552121700572892
0.012261245159039142
0.00884540615213206
0.03088137319525103
-0.004581073741116461
-0.0025359440127564956
0.0004572118456415122
-0.009667878596500217
0.014113968990850583
0.0009836895759913987
-0.0053964710282930805
-3.3098569800960396e-05
-0.003273138051364757
0.0012787423139571407
-0.007670714441999596
-0.01834851306795782
0.0032634368146920445
0.011072202380664564
0.0030595906728132496
-0.019269882732939
0.014272724504618719
-0.01864985130327731
0.0007182411636939444
-0.01825179943569325
-0.004978953980517795
-0.009825058018571751
-0.022761983236208948
0.011596879229487643
0.003388463163517082
-0.009935422310714393
-0.0012919660896590424
-0.007813160958156616
-0.004707945008980338
-0.0033576388217643025
-0.006849115033172596
0.017086642954037952
-0.012123420942813969
0.00701245232100898
-0.0015645273017212936
-0.0115346414515713
-0.019979346995289988
-0.0055855299804729005
-0.0015485206118177148
-0.002052472510871798
-0.0007689590877354066
0.005642081576318409
-0.0034270002180693997
-0.001944485774240661
0.014809124090354925
-0.00047412196605288253
0.01252374800859562
-0.0025998885776695427
0.0062474390749042
-0.0348549680559278
-0.020534460024438685
0.0016892374201198494
-0.01791939840012915
0.00017484302220148473
0.004351514346910184
-0.0011452077764900457
-0.00495348368448894
0.007979648702515107
0.0004158799236437362
-0.0015378402730409455
-0.0007215468723563501
-0.016928682973241745
-5.914128728772372e-05
0.0008047745665474428
-0.02618506054652588
-0.0020040681900504597
0.004122863320687182
-0.0013487857149669148
-0.0021465074396618523
0.013061968566266931
-0.0059118277424757395
-0.0010776545298359732
0.013566225068950652
0.0010885571569074937
-0.008586668295061155
0.04018692427515104
-0.00029186132183387756
0.00022057216869769488
0.008419209154265144
-0.0036643178840927893
-0.0054575999198235164
0.04777824256090067
-0.009251341245996093
-0.001979843994473288
0.0006560314314025435
0.004510389124299911
0.006443621652876132
-0.0009480299316482344
0.0022438927110574737
-0.003191111780202158
-0.026571302439738462
0.0009052903897528572
-0.012866422564656161
-0.007530563601106753
0.0014185639657986232
0.021325741445411685
0.0007705092392796891
0.003416814926856647
0.0005814472161080479
0.0023886571442335697
0.001092383154759242
-0.009745142260459515
0.004935482707378274
0.0008384394812717048
0.007106797136168772
-7.446162892299265e-05
0.012961536192179969
0.01811641708523887
0.0066556626505176065
0.0065425261884450026
0.0026418259465949144
0.011434888769698764
0.01254830754162137
0.004642586833277992
-0.006667866010694264
0.004395025261023879
-0.013877855536067636
0.01588703579778992
-0.009478751638326987
-0.051396474239011086
0.0016772971298248632
-0.009415978604475411
-0.021912170404052064
-0.001378819259019915
0.013128100573158568
0.002459386186980746
0.0005829477668122123
-0.0006651728484293369
-0.005387933328631771
-0.0012212853838506304
-0.019550872112630246
-0.021435354211959436
0.0006159064769546492
-0.004120416096940924
0.011983832441638278
0.007468318154687049
-0.005695702033857487
0.003838333891914143
0.0007678140682988184
0.0067751358320934695
0.005055113482619659
0.018546671684961054
5.894662525824616e-05
0.0033589932033191356
-0.0025005942299408113
0.022856785847170383
-0.0004818125718724694
-0.01780779944519485
0.0005185015470417789
-0.011541587290218707
0.008457121808016117
0.015692460265006574
-0.0018366158080127832
0.005407715304111147
0.019834118095429433
-0.005271055865909482
-0.01945412766708619
-0.0022244344775827762
0.0015201353754336897
0.0012117870848945603
0.0033642438843174342
0.025786153690763265
-0.026204137398310397
-0.003823178368801564
0.00023053796617496456
-0.001954695821706397
-0.012226232272977698
-0.0016792063401923855
-0.001245792649166031
-0.0052268696219504
-0.00041898629543665576
-0.007279446779321681
0.008552532496490548
0.011939253914885642
0.0007463416646115859
0.002319750257358451
-0.008367062196319868
0.0010541436958386911
0.0008785049825033717
-1.4485660886248961e-05
0.009453750759623649
-0.0007108324986924151
0.003201223431836666
0.0008733533090439751
0.003028362595629447
0.004940389607540022
0.0013373758310660211
5.202508482084892e-05
0.018690247155969182
-0.023363607041177507
-0.01625804137296012
-0.007230869490788298
0.004913772597605682
-0.0045797450433030665
-0.0005659120898801046
-0.0049436251362923395
0.005846418605983972
0.0007329811239824643
0.007040209991031144
-0.014659082232580334
-0.015575334243252338
-0.011633853109666446
-0.004817896100716576
0.026612960481328243
-0.00021703528887106888
-0.03308856919690803
0.004266906649483168
-0.002610913775959601
0.0055336649951548
0.004138741391007748
-0.0014291039911746661
0.0071404965272355
0.000404104289320996
-0.0022664349111695017
-0.024768359792920268
-0.006920673817521183
-0.024299378028363718
-0.004301035873068334
0.0036830164477650866
-0.011851246766002176
0.03436814716128897
0.0018214568608670588
0.022059079102834035
-0.02191251156434833
8.878422158445893e-05
-0.002233958631285437
-0.03320336108899496
0.007682316541580574
-0.00729261427884953
-0.02112133817615905
-0.005024191799861592
-0.001190000137477036
0.0038225697453777674
-0.010580155364290989
0.004429170045065747
0.021409896754188393
0.00017987081511315796
0.0015191133530131006
-0.008654089119652139
-0.003519175145105149
0.00336353004810413
0.0165589444440063
0.003052776404168348
-0.004253964975336207
-0.001096652040159614
0.011314531825073873
-0.0028921625513534045
0.008420967499513186
0.020875427982133595
-0.0034265117985878566
0.0023953186553324333
-0.0358172852347491
-0.001786777709045429
-0.014935696188507586
0.002270693335406656
0.004246672353179683
0.013367786390011007
-0.001120374504159633
-0.005261584496061618
-0.0009804625698346088
0.019780994519917112
-0.004237809566860949
3.107993422230279e-05
-0.030503755943932856
-0.00971493083130325
0.0025162431136533966
-0.00847734176392748
-0.027809943715516424
0.006878806238695042
0.051601937487728955
0.0007459830072693252
0.02739496302473813
-0.0010570813186870473
-0.02440088578682897
-0.0017903934033225552
0.03910521050326814
-0.005452246547454313
0.0069494315571484565
0.01814108519895432
-0.0037577850510193502
0.005821256662837919
0.001599186602660987
0.010464347065773403
-0.002042829053230414
-0.0002972275105674232
0.00040709963024120857
-0.0353545310699015
0.019214204947549367
0.008989174632697458
-0.015681772751455752
-0.007625504970064466
-0.0011999210802485186
0.014537896149750684
-0.0010910066642288827
0.0057059215221887775
-0.0031917262956327637
0.01944092638881123
-6.234502700083557e-05
0.0023771583108818254
-0.011851846778035855
-0.016518290154550603
-0.017009800801193985
-0.009338889511212293
0.003755211754323552
-0.011224829552533585
0.015325925458908207
-0.004807299805844405
0.0020143727056759365
0.0008585320371598136
-0.0015568157086307394
-0.0030192600092915135
-0.003672967310670614
-0.015247684494483757
-0.0015383994367913715
0.003567591775062798
0.0008614876155602806
0.006517036271041973
-0.011471282179446624
-0.008795050360455336
-0.006920198229172396
0.004552040330335103
-0.000497919542535003
-0.008386461984938334
-0.007416921952324508
0.003390209799902064
0.007932924181437234
-0.006545884433787137
-0.0339589733338654
-0.006479958756630885
-0.0030555281530360292
-0.002815183351599395
-0.001414517672174201
0.000589489055858325
-0.005792368235142773
6.739623694018267e-05
0.003220516736979144
0.003592846902621402
0.0031587460997388674
-0.00043812391761401684
-0.0016465254990135792
-0.003078513365837452
-0.009616461211295073
-0.0017528665118201367
0.008338981580811105
-0.0033920717254874843
0.0061182737842619605
0.015096743657883103
0.015649296670855385
-0.0009085158131001551
0.008815179344887934
0.0024282567673115213
0.013018593463111997
0.012395755629829383
-0.017915092298883037
0.002200427837394046
-0.003975304062864589
0.02525262945291553
0.003098112585688482
0.0014323303197777745
0.002992348792067664
0.00959553952928097
0.018362373195461683
2.9080678256824842e-05
0.015526182274866499
-0.004021292994628937
0.0018991655195555316
0.0010158956244470559
0.00023306955908667794
0.01755359163721503
0.001382524143995309
-0.006483694910864512
0.003307615152103331
0.005257695217641274
-0.01203041786767192
-0.003023853598154483
-0.021777633070203122
-0.002557394594524802
0.005529876166026956
0.03380088914498233
0.009295073057254398
-0.00039272199251459407
-0.01392974244377039
0.009047244523935478
0.005838348573377852
0.023212858007319096
6.206289997832207e-05
0.0031478989357269895
0.007902725801314302
-0.0009988507881337442
0.0008956122506694677
0.0027830334897830326
-0.0012693336044365552
0.0005085679412328055
0.0020937738315843397
0.006364669384437885
0.0008519405045413519
-0.010407226263289566
-0.0008916812323243084
0.011883925510935043
-0.00016642756128724007
-0.0005565254716558759
0.0073246160267841694
-0.00029458304123993763
0.0076766047450125535
-0.005294934251522983
-0.005399292823423958
-0.0078015363511689095
0.003952545479247599
0.008137688103320124
0.02906670896060141
0.013264266076265963
0.002770073874397974
-0.0008877399202623225
-0.002245719050567937
0.0002090720419514045
0.003970412519333385
0.007436130580056172
-0.0004278980217530685
0.004401491067828577
0.0006300313646297808
-0.013013212149457106
-0.002088017587591706
0.0024066212912603724
-0.0009941346119082058
0.0008406705279986143
-0.017060492087352233
0.016526030898059683
-0.00098322593849913
-0.0009879244661731605
-0.0006403118589135734
-0.012089944051207417
0.0007929508258951825
0.006327906705192796
0.01066671363114302
-0.04887670007136133
-0.0123955997517674
0.00408455976005361
0.009050986838342209
-0.006851674793324707
-0.016763906041346668
0.0004937005034524887
-0.010951489472639348
-0.005696224698005658
0.0016943152873961302
0.00214553348480115
0.0059296370276989575
-0.0316295654416846
0.009362679728836129
-0.0009108293153663293
0.003281968903923074
0.01818411740538671
-1.0914268326269712e-06
-0.007239364947087611
0.006877773080430389
-0.013363614936543948
0.0004997207556089639
-0.023671578192377456
0.007587117711521664
-0.003193444599655642
-0.006873884808425713
0.0020795635110316974
0.0029855783052527194
-0.021139836938643755
0.0005944581328606449
-0.0016956447090802134
0.002714141617353531
-0.0016943492808429812
-0.015097434182510751
0.00013636706859719303
-0.020803539216980083
-0.010185960410620538
0.0013678862447572453
1.5137840571046649e-05
-0.01560108705455589
-0.006999987489684005
-0.005756685731404079
-0.018179070942675374
-0.036748069814227596
-0.0027453686405978033
-0.015829995864150178
-0.003186644339928106
0.0016270204193363188
0.00295439692476135
0.009593097832767142
-0.01804585886909762
-0.004400125995772372
-7.25506011238003e-05
0.008464206164032708
0.0023951144986713423
-0.025267098297442298
0.0031147901919051017
0.003321777091565863
-0.0027284242187987535
0.004078497311682514
0.0037390733503532745
-0.0019298958754365863
-0.013375295356930616
-0.012424796950986805
0.012617128222684503
-0.0005321774507087728
0.0002476541551410244
-0.009411400595300719
-0.0039285530169369
-2.6763572131123664e-05
-0.007583995873636895
0.021818706901545807
-0.0007525237420844914
0.0027191841516320822
-0.0003427394009779244
0.025958637776606584
0.010904898255810258
0.004124473353968319
-0.010937856428373693
-0.0038198920471951355
0.0164327876087877
-0.0025329854554378716
0.013203085909232887
-0.011883279617116299
-0.000772231203410007
-0.004478234753837943
0.005418352976521682
0.009638409777195517
0.0006549245332459726
-0.0031019894424405494
-0.007933692491071093
-0.00642178254179681
0.020312814168774094
0.021012515719668022
0.002041256740451897
-0.0029368092791156966
0.019117001580380443
-0.00036022347822240553
0.0003646906293089184
0.002403501007854862
0.0061126007401493465
0.008111067054826882
0.0022086363652830485
0.030541241585389522
0.008607118737648684
0.005459547718094885
-0.0018866988613561563
0.0012067678535878413
-0.009401468412148799
0.0008591312937646331
-0.006289038602374573
-0.028046618971189145
-0.0020691784850013187
0.00764197527991294
0.020231237637110426
-0.004230111198981818
0.011444711110947766
0.0038564135990565695
-0.000990002113639991
-0.012518038836247447
0.0001450461049438495
0.041803621834222746
-0.020732710102609766
0.0012709405860129926
0.0006124106056424774
0.00019939766202149709
0.007596768662852705
-0.017541941194365338
0.0024631694923875408
0.013375893981485296
-0.00226143109765785
-0.0003228507302906447
0.008436523591867279
-0.0038904698611056986
-0.034535569762853095
-0.000594676619207535
-0.0030925398649767105
0.01668816052856062
-0.004116907123128621
-0.009280102203539406
-0.0033501082968529767
0.0009260390501082581
-0.007022601840271277
0.003251649462867061
0.007484042373549677
-0.007967692225503394
0.004633419050677466
-0.01451295976935964
-0.004773799948008954
0.01590886746847848
0.005450796567312175
-0.056201837310103656
0.005055626537848951
-0.029428424508166132
-0.0010143682942634529
0.010559027269992452
0.0019277787558590147
0.010584152283145444
-0.009226660392762926
0.004018914080167577
-0.003301347585160422
-0.01874600087290256
