0.012815725299819882
-0.0038926221789465417
-0.006318450759574271
0.00569624803026165
-0.0057706431164306704
0.0011209892014919318
-6.541464427210796e-05
0.0021716859008030693
-0.015583967413712001
0.0027273578087230383
0.0003977006570023394
0.005798807934072337
-0.00546096175501906
-0.031542677345260665
-0.0035875932884479127
0.002531978830935055
0.002446186633207603
-0.012160898394595734
-0.005077855606049689
0.0461063623877375
-0.002332435563147494
-0.0119797640760403
0.005301555090820579
-0.003465662754033832
0.00010868289753635385
-0.0035724468818577027
0.004495883342047896
0.0024233969010599935
0.0036661900572442707
-0.016492213936351495
0.008074272962255009
-0.006759165534123828
-0.02755217238370769
0.004557146319258179
0.00038446724491911016
-0.0061979403475898
-0.003095715418755934
-0.001998821327900848
-0.0039969697641658725
0.0007002342872955787
0.007761061048210142
-0.008593845636924892
0.001521584942236675
0.007238726849185244
-0.003370318432204388
-0.0027554849528202735
0.0147734446621952
0.003656600714100098
0.0005377888327466259
-0.0090498072318851
0.010814384134187144
0.008141699322518773
-0.044008604587076
-0.0048661425086804514
-0.0034279381232503094
-0.028180243509680628
0.0023712323985541884
0.000971355504484739
-0.0028329051984608204
-0.006037173951993753
0.00284791069601545
0.002774160124058786
0.0006367224728935191
0.0004679912419812986
0.0013999719216895355
0.00678432370313211
0.001750184776957684
-0.003178638172188218
0.0036398207865081292
0.00014885617828932867
-0.04305984599731948
0.014627701160155066
-0.0140667589683915
-0.01176445460330151
0.0039050505895949655
0.029859556733003875
0.005759709717621475
0.017008430513101983
-0.0026587344192272183
-0.017069477627392377
0.0016685309430485734
-0.0008910473072834354
0.011331227607355972
-0.0005585312852918978
0.007396379215111926
-0.0003180549919340401
-0.032011172966943786
-0.002905320448942639
0.02379169854792969
-0.0025230565017225516
-0.000823977803989841
-0.013973624048839006
0.0011144421447133286
0.0016529621195667604
0.0019031515001371342
-0.009682687414336909
0.0042182071533005275
0.010978115662064416
0.015870627861004807
0.0009536322802355617
-1.1160370078794624e-05
0.000450296819204677
0.011006094494294722
0.0022363202615917465
-0.032609528695338855
-0.002402833596926343
-0.00029706882280524337
-0.02062256041510995
0.00404265481795417
-0.0021302751013642417
0.005302651748975466
0.0006654679226138175
-0.00031573903587022416
-0.0009019726653131812
-0.0018726525616614789
0.016776372848156265
0.004047410062202083
0.0029491352697035875
0.0022037942681102595
-0.0013581601865223936
-0.0010660990547383456
0.006028739314576462
-0.004804734537521822
0.009795950638899681
-0.008941297830414297
-0.012376851916106197
-0.001496563096697397
0.01172800311725698
0.0009249874744034659
-0.00044219639761989654
0.015592940501279118
-0.0030002332985673793
0.0008596165857253648
-0.004614231656143583
-0.005877202177764819
-0.0006254321219834934
0.0050036175211509906
-0.008346326373170263
-0.010773420021400654
0.017178096916127865
-0.002301820298570059
0.004133284403457265
-0.00290428744910264
-0.0070528783812535255
0.0019556142593185376
-0.008863397606785315
-0.004758301320351715
0.021173834268990156
0.0011745172766717813
0.0046938657968370705
0.002232676342270584
0.04386598134317371
0.008403201754446313
0.018030928853198732
-0.03858755770142194
0.02276059232889628
0.0030087629730343323
-0.004478249284879263
-0.024737532003526026
-0.001763724338674132
0.00885117809171796
-0.024286977803151023
0.003531497987257337
0.02901834404784423
-0.00044926534967352187
0.005945362022902118
-0.012265015534172016
-0.015509301864582315
0.006398317486679782
0.008058586678411911
0.01638163215414163
0.0031244775583838535
-0.0021585180125315573
-0.021207309130959345
2.953953374703168e-05
-0.0022316937571484514
0.003869226300657688
-0.0035926451108670336
0.001735459336436464
-0.015132023837358968
-0.011935880183241005
0.006034047573873573
-0.0026522401380644845
-0.018363591796678402
-0.001646870453676836
-0.006232051041354621
0.0453687110487164
0.00552557802842404
-0.010314592049949943
-0.006486405764590691
-0.0026811147976834216
0.013400262195956478
0.01080613751556071
0.00714245699257514
-0.0008853488692770431
0.011219874467977193
-0.0054835114454807295
0.002074599118378074
-0.0015748147830115225
-0.002245567927745208
0.014437610875127368
-0.005265360584864234
-0.005960715274130564
0.0009968933457564998
-0.001812261083787803
0.005025282239893858
0.0025498531131541895
-0.01321480625377493
0.00236573627328176
-0.004636287356064562
-0.001152478833450138
0.030624633321849636
0.004506366438553244
-0.0048646700438077705
0.003031605134112903
-0.013766482986688899
0.024634634499733753
-0.011243456174046877
-0.002682470325694905
-0.0018181180566269322
-0.008901543136611694
0.046645107653111174
0.0027944301423331614
-0.0014345636326522839
-0.02798776574974812
-0.013253601421907662
-0.0029010989686926586
-0.024010027340967997
0.011630324357219174
0.01278850809659075
-0.00044701110012205077
-0.00954607176296356
0.0020545420994648594
-0.0004632523413354703
-0.007924420153899596
-0.0032320310750421077
0.019514359972307195
0.002694590275041649
0.028796490025372583
-0.0006519771871917299
-0.017367287525459168
-0.0012397790046068731
-0.010381058341335824
0.0027460821320499595
0.0009694134261558579
-0.002267220386689842
0.01642332826662868
0.0025138317717301253
-0.0012314867157095974
-0.02200161493724605
-0.008451597691442748
0.004685166045694628
-0.0025278375359927127
0.007991362648980415
0.004050094997467044
-0.0016955275021010808
-0.001502217225739563
0.009544176533600329
-0.00040809887198555475
-0.0003765093438442298
-0.00048132825221894435
0.0019117622993422183
0.016313687111233474
-0.005005224612633308
-0.019342151977553675
0.006983165062412224
0.010786791723104878
-0.01310121634249244
0.03397580422281874
-0.0013641424215250133
-0.06786595723360922
0.015561339080820637
0.027564717780891708
-0.0023614305838608844
0.0016067151061940116
-0.032605073537216755
-0.013360276665810541
-0.0024249237282069776
0.002643376775546929
0.0024889842717870777
-0.0030860383555958793
-0.0007295190009613344
0.00944883361046212
-0.006539976717491686
0.014567693132749731
-0.020330060144523706
-1.783889248537583e-07
0.02314626953152224
0.027561472635787114
0.0021672805266204796
0.02933967407812139
0.01579142751730148
-0.017239888005939907
0.026396771650362423
0.0003987663912517573
0.00801161934167888
-0.004440738635820367
-0.0027733082787881618
0.01118692088270005
0.006160111235962263
0.006186878714504498
-0.0050513574725198325
-0.0021137179853880322
-0.0021130313377766
-0.0038657080745827634
-0.0016399308560328565
0.015492910245620085
0.010379707352091266
0.0047914105430404835
-0.001428352047767254
0.0068712127313799685
0.001587426287376639
-0.0050867438283341915
0.0005571109510489029
0.0012075181779475166
0.0020868290911469473
-0.00599058894073294
0.0031553297747660743
0.0032086783407477355
0.010080732892862331
-0.003492913129946188
0.0034784329496071816
0.007478856358182809
-0.012915572085652402
0.003383176206247096
-0.01716210375966567
-0.011244273949430787
-0.001329057201551826
0.005504244696047715
0.0015810529603558783
-0.012553822208089658
0.025120975628637278
-0.02810028690017825
-0.007331697175227636
0.0035094629104933436
-0.023001792661116405
-0.03683306729468528
0.006746857691560777
0.003572910510435753
0.007249674640287235
-0.003503392558549443
-0.013376705759642133
-0.007753244263681293
-0.004716875932756668
-0.02258331850151708
-0.02222977363826802
0.0026695352930198608
0.027130089656139486
0.009735853389567244
0.002639389011797549
-0.021297485350540508
-0.003919694702614079
-0.01740064468832924
-0.0027554287030904156
0.009900145257399257
-0.0025641105173545317
-0.0004530568753005991
-0.0024331518854249445
-0.0021341803815224498
-0.004375229172477292
0.003257741715574647
-0.005995124771600557
-0.00275981301450782
-0.0059849558100349845
0.0014159108565792858
-0.008613763287847662
-0.00045615049187943915
-0.002197073939264418
-0.003316365943976601
-0.0027228389582934333
0.0007245616224700046
0.00043482530134811255
0.0011936330439803982
-0.009840885290151185
0.013357369600027192
0.009576471046256457
0.021304636930812797
0.025090585361263514
-0.00011979932900234338
0.005940279279880018
0.003184446398229567
-0.000967604646704315
0.029446595336200015
-0.0015011693937144236
-0.013745555390904475
0.005513894749527922
-0.005876781528180237
-0.0373244605170934
-0.003828377605511186
-0.005849580689695699
0.003030301819369503
-0.0028672359255744488
-0.001650463484060589
0.002445050028854081
-0.010170606796987605
0.01751194360882446
-0.06626703688665808
0.002083090033885654
0.00033930732045096075
0.004703505041773537
-0.01232870151874752
0.0007525957919741998
0.01016425730766745
5.619585007793266e-05
0.020311159338364835
0.006385548999437863
-0.0038810553071800973
0.0028603987751866272
0.0035048282286216904
-0.029211917343756413
0.0020211884073674173
-0.0034088185063697344
0.0030950649113090697
0.019375233643368465
-0.0001278124660314184
0.0013094424460432387
0.00023963404283085924
0.01586015291501281
0.004631636177077269
0.010479656826333953
-0.01011638250539187
-0.0010834230589808352
0.0016273515022244794
-0.0016279327652487315
0.0027646934384160074
0.006815332465057152
-0.005992971922464408
0.0029627772982434267
0.003756076383757536
-0.009495628257698995
-0.004022220258440055
0.0021645257218892537
-0.04945573626386669
0.006333361770598518
-0.0035606448353601304
-0.006035788641844754
0.012829728425657539
-0.007652179159640272
0.004300069179017671
-0.0009027875501390843
-0.00047410389574342
0.0005965175624170417
-0.01181044927685902
0.0005250019431759884
0.004449190700995415
-0.004184018225460276
9.11300074002066e-05
-0.002861117072124967
-0.004219348852498681
-0.006487844048512026
-0.010125456068667372
0.01658931208766016
-0.004223540670346102
0.024917613889697567
-0.0014638875817981022
-0.0012237085090787637
0.01047175118721611
0.0026684896608222407
-0.001538547144560392
-0.002872612685225242
0.014974672213689918
0.03921118106612883
0.022716617192591826
-0.007573135470629943
-0.0015893081441541851
-0.005304414188281088
0.002308972641274686
-0.02364719294484299
-0.0157119058046185
-0.0024210234753578885
-0.005192283844310621
0.005289042242946354
-4.95158488066539e-06
-0.0015132460545229196
0.005624424325669606
-0.0038769444335810203
0.0015233145080057189
-0.010679332980692334
-0.0030201023275000646
-0.0046857849850539665
-0.0013276412347434212
0.003603495046832732
0.0008440113708622773
-0.009543087261316389
-0.009008566672090405
0.0012600854560600883
0.0215351416037529
0.005576202003875209
0.006801960639226873
-0.006139538909875017
-0.0001274415983630099
0.0006431476309464269
-0.006557640898826426
0.0032431864082419796
-0.0011656057250730466
0.028726510913281066
-0.006395032130698792
-0.0003325300660558971
-0.0041323727208984595
-0.02409655165289486
0.004459950481299952
-0.004833979804879108
-0.008766513303866031
-0.0009237267689302997
-0.0002613144216166727
-0.027473115207968978
-0.0019104580144474288
-0.0037366162347574725
0.0013402580232999917
0.0019171849837303161
6.487444209661733e-05
0.0013673845462308372
-0.0016213763701520493
-0.007911359800776148
0.008019415442866886
9.84714046583219e-05
0.00480839960054434
0.008978655150074786
0.029951978323177843
-0.026116965504714464
-0.0032422927837321204
-0.00866914145854838
0.0086266800631419
-0.0108477092663342
0.013180785468523982
0.004513315987428201
-0.0018447211959879768
0.01456282314193114
0.01508142660964529
0.0013065024649674996
0.004653545899708549
-0.003793928840917089
-0.010658866807980455
0.015018332896280188
0.010136630483402022
0.01569526512260772
-0.014518631729595478
0.008030055461019706
0.010000376115418366
-0.0004955034332781795
-0.0015719122879011083
-0.005583896449500827
0.01697216431000933
0.01729855336998151
0.0040914697736497
0.0036922623370176577
0.007730019774882532
0.0017884333860206532
-0.013489472102721719
0.016959130822371184
0.02044049960857399
0.015515671803809833
0.01722227910848532
-0.012396411207920016
0.0010021847032771185
0.0014061964296526906
-0.00485146160110718
0.003137879224945507
0.0030460472363614084
-0.035057817764372
0.0036358993374688707
0.03209001973319055
0.004898523385124964
-0.0329691277381408
-0.0055755597113753405
0.025848267755127732
0.013280931549269438
-0.001489200914057242
0.0014416622588756835
0.009155184244409779
-0.009875372245015487
-0.001104031721196749
0.006837968868143727
-0.00329280249732035
-0.0021613892093423
0.0018307703840893769
0.016743053695481035
0.006442770738306886
-0.04181099307148529
0.0021655290084178942
-0.008074107010937108
-0.0008415627517295558
-0.04505306239914611
0.014046345509990186
-0.0065535952830887995
-0.004768827793914412
0.0017888627371220353
-0.0030719609986395472
0.0043846124795654945
0.001637058512284019
0.0009163860400610632
0.000502355854546438
-7.140032776700694e-05
-0.006306176869547117
-0.003100903772452122
0.000837834872876363
-0.005956275762727034
-0.0035874820224394447
-0.0061981090939683845
0.0053688735501334775
-0.00019173099090568285
-0.007255432295520786
0.014741117868419258
0.02022390510176194
-0.0019623498650317853
-0.00021067458503844626
0.00048577307538933724
0.010769079108172704
-0.0008143726630841974
0.044569665105780525
-0.0012674913712929412
0.018848480337206177
0.0005508013042722307
0.0005840802011222693
-0.0018324933426258317
-0.0015389684309420246
-0.002652260427339219
0.010835294471220122
0.0035283077623122624
-0.018893040856276737
-0.011548832445432883
-4.043269286844064e-05
-0.005000739223879
-0.0017222192257902414
-0.019994254457429004
0.007199266734680242
0.0025634624652463188
0.009729456318666412
-0.0032016506111104247
-0.017916748195679653
0.009873796575944291
-0.008859530412685505
-0.0073774913531325466
0.01026120934745472
0.0035211308164119124
-0.0039530014972724474
-7.52760355702195e-05
-0.02113865568000981
0.0018413815036530735
-0.0005626153372338642
-0.01438007638195237
-0.010843991368808887
-0.0014772599901310033
0.021650938232373886
0.005502646300491368
-0.0010658560488761401
-0.004308789911851265
-0.01824395117840063
0.0004075873548921839
0.0027946811745219904
0.011448976585236347
-0.0054623497891989675
0.0009868307169331146
0.000538543192229666
-0.010744261627923059
0.026409533891329048
0.0010068090058677256
0.025662606199661896
-0.0037203695060940784
0.025015281354175002
-0.0020441707829636116
-0.00019665109306775592
0.0016628943692707054
-1.722909009780491e-05
0.002141638514675257
-0.00025543437914429736
-0.00039170962582569293
-0.002536645874443209
0.020422776564214526
0.002418432308550535
-0.015071680455728091
0.0015644616509427984
-0.005269882756938837
-0.019393530389874576
0.01081455308740034
-0.007203084663290531
-0.00031635366832632485
-0.004341928357221779
0.0009057805246788147
-0.0042536148900094335
0.001245792594837944
-0.005087218623270638
0.005804320888418361
0.007156452452193573
-0.012150279266277927
0.023215444494040983
-0.005773749178734049
0.0002844134043743955
-0.021823963363630676
0.001122556414206845
-0.012700192139990534
-2.3841527477468003e-05
0.051862812198968426
0.0038471271725012647
0.002126245906819416
0.000506856067009399
-0.0009230098311277378
-0.005931054836914692
-0.02325902424731773
0.014799148756831696
0.008527540982736889
-0.0011786767425797915
0.00534136583818802
0.0005706904242423689
-0.0003698814501370704
-0.004323255933606918
-0.016098786453023723
-0.03044574092082452
0.004423416728383804
0.002165673452016797
-0.0035994777371126355
-0.0028426202283110477
-0.0019579528225508354
0.009126432278802301
-0.013603270284894636
-0.006111997180792635
0.0037026416825007985
0.00350240624492142
-0.003879730663147798
0.026846656882500097
0.006918679371309987
0.0017847382442934716
-0.016744880957751784
-0.003287821104967718
0.00681783340140997
-0.0016126939834098554
0.004430801980201945
-0.0020554337234477663
-0.0009695488940183623
0.009027280881867624
0.009382566161684192
0.017761063430848614
0.0043096794617396095
-0.006750329632497511
-0.019935977650147124
0.011198119870285628
0.015943364658322686
-0.0030965696178056976
0.004981126992087749
0.005433700616461903
0.00022267146372046
0.004693128621154044
0.010618922049790093
-0.002762266533028496
-0.0002086775727183062
0.036830936852136044
-0.002646806363033739
0.002527511706976409
-0.0003233735820628362
0.03116419964957336
-0.01075082204695726
0.0005728323480976824
0.0039268591691167505
-0.009343235242984202
0.0059010532039742115
0.007914266302997994
-0.0003739591314315936
0.0013532231722415066
-0.0017496829682360493
0.0012705433274946179
0.015833466117672012
0.0037128128037897247
0.004169460224557337
0.010879198907182516
0.009864375833885186
-0.0033714314971574825
-0.017464162482548964
-0.0016712694273911717
-0.00606556433969994
-0.012009877461980173
0.028611278498640206
-0.00047271500604661293
-0.0004149613257975995
-0.010395824048208298
-0.00011528001977051962
-0.005825836870452162
-0.00013709173394560714
-0.009215541412822228
-0.0020914001595467814
-0.008812524068571912
-0.001771075851441369
0.030591917528316217
-0.008992351283994489
0.0017229368435685796
0.00020720878175132387
-0.006220010869879812
0.001981270764902292
-0.0018998280239641593
0.013916747295244213
-0.016515890985155053
0.0148729825361705
-0.0009296523872768279
-0.007838570150339723
-0.001629254230663052
0.0028473450419891745
-0.01305565756443147
0.003496705396675094
-0.005696596510245196
0.0006908131095781679
0.006955478132069823
0.007167484753623599
0.000874605301359296
-0.004221329813250324
0.005085765438367078
-0.0012585339954984862
-0.0003111966332979043
-0.022169506082696935
0.00647825348451398
-8.943812952057675e-05
0.017012596244327275
-0.006215865296662974
0.007464079507098206
0.004066428959837241
0.0018068022366103497
-0.013734289510728987
0.018450995084979695
-0.0006612283547657803
0.018775489823259314
0.014207750671987823
0.008684019574837559
-0.002749146731010901
0.018781490290006923
0.03507777127020246
-0.009979315637482515
-0.014056682006749246
0.013302150980625508
0.002118902435756386
-0.004426829294022478
0.003003380988309021
0.0022864364435872383
0.003103488145144172
-0.004291511200901616
0.01627962526829311
-0.0004557934625443777
-0.0019469597537717358
0.002241812053955368
-0.0005118222389983512
-0.00495468352592737
-0.005366389459756521
-0.018956939562855817
0.0007145940424525898
-0.002094963687290902
0.0070851201140603726
0.017076003148605412
-0.004176620007592692
0.004003342067965864
0.004840601155415504
-0.03234822262540341
-0.00034965788497278864
-0.00794413059027643
-0.00034950867256096835
0.0049383523147650535
-0.0015480291004022367
-0.0014792891372585838
0.01235624524408198
-0.008260539747786622
-0.004384931613068587
-0.0035559839569091903
0.012377065922884518
0.02077991836706362
0.025651674347135115
0.028204537195733816
0.0014684914103368699
-0.02096883058814666
-0.013286018246804282
-0.006898285235428021
-0.01001763099025483
0.0011994151017041682
0.014065673301403375
0.0033568700894029734
0.005277637045521767
-0.005788711370452265
-0.002790532827416542
0.003146659727916021
0.016795461296199837
0.004793617590972984
0.0014806014246125986
0.0065249300866973906
0.0127077781675038
-0.003710109210672545
0.010973802641811846
0.021554394897760048
0.010221784903953124
-0.009916857438332104
-0.009222826627531747
0.007230761414151425
-0.00011898362278507284
-0.004378115993198888
0.008637324675699722
-0.004519762194135091
0.02431351895463614
-0.005379839414055106
-0.02091608773169129
-0.005220686384888355
-0.001389798832640845
-0.001924062125519558
-0.003801279250722928
-0.010199210496882756
0.002382948593496018
0.014792139738711659
-0.007692972394777294
-0.0010822037248880245
-0.00109160983204235
0.0034841275930041875
0.0012148103433149958
0.013950011804374078
-0.0004878455316680233
0.0075822738049994695
-0.0009950393373929314
-0.0007582093286160037
0.005823395169164905
0.015251564585419066
0.00743552669525808
0.002442155256944725
0.02392464070478238
-0.0047728805786583966
0.010034605156769407
-0.002258696794669639
-0.008940613220848095
-0.011035214786760448
-0.03258201654967676
-0.01539525983444808
-0.0005566874779481209
0.0015646035302620523
-0.0008042600379877708
-0.0020491434647849816
-0.00015646524463124175
-0.013386404314429652
0.005085843330901781
0.011807029542595793
-0.02033841888748949
0.004351926461875606
0.0040428565968139
-0.0056672480154934405
-0.006056782694250382
-0.006735527622763199
0.019914334149267455
-0.007845508020722218
-0.003085517241281116
0.0029480527102538584
0.004967766320393292
0.006905008466577781
0.00618769794791204
0.00584966460717959
-0.006524061481557251
-0.001207993680516101
-0.00240703390763739
0.0016856983811256389
-0.0005095123855304606
-0.008775780793815335
-0.017700597097840984
0.007202889260715082
-2.646305622191603e-05
-0.005846882558063689
0.0029688545862942214
-0.020226565645233344
0.00788925910343821
0.003439342233738707
0.013456056553989282
0.0015555244768018603
0.01685739610246248
-0.0006770920152416228
0.02175389675312169
0.006690998939606699
0.010695342862063415
0.002920912084040399
-0.0019231519418258767
0.0005926031708306099
-0.01785364937232523
0.0015592382472369366
-0.0035042073053504416
1.8605534243015148e-05
-0.0009997574980752817
0.001829860174900135
0.00032655609084771323
0.0034550552926523505
-0.00014229864527497382
0.00811579156661333
0.006962502686876061
0.017713493421555586
0.00909096551402588
-0.022404848047372913
-0.002184998683625326
0.005720062451023864
-0.005709062880995424
0.003241447966095365
-0.0005026264348124279
-0.006706974512768425
-0.0096872626341013
0.011973439669462113
0.024235508048786245
0.009027930714938794
0.0035862696816074072
0.00027025436201552313
0.01276945497512244
-0.001955531033857204
-0.016045188940672882
-0.002860368981901461
-0.006664160345916469
0.00023284702844713725
-0.0002513533001450331
-0.015196887070868819
-0.005328240624528239
-0.0017465930489279724
-0.0009640166555291555
0.001621295779029807
-0.009897033715588349
-0.008642494920330396
0.007428001159929798
0.00025287262222705695
0.013805937851771824
-0.0009137225422076007
0.003913300947864432
-0.005269481445982502
-0.03402997376102083
-0.007487109276269298
-0.022805621488002144
0.01408822442378358
0.021137240627770646
0.004602208581523351
-0.0047966939033594795
-0.00032365811699474413
0.009897206911489445
-0.0093293255529189
-0.014015218841948517
0.00019009181255585258
0.011488679170794864
-0.002397900942926648
-0.006245815958561492
-0.01686624628639682
0.0029343397254892913
0.014518308411772854
0.0009176240812326081
0.0037533271870927535
0.002256189368157311
-0.005068029626090006
0.002592611643430249
0.0013872791800188502
-0.001964538026722864
0.0020502144587902353
0.0045961984896621295
-0.010128071766550254
0.003148574337584547
0.009090161793516509
0.017299348853123005
0.009314750915503283
-0.00934898225797306
0.01761201511347953
-0.0015050836242111207
-0.0027787560387237966
-0.014049781407619444
0.0005414006921774625
0.04137660345907154
-0.03034343060657302
-0.0025461484507333315
0.0018278316562537712
0.0003664794361953939
-0.001376651594560294
-0.008151604718988903
-0.0004953695108141327
0.0019137501915707617
0.0029442856488275937
-0.016157057163293277
-0.008660950105919859
0.0035180602615760494
0.006302178885182935
0.00016789114453700054
-0.006207010748805103
-0.015561043653565712
0.0005109443634087086
-0.004163167264239607
9.493779403370962e-05
0.0014089767239503473
-0.0013844059589107078
-0.0029451554805206247
-0.011453866168636891
-0.008711536085893113
-0.001982110595063316
-0.0035137260340518603
-0.0038886113522040387
-0.004725790438657871
0.0015567540545451037
0.0023360450054410037
0.0005025326966380454
0.007461299593426298
0.0010826984408465804
0.011728046403217207
-0.013168431574318804
-0.0005263067400117895
-0.01917495559557294
0.008491430809156358
-0.0004216171895144593
0.01624334528276715
0.00445685029461102
0.005495651277826568
0.013783207399624851
0.0011451793972061912
0.014905437730643265
0.035193161882774555
-0.0005452079082265293
0.0020499410029887256
-0.0060831998869986005
-0.025514255959475457
-0.0001065681083082366
-0.0018237294532433704
-0.028963849694515525
0.0015749130137792011
0.0019415540933475782
-0.0019925493298501708
0.00038026794535363044
0.0030291038658746697
0.0025622953057809553
-0.03193311959967816
-0.007853260289240877
0.0001650791772231595
-0.015266685816428292
-0.0008180929244632891
0.011108068132644405
0.012740939843442258
0.0022409260880883403
-0.015562524504585385
-7.48372761061084e-05
0.0026947704129883007
-0.019462863338459764
0.0059594708149527205
0.011107973780751904
0.007328031913828942
0.005730750662416266
0.015355982387333619
0.0009670228001312104
