-0.0026714225397940963
0.0042367977364209455
-0.02131518294661371
0.0031757158620432315
0.002185956669420667
0.0008518827754941336
0.0007252866229235376
0.0001763326885352103
0.0011017635999236257
-0.004581873896375073
-0.008732449291365149
0.005544677600658303
-0.00480558260279645
0.007292106773609523
-0.0021553387092344777
-0.02598963754678443
0.015282188443801088
0.02289105320676246
6.575449299714133e-05
0.0002221218484844133
-0.0008153257257037176
-0.010564409579992405
0.00013388761216230223
-0.018372842356464577
0.0005002080984704848
-0.014830421383874283
0.009499235808643827
-0.009794623219420737
0.0014494260932255705
-0.01111527165019904
0.0009973302372337932
0.002025637408440379
0.0029602886401374523
0.003923510717020439
0.00016865605020453193
-0.00037290668799276383
0.005311541744814181
0.004202174773368396
-0.01194682942774692
-0.010574954332829315
-0.0012780252155885606
0.003036536559137544
-0.006994106429595628
-0.0014235109599065338
0.0020291884039768835
0.04036559688236433
0.011380172889451076
-0.009255187343476927
0.002223065931443332
0.001135476461432285
-0.003925869917012541
0.005370234018368771
0.0012411141379955895
-0.0027638894988571377
0.0018124753994115412
0.0028047438027718283
0.0253315745631588
0.00028930172980838565
-0.0010787063265000137
0.0008906509679070449
-0.004818863641405439
-0.004054592176327365
-0.004796353982693035
-0.00800401780553151
-0.0049650541264795525
-0.0005090540043176598
-0.003023864866193838
-0.01799973909930695
-0.011992270220025875
0.001804226653559328
0.006055028524758922
-0.002957564462210586
-0.0006805529541165116
0.002736692317665057
0.06786433319216871
0.0059419940121190305
-0.003169941484601691
-0.0002962600713927073
7.35016906865354e-05
-0.003025392420324315
-0.001043526856352778
0.0031921800911404135
-0.00016346518775243416
-0.0019413685363003429
0.02912204784649442
-0.004764341205497752
0.003202259131346623
0.0004380069181920727
-0.0025354259818494785
-0.008911402179520876
-0.0014541375900258488
0.004437645667015383
0.0034661046770917345
0.0053480758032444465
0.002672475194680668
-0.00201714243085341
-0.024378389622095435
0.002061733349823675
-0.0028201005774383934
0.004308771826956143
0.0020571752349681466
0.004848867861337347
0.006143934210543984
-0.008679248388957334
-0.001898577948650996
0.0017770924838279834
-0.0012252068850959847
0.003023893884942571
-0.00070602024929153
0.009706497355353567
0.01302409772944337
-0.008411717644133742
-0.0038556624883273375
-0.0005874568265450502
0.005583703903744997
0.015407533524517044
0.0014858168953289985
0.009295984352590431
-0.005362050783586243
-0.001664310919139047
0.004437898957547967
0.0025300213602822206
-0.004247821858282776
-0.018198321114811233
-0.001213899542743127
0.0067943525889099165
0.014761854067929155
0.008765512629301392
-0.007435556168268413
0.0086068874143721
0.0007616314542019491
0.008375323632510766
-0.001663292445833088
-0.003707945326001265
0.004219107685272029
-0.0010819478603104858
0.000697603246142471
-0.00260890893952158
0.00044552869023127117
0.017184746946153958
0.017719182356355806
-0.004560168074592888
0.0011867328060720121
0.004416737890023827
-0.018447634198409966
-3.813553797023787e-05
-0.0032169236944204873
0.004537995161597034
0.001888509130509657
0.0070499331084922625
-0.0035913185927097632
-0.02393472085347987
0.0012526460414375852
0.005008390378122472
-0.0030753685204324872
0.00870761994380468
-0.019283480975688234
0.002844566772844324
0.0023842380504840136
0.005965919138484462
-0.01912178725170904
0.016570683500995245
0.016398098516528938
0.003707215812862828
-0.004173923391395744
0.011005612944528445
-0.001762030702300825
-0.00519043332632242
-0.0043576159383216595
0.006655234330225275
-0.015534929295216732
-0.0011554616416604294
-0.013684058341678197
0.0007148869608751998
0.00045885193808588325
-0.03415619583852208
-0.0031858745566717096
-0.007839355971926351
-0.002628484900429078
0.01381650235130309
0.00963551477155854
2.5589070555832656e-05
0.004254014672997295
0.013628916498205183
0.0031697764409574954
0.015788983644370303
0.02624262850165706
-0.0236991068677046
0.002695319709981149
0.007974506598513086
0.001074931982703729
0.0002933453216899107
-0.02744404193119209
0.026734142311457116
0.010592577898730715
-0.0017504159129489833
0.007323004149429396
-0.0005207346768022134
0.004797545332219368
0.0188202477784184
-0.029702053811575074
-0.013786023615108904
0.009330576145201032
-0.005834929531110016
0.02951761339769936
-0.002703365871063863
-0.014343950046291222
-0.0023530454728893143
-0.0017804266039598638
-0.0009713166142155524
-0.01281778690170837
0.020205054344551016
-0.0006806490643959209
0.02187993957948452
-0.009441349506329237
4.3954643911687194e-06
-0.011080242446794508
-0.0020300886000901236
-0.006691014768294797
-0.0001036226408892872
-0.014574980099324649
0.004502401986931645
0.0067016883752340625
-0.0033219272004841155
0.024310223778381736
0.014913373538638353
-0.0038711997558135876
0.04093136848461405
-0.009392705084103547
-0.009150838549429358
0.003757583193468362
0.008022461271760421
0.002040289517386155
-0.006724709438873545
0.0027681458551451123
0.014052239172819458
-0.0021470185757168376
0.020341117435956995
0.01077900594501019
-0.00015407374329537188
0.005108425457701903
-0.0013250639453285546
-0.013924392769754932
-0.0038181983209732836
0.0010207295844722594
-0.013434670319383
-0.007982770134354066
0.0018193821890323892
-0.0033665158888320206
0.001051402115253983
-0.033063642295644735
0.003278464218122753
-0.008516595353342388
0.0036676401239730872
0.037133817350771946
0.004909006531598016
-0.009435123138022868
-0.029171617621075115
0.010682217038246995
-0.009076286356810067
-0.02589157017202972
5.515087932218251e-06
0.0069409525413022845
-0.0014299413454022724
-0.004452129880040389
-0.0014313253728360635
-0.04090273398369931
0.0017533654330556057
0.001534611076173146
0.00023710931960500197
-0.006989935258114649
0.014338098914318252
0.00033502737431776987
0.0012068722903035545
-0.002119813977767017
-0.00029181497359237317
0.00515443075164265
-0.0003455128316260638
0.022010898941014805
0.004466972974910609
0.002414794868780275
0.00014992339241912922
0.0006797240871514636
0.006900520090026304
-0.00047492494237292383
0.019259901865734917
0.0006637659849285372
-0.002708666586561488
0.015138771304326155
-0.013202383761840129
-0.009071300211036441
0.0035090467696126597
0.024795152978401673
-0.00874693513809709
-0.012587739020757062
0.0047042595979601195
0.019767429921530057
-0.018140897337816445
-0.0008930389903988822
-0.003543883500743873
0.0008090908543494822
-0.0045818742846815965
-0.008192471156782616
-0.003155334924147926
-0.007852198489869509
-0.0001111634604313945
-0.0010361781425397784
0.005378851119211414
0.01023681346448995
-0.017306819131319963
-0.0044316263662853165
0.008571738203113383
-0.00048017941500414174
-0.004070740233146386
-0.0021309382161901528
0.02505452256399639
0.004171591997297107
0.03785740960395656
-0.015649579722044123
0.0017523835620717127
-0.014649455168670968
0.00351350925228948
0.011637071527815833
0.023928859395954762
-0.002909758743034307
0.007068108199641522
0.003364484336211538
0.010864154222982878
0.018144512306018455
-0.005744187713612497
0.0006184352671441562
0.027632770295806162
0.0001119609329206568
-0.017997384275279336
-0.0011720927719533123
0.006314764946678416
-0.002423291667777129
0.009056642778831803
0.019139323656154183
-0.0029310518086903864
-0.0015236731282466161
0.001553504928352749
0.010638025328051852
-0.019005743058440126
-0.011307615390908765
0.0001808961708627729
-0.0035188106762453083
-0.009485678718115608
0.008274889848429277
0.0007872449341297303
-0.03369845621972422
0.015680076597463576
-0.0062248961087398155
-0.002564071895103998
-0.0027408147445748513
-0.0015726128735957692
-0.00306115018608199
-0.006764251417591066
0.018288455646552935
-0.009730493153993248
0.0034598862022441044
-0.0017238056618235145
0.0009498613262294826
-6.628660174562931e-05
-0.005322791981490032
-0.011164199807939458
-0.0003834976223330857
0.0037270638809772656
-0.01223712010171109
-0.00034878533796709995
-0.014851090741185916
-0.007722931808722712
6.028128471269262e-05
0.011863135049683482
-0.010549364100956277
0.002291812005766922
0.0060895663711864455
-0.0451725976685018
0.0009493978154377538
-0.0033057089110468153
-0.01830730965606719
0.007800793726666281
-0.02022679315552353
0.00070000702520971
0.005998071942274426
0.0019707342067352748
-0.011587318154936533
-0.043305504051452594
-0.022499324762925033
-0.0049273051453848655
0.03571941012750759
-0.0013967981947119025
-0.0063723958972957875
0.004268531001891737
0.0007325590901148157
-0.0275127576223986
-0.010633971639495757
-0.0021761535821342853
0.0013794765833570898
-0.000414029765224415
0.005728550285813091
0.006663886450966159
0.005542067027045721
0.017067670369407102
0.014153810581242939
0.0030039740421113044
-0.009136143827227165
0.007415851222225046
0.002589484637299857
0.00251513460164388
-0.006820880600008609
0.015484468014440912
0.02369348678495499
0.008808173139283648
0.002410234434741168
0.003762632675051225
0.002399840049803118
-0.008648064899316134
-0.01552639530438606
0.002214078670326865
-0.015946582579450534
0.0010311463821587026
0.0013136062271945997
-0.025778453331369244
0.0004468555134199956
-0.00019216955622795365
-0.003172547741500526
0.00030810687354559355
-0.024089003486517196
0.0033615362437207728
0.01536786038581225
0.0011980220815884781
0.0006213595037149423
0.011227218557107508
-0.008176692002721303
-0.0010000255689964468
-0.007993744921376195
-0.0008786027146140212
-0.013924136271208087
0.017257456652957227
-0.015147176196119235
-0.023309066882007807
-0.0026593550909888046
0.011514701965337389
-0.006136718559013276
-0.004276351087607319
0.026932335063182253
-0.009375002222665239
-0.013952912500826482
0.045998876014213486
0.0012585707320137566
0.00016838774089839855
-0.030467517736577104
-0.003749795824520591
-0.00030467712919777487
8.71568914397416e-06
0.002511685463896311
0.002573592512769332
0.0053737688724030674
-0.034622241011411044
0.007876686069010925
0.0004957256767404807
-0.0031338762123198933
0.0023160513732691794
0.023085082667022274
0.00034178206360969824
0.013112259431180122
-0.0001903645252619427
0.0010404369126683335
0.005476950991436982
0.007180042685197986
0.008703711700651769
-0.022632774109773306
0.01664353474486244
-0.0032591445871337755
0.022496980545197897
-0.005167986376601578
0.008148429573253783
-0.003123089993489946
-0.0038440450149047705
-0.00593348505070697
-0.013862811972372175
0.005131306746135682
-0.0019296864725239576
-0.011935772888415857
-0.00498486872132056
-0.0014543589001375814
-0.012305941130562163
0.005870092860725756
0.01289053865080222
-0.005520180101866708
-0.00653190969314959
0.024395717906537294
-0.01320386765764071
-0.0068101728007877015
0.0014988766117733565
-0.008187642155214964
0.004863770849745383
-0.012832505268736142
0.00943034708311185
-0.004545489691855486
0.010241455548004591
-0.0005811541215627806
0.004398541311280688
-0.006633044453523524
0.002767345828043681
0.00305800139205452
-0.0021473021099829913
-0.0023769420948358206
0.014156591168716518
-0.020733952696368328
-0.004452247613211251
0.0031198906021078004
-0.0013911561123667645
0.016431997561757748
0.010625759318357263
-0.004655122441994223
-0.014155916629845227
-0.03641668029984457
0.011891568256429112
0.01693238402282076
0.0013647574466285628
-0.006812958442884592
0.011144423565612094
-0.001954640322656559
0.013735758540141767
0.00018239535036595843
-0.007295586571138952
-0.008621160308558038
-0.001319056155967701
0.028130792728729506
0.004363817679680304
0.0020575891634935935
0.0063152444425379345
-0.008652201608233474
-0.021712722318479996
-0.029809847662604652
-0.022527739909738765
-0.006817625633225377
-0.006075592147079847
-0.0012750385527269936
-0.006368786500561967
0.0007870190143313912
0.0007521747489702092
-0.000493978241032018
0.008523448268366323
-0.0014452735208288663
-0.02592705466749381
-0.0048461421439246
-0.010881665135125946
-0.00264906091292142
0.003941726764906719
-0.00489932595368276
0.018355071731885605
-0.0016179025205620985
-0.004202251193483197
0.0004029108914236633
-0.0049464206255518655
0.010606322314232107
-0.010534021757257104
0.03525593939735238
0.0008360105632539515
-0.010707029370701738
0.0027617622529429956
-0.011445171910037445
-0.0049552206014226345
0.015220765116193405
0.004529451408949491
0.00528528983088187
0.00015425892253581656
-0.015855532735400767
0.010035938656012551
-0.0036553864316889013
-5.464450631493511e-05
0.006100661883012331
-0.0007583583388147968
0.0005896586570859755
-0.0010945933661258933
0.014817767049702677
-0.0033640727452293813
-0.005599071480817218
0.004181335492122007
-0.02350840504804967
-0.015509448172979444
-0.010538947261410506
0.02440113300431454
-0.0053305664023824825
0.0085756558202411
-0.004687685898922205
-0.0001951110979527483
-0.000303066738300118
0.0007974520758362693
-0.0015448648777630042
0.0027906510785739693
0.0023404407692337215
0.0003475580070098392
0.005063695417245763
-0.0038603218083213845
-0.0026076246799654184
0.0072264505085800484
0.0008350936514620214
-0.01041492999168712
-0.007754220448103426
-0.0042312826565428325
0.0006275624251089896
-0.003435667075738823
0.004041169302663277
-0.0025715281061721848
-0.0008049559077212307
-0.017109507810474277
-0.0007917633172829725
0.0017382176799168928
-0.0020774672765467334
-0.008540768888675547
-0.001003486150947588
-0.005039875947053628
0.02590432955002925
0.0007629177108987785
-0.02242542754049685
0.02209642421736406
0.002898392198922548
0.0029456897336658794
0.011330933623904162
-0.0008065244797602249
-0.008630746534125329
0.004232690328225423
0.0030469918025268117
-0.005439831676309161
0.015183529228860156
-0.0012105857637054508
0.01431543913473198
0.008010558920424765
-0.011955719159239243
-0.01744912365819717
-0.007644968508007636
0.0010336565368806025
-0.0017894416793626264
0.003928872449811622
-0.0008125579908190412
0.007469341660978385
0.0061137225774890325
0.0005549758954655133
0.001487028259124935
0.0048957529764407795
0.013890503933564457
0.006127583359490014
0.009654337673853371
0.008849613256062577
0.0017420069098078156
0.0031270436794996167
-0.0049592815487640145
-0.0015140523333343234
0.0073248546701364875
0.0006184899721909053
0.016343193425699298
-0.03648911798863614
-0.009795480581938026
0.015650957316576137
-0.005979493346593429
-0.0006105731096642004
-0.020546963435454813
0.03140130231308001
0.0035095640759784433
0.0046235736860441015
-0.00024439633475082246
-0.021468233018027753
-0.0002469099720971078
-0.0009297372073608434
-0.01304082009727158
-0.012327586755686147
0.00767938554424481
-0.0030588094351130203
0.0009836945400297085
-0.035384071026326264
0.0040435536020807985
0.005413611299958423
-0.01061507214459749
-0.007818193733234254
-0.0055806719372599265
0.004765082053261815
-0.002628794425886645
-0.012738894386741481
-0.005209787209260471
-0.010212568673533868
0.009318510194296867
0.006152165568102512
-0.0019711601532087213
-0.0124124961402025
-6.757023502486757e-05
-0.020153115813224872
0.0015051182902853877
-0.0017443079019674019
-0.005548933590047496
-0.002100675126064448
0.010058086856601275
0.010009043292027382
-0.019288202091927005
0.026147885454370506
-0.014120320025380587
0.029122589728548923
0.008708024715748688
0.005626210499147518
-0.015609336951841074
0.014492794906493148
-0.005526873908952773
-0.009449561362411865
-0.00927453879589945
-0.004314838217984787
-0.006766328663376192
-0.011495211220010345
-0.0032175839828691762
-0.023375386916207705
-0.00025200057498251
0.024246279230299327
-0.00945268164599685
0.0015166746822676191
0.0004174250015077369
-0.01898668926419454
-0.0019567729792389424
0.0039052771934300996
0.0031184563042867906
0.00981701011620356
-0.004698147862005901
0.0017816227764336843
-7.602406219987823e-05
-0.0010812059549557625
0.001980585711521496
0.0005689192136152312
-0.005396961350330976
0.003292971519630491
-0.004735229221309841
0.009896009315406218
0.002586913638157072
0.008846804248352286
-0.004244903584248251
-0.01917755953491884
0.002696756801594525
-0.0015257331711129947
0.005702920208230719
-0.0020439003360444062
-0.01761301425477677
0.003696966422104137
-0.013545017598852972
0.0009493596761981182
-0.01544823496504882
-0.008432986990348203
-0.010160121780474346
0.0008833617057614505
0.0007592941521797778
0.02556094052428216
-0.014269206814926022
0.00029328805689813567
-0.009990402256276608
-0.024174599764635374
0.016218755801469673
0.02859087091486296
0.008332680212118837
-0.01422305150351691
-0.03720525876413938
-0.004496144454550672
0.012187847770671908
-0.008133543361017839
-0.005525092658892784
-0.008755437840921983
0.0034591958332099468
0.004323447427715776
0.0010392877853685012
-0.002313899463642372
-0.0010694542901961306
0.008457201393093219
0.02051339986676645
0.02337069021059147
-0.003985111607438302
0.002946354239768483
0.026764652247649706
-0.006029786760920952
0.0029622504108023553
0.014706703772779486
-0.0036049253298528357
0.013605494416381246
-0.0007305662343489809
-0.007643180892111304
-0.006083968901596995
0.00041758659602129716
-0.0028149978015374823
-0.013343872160546487
0.00025804101769332763
-0.03556451850728197
-0.004940143202135287
-0.0044625546142233125
0.010201027604115464
-0.0029070906524614943
0.0012990752769434677
0.03723095581420582
-0.002404152240509299
-0.0030253795957193956
-0.006548221451247873
0.0014203964110108811
-0.015963050640028252
0.0012801088045683502
0.004848943901211974
0.003668736014131762
-0.0005490280553519011
-0.01215378197915266
-0.0045915396490257545
0.004927854970352257
0.010280476603756892
-0.0014439630309740963
-0.009044954497848891
0.0010867098700269992
0.0004826960836516766
0.02912608147381073
0.023972090882723843
-0.0008073551205640694
-0.00019381047396507887
-0.008573066672404645
-0.010400753815452763
-0.0008761410568409485
-0.00012538090872632246
2.4071472023612553e-05
-0.00879507734209868
-0.001075064271239229
0.012740269466026716
-0.015735545258000763
-0.0005987013421809459
-0.016433751183708697
0.003777117235785831
-0.0001283076544720597
-0.008621212462638047
0.016056674167005305
0.006821829773363199
0.0006383457133021398
-0.008009322214680929
0.00038169050092683323
-0.0014566562687805826
-0.0005390051593654074
0.04688265173331243
-6.79484326548101e-05
-0.0028075747133950633
-0.00856972688442908
0.0056619253927818235
0.002094607202600704
-0.008555695175430674
-0.007351818785694856
-0.00998688077686262
-0.0029137104288457978
0.0011832576496850174
-0.0066254643455737365
0.00014720264812534582
0.0017913103513148313
0.006267754964346342
6.937825409348079e-06
0.003774460888303017
-0.014619708594127099
-0.01119227115967886
-0.017236030910229884
-0.009887590684552083
0.00015288078791433118
0.006556754252702028
0.004248117605876868
-6.547511476760677e-05
0.0005764073011344081
-0.002425353515934397
-0.004445319082736263
0.004470443552944688
0.0032850498607871503
-6.479730407798428e-05
0.03841979770132673
-0.0043923114178127136
-0.0021076854791492136
-0.003064089541350512
0.00790722167344188
0.007074979054336307
0.013252432026001236
-0.0019359199766894252
0.01714267833255544
0.0070067145302644485
-0.004314985225066721
0.024679411490401867
0.002837183908054593
-0.0010883317585131274
0.007368839559484366
-0.0025421511721404515
0.007269200492657628
0.025776375532742975
-0.0030507332963918632
-0.0037752852925726373
-0.00920854025737898
0.011213338625587606
0.007088263575553089
-0.002465617101365206
-0.0030216405465218355
0.0032937166142661266
0.002559124797444548
