-0.14124270960773777
0.24306065773795008
0.17208443374212584
-0.31572628256210145
0.16114466112002537
0.27006665579376277
0.16350386657361568
0.10565662918744843
0.13864023753106935
-0.13412190564220777
-0.1042332736317082
-0.16302395856347063
0.20812443993384463
-0.16823036259843294
-0.17602326382221606
0.13871901106131918
-0.17278845335616144
0.15347725184735284
-0.11368013377028052
-0.31848413231721706
0.1740639116364667
0.2615410829045269
0.23163431444130494
-0.14066888321180113
0.4319361479396627
0.30549417795681794
-0.28071674900779847
0.13465215679738587
0.16279283788234014
0.23066375406947276
0.10696374815382767
0.43619219408793736
0.3140264310264196
-0.3352402652392818
-0.3637169067996567
0.263196455455862
-0.10405358673512229
0.1926452262789062
-0.3275396110459783
0.20556836385580607
-0.2600733644914854
0.3089662801307048
-0.26200659302637697
0.14049948900624007
0.37483092830296344
0.27347180465727905
-0.13059455722995394
-0.11220131351541196
0.14745720545118915
-0.2942682232643349
0.19134947514374903
-0.19564765436544332
0.31342991409706017
0.2619160099840313
-0.1900513056623279
0.19720574539670602
-0.29064440138618536
0.20747892875061527
0.24729055784126758
0.08242656895076929
0.21899893619949765
-0.1122054453372423
0.29959813130401663
0.15129890463727758
-0.13619142013163946
0.14768316916031365
0.2939349397447482
0.2638754416893291
-0.12205636850358377
-0.32280553770134257
-0.22240503756425078
0.26802403820184445
0.11169422317466558
0.3467709704650003
0.12565560267433493
-0.266390504182752
0.2659575965314233
-0.21347823987056358
0.3240648082731043
0.3698156964381944
0.0886780301618035
-0.3649203004470086
0.1435439129087019
-0.13478301377250698
-0.12453255705974951
0.1853566357915423
0.24712679705150314
-0.32354265845772406
-0.20576432324453878
0.4576005738436063
-0.1315855100843914
-0.24692653297873965
0.3861103949920854
-0.12210406666706096
-0.18745489050177203
0.1709893954572492
-0.1716116693105625
-0.1873687361605827
0.2520328661155185
-0.4095059380200873
-0.39663914300662534
0.45612573628035574
0.20578313955247338
-0.37865101362341436
0.514300625140976
0.18715212406368464
0.23196767874720967
-0.13034088813409267
-0.3322962524174895
-0.14669088038560166
-0.17673333978804107
-0.1842466185130515
-0.2048149024744729
-0.14596993588494392
-0.3035971202721621
-0.3173988061657859
0.46433042970791144
-0.19572531337161286
0.26819698137530645
0.26646925552007994
0.09232638998240354
-0.14318864682485952
-0.20151531338095113
-0.09893073665182746
-0.14215346385916613
-0.1944727541495584
-0.2894174747387322
0.2802625632631379
-0.30219008561448285
0.24167910603299556
0.22237101901365275
0.14267891828675558
0.21830013331145717
-0.33112941720659006
0.08835606763432276
-0.09762486178609271
-0.4308021755364663
0.152048638039883
-0.2275291674496828
-0.1678326692447344
-0.19909661220744188
-0.2662057113318426
-0.3295037335654629
-0.17451282545353147
-0.14335405582929747
0.16177882637378166
0.3680298569320672
0.49425593760990455
-0.4517320760662
-0.34049897340448976
-0.3799048964310894
0.16108290035665326
0.3294915488145338
0.13266649432873653
0.3111292246283418
0.17648058496123806
-0.4170744959819271
0.32352837221632
0.1985115271644117
-0.3640547685247905
0.35359925014727317
-0.2510972949973576
0.23134368958882245
-0.3375606961561245
-0.20087720548828186
-0.18605727758920418
0.24743570093104075
-0.36448632171918993
0.1729291218174811
0.18760911310579698
-0.29594786602828527
0.3679094529656775
-0.2641242149905455
-0.31153757124610587
-0.22692448374655935
0.23912515765921927
-0.2379916365299439
-0.501974273969922
-0.514686582915158
-0.12962212086386654
0.22621328223891324
-0.2758968496890648
0.23856486665871357
-0.18066527255249049
0.2621300404824433
0.14728130694036978
-0.3094345169875037
0.39451712308123427
0.12754406847149435
0.15822966987664883
0.14971234176120102
-0.3517722022861303
0.10268958690546681
-0.16905327193516295
0.12541001066597285
-0.21107630764042404
0.28390483642640857
-0.272515339828886
0.2901512436932455
0.2509902917554607
0.3105137606694235
-0.3736448918679901
0.20779785989475352
-0.1792683322659049
-0.29310045778926264
-0.3558607259768658
-0.4393759739334441
0.24184339815294964
-0.10088727439418096
0.2989064545198052
0.3313687026842316
-0.2989469863874837
0.188525641246163
0.28747890087064876
0.11376876591989132
-0.1973568789700951
0.2545502606223525
-0.5050044727887494
0.18665998284047372
-0.5965782733466102
0.4015202061092939
-0.19345803773669557
-0.41984385752413916
0.14549111150882876
0.32122170958242663
-0.23447974063757207
-0.2936023361967082
0.1643085843259939
0.13318657376108187
-0.38465817529648244
0.21303131647695556
-0.35992790195381097
0.1017931104273083
0.1884555096176304
0.21335457977233457
0.2293829243729394
-0.3357965960605492
-0.15404152960259326
-0.18084509317182587
-0.17130371906377
0.15910751407244156
-0.2337022880537244
-0.04897915295537506
0.3258998194553448
-0.3781091497460934
-0.30157512497638567
0.1084268514461753
-0.3901720342600415
-0.11356261361293833
-0.25223381050224397
-0.29617006493328596
0.1649569286010601
0.07033971184502984
-0.3365962359194936
0.17127979556476589
-0.260282514198454
0.1457346299060039
0.25143872403997763
-0.4459404678473668
-0.3236006500409438
-0.2754926263624657
0.4111803952324484
-0.2504280548928204
0.2854437694106895
-0.33037429653243944
-0.31406801932662753
-0.1908321802795673
0.27957301042691174
-0.22185039611747423
-0.15282257868395516
0.18585163147675407
0.24015318643138653
0.10030671915819707
-0.37779496102003474
-0.16064674942357912
-0.1348873024727965
0.19213730607290597
0.2182070994715274
-0.06613117886105219
0.1197122479796185
-0.2917726866904941
0.1955067054573954
0.33340645165194904
-0.3464798673125097
0.24196533548008772
0.23781200039766417
-0.22154750719508992
-0.2607951029977848
-0.27293196582528556
-0.14162041857642135
-0.17460858656530845
0.31243795354236403
0.32681265379094104
0.38382350750023436
-0.4438501061286896
-0.19907141661576785
0.20856053174569386
0.2524737339912739
-0.10938875655107586
0.1868841658614573
0.37687269982455135
0.2692713025955023
-0.24887996137402565
-0.22856491428391135
-0.45197702525931416
0.3436547276423886
0.4521249027007329
0.363079499684889
0.20122075948079307
0.23796365055511895
0.36668824492713853
-0.1476940776757227
0.24157357429670182
-0.47296702314117134
0.11575139151333594
0.2937056988548709
0.22386857916931596
-0.30113266185531434
0.23880043925459007
-0.30677266652248847
-0.3421649078796244
0.16702856704462737
0.29400043754160055
0.40006232002938313
0.27509117486120815
-0.15305399749330914
-0.3623345380385798
-0.245092311048052
0.4310133122247333
-0.21606484920472122
-0.22867543375615973
0.15464178789905153
-0.18513157649209985
0.31371646153680977
-0.24570831466938942
-0.21397859669588637
-0.1711252288317973
-0.21988784680637302
0.20255744979375617
-0.2986965951212771
0.17714684328442404
-0.1606957092418454
0.24747364847454348
0.11896771037118758
0.26750518423708153
-0.3519425430041554
0.5512263281705104
0.21760286541908186
0.10752012076523225
0.1631537552370186
0.19591873063141804
0.3241392538898709
0.1294114391219016
-0.24882888582140603
-0.21042845445228733
0.15354109279584732
-0.3007410712003019
-0.2732878603907544
-0.5671819624326017
0.2914773618413727
0.17599108439960529
0.13463435006533025
-0.22307634441168683
0.433404740330749
-0.17948597939986727
-0.22148088347216408
-0.3179737632942122
-0.05712198169749991
0.0807627720757168
-0.4177721948969218
-0.159181213044957
-0.3883081194210579
0.5408110419136789
0.1967226074573365
-0.07213688701355936
0.24242551307341234
0.2314944905513912
-0.3069316830652176
-0.11574001256051746
-0.24754914895617902
0.31728397085615967
-0.2888594824935883
0.21306946846365218
-0.36598439666018096
-0.2528583089057737
-0.220021358405532
0.18903897847546905
0.2892887422916385
0.18812864662208037
-0.442823529375859
0.15104108434361016
-0.22523238917043836
-0.2634970231189098
-0.3877449177273523
0.398982598222518
-0.3726726706315979
-0.30071438166078557
0.24977597248682076
-0.25461244234691666
0.43893513117974303
0.3078543690427418
0.20755175489437874
-0.24467979825459973
-0.3149049805361508
0.1519908559039974
-0.1237996460146612
-0.30079957871456303
0.17280091422521718
0.16093253350179096
-0.20138001020149157
0.14755270693991598
-0.27817142894555563
0.22284991476510405
-0.21206344446899653
-0.1585696009826789
-0.2651677593072312
-0.17029683340616722
0.23508050409980594
0.15991030904970452
-0.2455412573959975
0.36772593977176204
0.16711044990591273
-0.19585826532370698
0.18080008617839993
-0.293597641909285
0.3027929291772553
-0.32985868401044244
-0.4830040792990842
0.14164778427755143
0.19653591789744543
-0.46929412512803403
0.2615453528361064
-0.5167504364969886
0.18647851269559276
0.23091104744279506
-0.40578598542432903
-0.23469540779550274
-0.14406582164562995
0.14468319675120123
-0.16063538008577763
-0.23039003228827795
0.2702081041332683
0.3067792120489401
-0.2584318136311247
-0.23161799486272527
-0.37803634528142044
0.14438215216255576
-0.232748654347141
0.27241212464627534
-0.2898949636925285
-0.5359366094850148
-0.2636351251654265
0.1729181083367192
-0.3462214381898104
0.3594587327113943
-0.3334265675094919
-0.16789491409757543
-0.45534958995620384
0.3670605237760337
-0.4977129804333555
0.23782057988387384
0.1375269431597193
-0.09185727796785352
-0.25289867645440917
0.19753242745412852
-0.2704543606237884
-0.20049195039181716
0.30318961612348494
-0.2906729244980258
-0.285746377586499
-0.17110478409892274
0.386254127012609
0.3738613240932202
-0.2910135831885019
0.062217331814286805
0.16840755377631852
-0.19752566841460314
-0.2130509389685824
0.1690153480550078
-0.26887818440931444
-0.14782096875320003
0.2087534276208829
-0.29810193012590414
-0.17519670846630908
0.2312663706399496
0.28158082257908884
0.165531898586469
0.1354389408462186
-0.1343528829993588
-0.349774379358185
-0.31605551001826476
-0.27687971531094413
0.22299639973739646
0.18355228978536756
-0.24301853219599065
0.23523624992780182
-0.31128106088297997
-0.15978852819220046
0.16020217456080113
-0.37465095056419917
0.2675063002942227
0.3922943585300599
0.2066744927370455
-0.0529352546208344
0.24354226976467827
0.19240801214304495
-0.24624364871593857
-0.25791424288175807
-0.1472984860463808
-0.1621062034336168
0.17518803350708023
-0.2977310150111654
0.37089384785833124
0.20596421593744169
0.18035745154721947
-0.229512280541037
-0.1995981598746001
0.2138999883623385
-0.19659136481921372
-0.25535335219033584
0.1931634571631415
0.26123128641884513
-0.15036274962973056
-0.1754971816549993
0.329591591242926
-0.31192732252374866
-0.2560238031836522
-0.3990522570145363
0.39723654001270753
-0.24507792712438395
0.5217101685465572
0.48698007782293146
0.29368756785977396
0.29632670902547614
0.2916272882802092
0.29871218027351903
0.2499738121325064
0.12374750001362199
0.28256212972999234
-0.08425054628818394
0.21882933307899696
0.31582529841208906
0.3629689565238286
0.2916125367531782
0.3081833884666405
-0.4694916389278607
-0.5107296756691031
-0.46065006018784266
-0.24314219069436743
0.1617778859752337
-0.25975414750620063
-0.2718544907247664
0.14580561648830107
-0.17687206564728022
0.27028445730442596
0.17292625905012374
-0.11850387561610473
-0.15560558870208854
-0.30239100251969664
-0.262716112035899
-0.2720521366759141
-0.3470268231670132
0.19987585635094038
-0.32012960255838274
-0.13522595269586105
0.3072876974931514
0.20186074734895745
0.15031141856340852
-0.3007968672493117
-0.1931760688455842
0.18971890165078095
0.13586013642332734
0.280834612843541
0.2105552747537133
0.32108115696698564
0.4167239654948996
-0.14220990679211423
0.1352234117334428
-0.32161177126078616
-0.3243258882754733
-0.203078352558595
-0.300037467681199
-0.25377193334711146
-0.3823744305735886
-0.2174814061137111
0.13600031556597283
-0.40938450889123945
-0.21483841963059883
0.2537051557286484
0.21408927083488488
0.18514398431141707
-0.3217273298431223
0.44031348420726557
0.23128303258084296
0.2400757494337501
-0.17884210434179315
-0.19673804535655365
0.40943036029169144
0.22688308488664005
-0.25347581576600964
0.23292770041848912
0.17039155686032056
-0.22495101732158232
0.32082647457287716
-0.3821931380658235
-0.3191692146624685
0.20776188234107865
0.23235001254667959
0.2960472821859801
0.21480146517236365
0.5132907785990153
-0.6047856516803035
-0.47540847834172406
-0.1708382687088293
0.6062337413430152
-0.41066602839407024
0.3722301021364607
-0.09757412269569174
0.3643748089405327
-0.21676198205883682
0.2997800230192493
-0.11844071211697668
0.2766163625277579
-0.2183150512538852
0.19056425876120534
-0.3804517448151401
0.28378509130829477
0.23627243207360873
-0.5042835228788137
0.1911895754991158
-0.18108622798751503
-0.25376538592835957
-0.25420639093209324
0.2731137038536204
0.3685218623137935
0.27275788591947003
0.22283870419344026
0.30495662378915567
0.3011243828727222
0.4219220000747158
-0.1610993040029627
-0.16421292897837048
-0.1620150899387585
0.2140637493440786
-0.3374121118717746
0.1363446053360859
-0.19934507349625807
-0.1961870171395543
0.18720469314374255
-0.1928525533641163
0.22972209651310907
0.2177076274745622
-0.37827446720833935
-0.16909634062844534
-0.3443038891587981
0.18993461566600123
0.204750047503562
0.28201858129607654
0.2912085352620204
-0.5032514646576827
0.3462715759130095
-0.39253302662091305
-0.184798459847967
-0.4869081101173337
0.4654664233275895
-0.20529191815593759
0.3346858406226468
-0.23844069753328154
0.19982174520675566
0.38717442085232556
-0.3013608174914652
-0.5373785857003642
-0.3154658616353492
-0.12178049742828187
0.17057932220166974
-0.37778560439532666
0.16650485512531063
0.326468726653214
-0.24947879392510108
-0.24453270557141016
-0.2401566987908962
-0.165111112985076
-0.24592374254490185
0.15964286392144975
-0.3249391040986758
-0.27666479922743026
-0.2766729476843347
0.3099933545175501
-0.15472555293003612
0.1976209079802157
0.2822024400537796
-0.34623954877275265
0.1307104147694379
0.32690409540561177
0.2975979984413457
-0.08077063798470725
-0.548756896059958
-0.23770301504809638
-0.22185261050511815
0.21016314882658974
-0.36727044210223997
-0.24011273769548006
0.24083948303218627
0.35031761970527764
0.0688782065558423
0.2811338034441902
0.3038109325162438
-0.20013953356208303
0.2421512009071709
0.1130640620907863
-0.521162560704065
-0.3619965836599644
-0.26249243655086346
0.21005720642829864
-0.2071134269946973
0.1919520657552558
0.22543336360887772
-0.24212458221932898
0.3133292471891549
0.1292905419362357
-0.20504478490857966
0.2290744644071307
0.39699260452523205
0.2147756652039288
-0.25429189401908037
-0.2162089190776939
-0.3270105687819293
0.22375515088942968
-0.26335887003294056
0.18758325091893388
0.18198648515737867
0.3953879442299229
-0.22405079511325177
0.163978343871328
-0.3105399878113789
0.24918373845748226
0.20721438138472106
0.3576138168206369
-0.43796484801661256
0.49656589624122544
0.46560652810927516
-0.26674696232370926
-0.20058640507536263
0.2732959656352494
-0.2272181406761713
-0.2137971741714816
0.14035437700949122
0.2160562840458098
0.27026246444294866
-0.1667635617304119
-0.13461226129713647
0.23011437537949625
0.20165058076363276
-0.17196309522580383
0.29175642185227296
0.052457450723651794
-0.18933681576377878
0.41783937616523326
-0.1918606932497606
-0.23634624537956095
0.1743383408968257
0.232922651488695
0.294644335678194
-0.2921714087775997
0.23748751256877473
-0.21633574388110102
0.1562912523572077
-0.13043160197600218
0.2883832485169479
0.328165099991346
-0.5114580602889861
0.20811411765189664
0.214202348710109
-0.20443852346160066
-0.1338880180619353
-0.13038055305877835
0.18157600229267792
-0.17300370269866605
0.2771683180856316
0.25130695919492263
-0.22429398201104306
0.36734134991411677
-0.2293667445728718
-0.2257938409883604
-0.3677582055823418
-0.2639811924314345
-0.42939769942882383
-0.27804125793360385
0.2790277970835991
-0.2650702087703854
0.2131863331463458
0.2434647535224487
-0.25012280107869167
-0.1497322360696799
0.15680504390300487
-0.15894422047842346
-0.24678490046895854
0.4395099440394662
0.2772913092651849
-0.17488763700692495
0.2016551745528383
-0.23873796900848124
0.18745945515449092
0.183292827389177
-0.15688617051467574
-0.29857391320095517
-0.18766100537470196
0.3744832210426637
-0.26031339025594896
0.2353925737497195
-0.18346064445959254
-0.22520195910267218
0.3232633188105209
0.244298062781151
0.1676318437022531
-0.2453252961016229
0.20387629414279476
-0.25962586490485523
-0.19318001531124301
-0.2891940783008141
0.20716016008409946
0.2880570369624155
-0.3381119811306371
-0.29178121392320483
-0.414453226789579
-0.183395008219048
0.2974555979260847
-0.2512829430147838
-0.2422810025427791
0.21505653715740378
0.28333954352032686
0.1639770820595824
0.16719172053154416
-0.14744304556793658
0.3132998645026374
-0.08856117079883653
-0.1556876271304466
0.2585629280108156
0.2165130553798307
0.16349932111229248
-0.21450474765045974
0.25476478428463584
-0.20871068777721122
0.182753245726717
0.29805628253915106
0.34958154290589655
-0.43538584010640713
0.26377118086661533
0.39855256703814773
-0.28049472781558277
0.1583176686611404
0.21972311955851598
-0.17055116740730844
-0.2766387133293147
-0.18825981957126653
0.3275823574829879
-0.3128134666533944
-0.38431064217989513
-0.30382535927407195
-0.3530858699350885
0.4717441142396561
0.28385034894164224
-0.3124987936137754
0.34936828747252796
0.16827677272840594
-0.34219386246573613
-0.23454640962000536
0.2910998994677458
-0.20569438975819013
-0.20391920676029207
-0.07025868126656488
-0.29923029486086133
-0.28597244513416037
0.29906364527570845
0.2174656333358299
-0.2388660607043656
-0.2251983543744459
-0.26430807092676073
0.1486778505756782
0.23090090047787698
0.31455399814597684
-0.40202265918781344
0.28202404579193824
-0.22599050555031272
-0.24871475396112958
-0.22962160117518235
0.120209813180128
-0.28363423853739655
-0.4499856758453666
0.495588723141242
-0.10953494698954308
-0.23657051507032462
-0.09712516791624574
0.270124297785632
0.24644838741652064
-0.14690528404152928
0.2773996288097593
-0.2154976311509106
0.4329753503805035
0.09688420550981608
0.30053896621462006
-0.3299511466235555
0.39316231303097265
0.29326454147329145
-0.364369916475887
-0.1791072089588194
-0.007734864666519407
0.4464672357439478
0.38513267474832774
-0.2828947558475062
-0.5162340241071454
0.3020826116631749
-0.41818540242822905
0.15611510947055357
-0.14643121788811606
-0.15451605813714903
-0.3499367189347342
-0.19180108852545236
0.4921562427589816
-0.04049493066929475
0.17775060945523544
0.14437102371424113
0.2920798831401537
0.26454271081233305
0.39312797018339535
0.17451596542845502
0.16168507275512184
-0.06286007706653121
0.27293076999008853
-0.30301932666415404
0.2205326877914155
-0.28891969457537964
-0.2885252404742762
0.2661974786028279
-0.2565616831126853
0.15997156739139468
-0.31417238365877553
-0.20439992243935073
-0.2544207346654875
-0.10342426687086147
-0.41945676215718025
-0.19374304951664292
0.167904801496952
-0.1905807285831419
-0.3238776529161531
0.5771851871334194
-0.1500973321413876
-0.4629954555007325
-0.3040731821086753
0.23193526466924078
0.300251617724458
0.2444981492817024
-0.35488125535848203
0.18290539320742094
0.008578897958250564
0.5541939551915591
0.47116740691197884
-0.29200738692270334
0.5003743546478694
-0.29468934129559116
-0.43539313000441954
0.3525853718003589
-0.20987379412817864
-0.2482994228982651
-0.14146857281991
0.4056175799052578
-0.19322056920427336
0.14204127034985603
0.32550713289310723
-0.12168626194210737
-0.23179231274036835
0.31794152273480836
-0.17909606931292454
-0.23724859379613017
-0.2781147713826138
-0.6037154114132952
0.3923612596734756
0.2597386827522909
0.15305889940328496
0.3013801894043973
-0.2291502904784901
0.24890743602008425
-0.2801568982164189
0.21322249013318387
-0.1646125221117108
-0.5023922710773634
-0.2743532840196597
-0.4176567261588692
-0.1640631065268755
-0.2964034145082706
0.2097781261257731
-0.1522310474499452
-0.13225606426347444
0.32552985277465823
-0.30943786762878756
-0.21813669560551982
-0.2262048503415492
-0.21371231778463895
-0.20971221514555058
0.2189740093327046
-0.32250173788939884
0.29481552616951007
-0.2400853548902799
0.34638866141919594
-0.26022784506580393
-0.2866997658168333
0.4123343075547258
-0.3715912621868504
0.13427292680726458
-0.5904330512442044
-0.4173284898474579
0.09823178151657451
-0.4206340822567317
0.11513008095226566
-0.321094302499886
0.18266442143840916
0.13797252398980595
0.3015995679886013
0.2469319060575897
0.24615262167658236
0.4692459489771507
-0.2219683518166417
0.21166294196281063
-0.4682002044213644
-0.23266727293563327
-0.2547752285261029
0.3215574224211677
0.40664989102894294
0.3911743123968372
0.3725640341696896
0.13643718974757194
-0.2860011447883876
0.22591012540017213
-0.29385801843217774
-0.31346029056924746
-0.32334446081644963
0.19314544193646205
-0.21979068373108102
-0.2289520947213453
-0.2798746500294053
-0.30033535840455683
0.25755873924781075
0.23406294501034006
-0.18629443752971633
0.24103792531756082
-0.23582312917008363
0.24637136759832662
0.2201865272300434
-0.2795711990570028
0.2430817504425325
0.5546672778962557
0.20599920508508202
-0.16118597680996752
0.36301672422621134
-0.23206434456384079
-0.23568613336488428
0.21146178312086764
-0.2872162932333973
-0.380897438716962
0.5307402911095329
-0.18614993113352776
0.22230080611879902
0.13874635344637667
-0.27664394202855064
-0.14089615774661005
-0.22090992448840985
0.2563562559980762
-0.2543577043652145
-0.23350723134755183
-0.33233425942317935
-0.28751076646904206
-0.1559023169166019
0.1701981486128324
0.1918623581292783
-0.22842915413630155
-0.23873171838175108
-0.19486794385691905
-0.17030972026254812
0.292791348956508
0.078458674877565
-0.11503469489277278
0.6224080035752823
-0.1883030363669322
0.5455849847320627
0.2794077407051122
0.13363422970948602
-0.19669787035505917
0.18590713881448578
-0.2677209990155848
-0.17304118652514633
-0.5398876355770025
0.44124162766905883
0.27685770715883556
0.14038302651527573
-0.2880504144819624
0.24318382176752903
-0.27358329839938345
-0.21160764879719687
0.3088781284907577
0.3485660072246848
0.16577574616296445
-0.29001654702040036
0.2426746762775892
0.19318217507049104
0.2557861862269416
0.1699312367399107
0.24657485103948112
-0.1338708228506429
-0.20320082562216682
-0.2834240941318639
0.2674397331472397
-0.286557672359969
-0.40230490863375623
0.36588129560343885
-0.07708435513223615
-0.24940302185247465
-0.5442886920927673
-0.40588724454754355
-0.27759593596427895
-0.5128391355236984
0.5518312955017811
-0.5460972283647991
0.21233079142267983
-0.2500625067916148
-0.33277611229978143
0.2996304894316193
-0.33873386407113315
-0.211539598632308
-0.32507111200867755
-0.3893796570129678
-0.33722971588133693
-0.1332065532777013
0.21678129243752792
-0.16202296604133068
0.1784260785546128
-0.3411934275582988
0.34735839947063235
-0.3773238855631503
-0.23179561943956914
0.09792838733606404
0.19381198490152912
0.2131975907967506
-0.26364253091189144
0.31703619540629074
-0.17154089148272972
-0.22774608829751344
0.2857719636197714
0.22807526787654167
0.1882166621413886
-0.20804896282232319
-0.35588136313523255
0.4025215498260801
-0.4049544183781355
0.28841357523912164
-0.4428280888529442
0.4138655616708045
-0.1215170830909643
0.274265268860038
0.28101393689687365
0.2990626570372534
-0.2547816805110926
-0.4111590409855466
-0.24465610805381713
-0.05092504016979117
-0.19404535166357406
0.31761695701795317
-0.19872816529234677
-0.23802806772334542
0.23854857853993391
0.15950997331289718
-0.18990624024276095
0.4914998941279799
0.2370161896206911
0.24538076169176687
-0.557855089351013
-0.3488790486815012
-0.29943578661178044
0.40423434174717937
-0.16484731652448756
-0.31712846291946395
-0.11859010343039794
0.18673430230832533
0.2552242720058623
-0.22860440661770196
-0.3293999628885371
0.2837875560684778
0.159795134318561
0.08294889107975288
0.23660735024139773
-0.2080743026385076
0.26343401924667426
-0.23102624069920963
0.22460393842109044
0.18802570072504843
0.46611992887768544
-0.378690730292405
-0.2974440986975417
0.2435051384326575
0.16019007207940808
-0.18609733975556658
0.2028304789701476
0.18451127349257343
0.17892777765983986
0.14524618185679958
-0.3300779825109702
0.2908903597100995
-0.46767541323128
-0.3721987325445352
-0.41442763456827386
-0.4694327273251727
0.20308363988941272
-0.2890218594908976
0.2548279290873022
0.3271035050197127
-0.2607457269023336
-0.5269175552768148
0.33192637408001496
0.24502883758862953
-0.3338862309880587
0.21695870255487482
0.34962850783746674
0.41728328902000916
-0.16884143640801066
0.2530619461790454
-0.35231055909805176
-0.5695682551689147
0.3286945364082488
0.20460314319697562
-0.3306137664456503
-0.1857855865986517
-0.26714125348227186
-0.23709530035658097
-0.279893343374632
-0.437546419911511
0.36373351624344374
-0.44198745501085107
-0.38260006395344603
-0.2639205282858725
-0.5091047758934907
0.2359837699522279
-0.22563436990579702
0.2929512674594682
0.29522603181535
-0.19754799357511746
0.25245732151576583
-0.2653852158575969
-0.18175812069196337
-0.2597339144052833
0.28180271386188527
-0.16996363940918033
0.3129078553328187
-0.12436111241250924
-0.17833649331412707
-0.20376420221133992
-0.28223620989114007
-0.0852927935173997
0.22614561579086173
-0.36196009289179826
0.229764169238169
-0.293527328609727
0.22775021607862952
0.275913323945495
-0.2724975516810654
-0.3540223196307465
-0.34567892407433837
-0.15568885484641945
0.1598968730637929
0.30090240745055197
0.07274476988854597
0.2037456550346989
0.38817359762117404
-0.45444685482194297
-0.1369650406985091
0.18393319813964631
0.40025350872187987
0.46722287054436723
0.26498874328062627
-0.12873819267774103
0.1912737837269591
0.3041947884756607
-0.27777991564189203
-0.3464609701328179
-0.22474337529492983
0.23612611286278676
-0.16429327220707268
-0.24240720065285995
-0.17053013309876855
0.200857136129375
0.1357713959840482
0.3552064244772129
-0.5355136558417938
-0.1394077305282924
-0.2832966035240929
0.14881848843795634
0.2409977991681903
-0.22275531331974163
-0.25977395715830914
-0.25132847840590666
0.24983779044786275
-0.23275574122559936
-0.12720266427447763
-0.2948785430867085
-0.11515632084402626
-0.28819544555610715
-0.2856030344510695
0.09921185937198577
0.1369069245552086
-0.18151820752100775
0.3986881841162545
0.4381217344252114
-0.28873902559197756
-0.1385733757874411
-0.1937279974710369
0.42656982969216395
0.2520783737961232
-0.2377110943119516
0.10352854555333095
-0.23019506023551892
-0.2428788564305462
0.2982477728284175
-0.0667001274786669
-0.26972980616426834
0.26396247494160846
-0.20797971987656724
0.2048781395296073
0.16872302917960705
-0.3968028849565101
-0.1991785857643688
0.15208594672805498
0.20202743727599443
-0.18286580534581728
0.41907987538436087
0.258730490056271
0.3787257008092804
0.32377754458912705
0.36973888629964996
-0.26966553112895003
-0.3014365966721358
-0.2962743719767923
-0.3524721575856467
0.2602427969765547
0.4571271351769111
0.2649282875150728
-0.30648050376894637
0.39753951544682337
-0.5079303513570463
-0.45285748380894963
0.3813867976520943
-0.011589625182024225
0.19530902634361835
-0.3343051479439856
0.20100344645044002
-0.34092869670647
-0.3029261631305904
0.3058965044433924
-0.15438016364766244
0.22486106222161012
-0.23182758664489633
0.26200786618237465
0.4094892373192181
0.25114343407999107
-0.2824912366358503
-0.2135163655236168
-0.15953335667331323
-0.2509909518764813
0.10318548814546778
0.21545466135473607
-0.20252005730336275
-0.2565346394689597
-0.16417884594767423
-0.1270809796877494
-0.23944518308293958
-0.12936530267922755
0.22228929101408823
0.18054431582592098
-0.18140844321628136
-0.14113605102050392
-0.208651889210585
-0.2131195671664644
0.22582397270774654
0.3109719769256256
0.23271758608683787
-0.14009854250637815
0.13716202210323733
-0.4512275605061812
-0.33627884915274225
-0.24727686830493537
-0.15293450630525768
0.42689318166866785
0.38805941971095903
-0.3187994135601706
0.18939539390019602
0.24316582127618344
-0.18020192283190134
0.26654364424347043
0.11650534942732783
-0.21810444400517903
-0.22711635066580532
0.2998779285595197
0.163834101223734
0.329928829736316
0.20332516481376642
-0.3055985600222727
-0.34838883137685533
0.37108952606604545
-0.37178770947478684
0.24474019079288667
-0.48417022917208824
-0.2150701586796676
-0.3015072454142877
0.13233276902658692
-0.5809641827300127
0.15938809555818367
0.18180670630427612
0.3455624045899814
0.21871695288630577
-0.4438602823098768
-0.2066314748237112
-0.2292132067413865
-0.26737623554812007
-0.14973059459948646
-0.29825780708380434
-0.3003585158503864
0.1961196821401041
-0.39761451711714263
-0.3239275403840208
-0.18172945967960277
-0.25609191679875687
-0.3852613448724706
0.2604796577118993
-0.2879816948528967
-0.22121653849656525
-0.3232289964248898
0.15643574844655458
0.26325402586578156
0.33376281989741835
0.28506118238787886
-0.306885428254584
-0.3030648129134888
0.25999759191706484
0.25913479098574443
0.16911028461696828
-0.2743503664169877
0.18023182073985733
-0.19466448156542598
-0.29186728749104135
0.27761161256314965
0.3422132912166889
-0.20855125011267503
0.2502637720852875
0.19855517872360948
0.17261211538098378
-0.25195648259049347
-0.3536616328183414
-0.24607464853282754
0.17785379090836748
0.3257771389567175
-0.3792942504428349
-0.22174269841245908
-0.17670653421844368
-0.1859336752368646
0.1665497199355065
0.21724675489041112
-0.2448307058069655
0.20502364083294922
0.3128043858991056
0.3444851192923823
0.4010025469462346
-0.16590429957705313
0.17629216818833865
0.39850166107005447
0.3742430355503371
-0.3960726797184131
0.17863209152467371
-0.4094508291097757
0.20717266760834266
0.26941069556467095
0.1443622737663557
0.4369531843785618
-0.4036073248475349
0.46035497944216824
0.6247279674747537
0.2201567040316506
-0.32471178381194193
-0.17450180392893164
0.26251236929887356
0.2311792779958759
-0.29054777129669385
0.11278744826309428
0.2523210067871433
0.20883542797617716
-0.23837196224842666
0.20718196533544095
-0.28708379244725196
-0.23446853575644944
0.5238411100871931
-0.37570689041821864
-0.18291314314367296
-0.31638306248641657
0.2272971404108221
0.14579633598972286
-0.21750550188518816
-0.3350846892757705
-0.3051337283153762
-0.42804441931503734
-0.16422140690804207
-0.3119993004491222
-0.2638335705147161
0.3041767891247813
-0.3391922741527975
0.2355704607788151
0.20012276879215402
-0.2303532379139931
0.30308658819090245
0.16180146302516898
0.2561841612519602
-0.2329642172067261
0.31738088025566075
-0.34155434878882557
0.22251057092674667
0.26483069688422495
0.14677327290236725
-0.10613116344365227
-0.031130705237532762
-0.19046764487195356
0.2420734190191514
0.15263157755364506
-0.3149765786544537
-0.26169788629109947
-0.22888682940884267
-0.3220731236995086
-0.4136805680046422
0.37640987048037083
-0.25994167864519935
-0.35469546570356086
-0.12672742435538756
0.2535328208475348
-0.17614794324067018
-0.19103772280155099
-0.23422870166158646
-0.19905390898572461
0.26641547692401524
-0.17306388467939382
0.18579373039950695
-0.2429802171378178
0.2542772319468014
-0.1451523685332149
-0.3669338151685171
-0.3836285111677232
0.1603133717169446
-0.3978661727795225
-0.30284684702631365
0.28726171397945827
-0.2606614936474132
-0.23722938754066988
0.25047187179481695
-0.3873086048463903
-0.09907587061981454
0.07955465124636828
-0.5427945691395649
0.38704780952093926
0.41499435521656614
0.025544449013396038
-0.4876206976793078
0.40506311555548974
0.3612018685845399
0.20594657440314287
-0.43403878683152464
0.2237853885796347
-0.1952297667115177
0.26749088107319974
-0.2849383543274
-0.29582459795636595
-0.25485737826440036
0.22897939058513073
-0.26610611974103004
0.2646898531774186
-0.1866248965243126
0.27767765425803265
0.21541774435573338
0.15381904285242287
0.3201801657160145
0.3380353731535162
-0.29121146083633054
0.2181779059203145
-0.3983029755577177
0.2555299142578972
-0.45713326919044434
0.07351443616012747
-0.3319987042992999
-0.3783220592395511
0.26897502865364203
-0.2939842223759738
0.23246794227624828
0.4389438757499456
0.3400604066813813
-0.16227537451162835
-0.36959708798249125
-0.39051281542923416
0.16855188905980625
0.5286268603539734
-0.2976840028434839
0.3399725775692143
0.3524933769800301
0.15909649194483752
0.292135171304306
0.2930101726996921
-0.2596788908435301
-0.35572414687959397
-0.3343482522834623
0.4032523650565802
-0.36958014586946897
-0.5734154775968996
0.22446162203839787
0.1459261868544152
0.28302301890499276
-0.33438762431595076
-0.26834785827828866
-0.3279298100796344
-0.3682460060630078
-0.25839065812831447
-0.11985729783013949
0.19859706109244846
0.13070340173092457
0.13936048347610228
-0.23109761650419516
-0.2112447405350537
0.2709380031186831
-0.615088308385528
-0.2987534821987389
-0.10663640344786826
-0.147280819050054
-0.18657616145543698
0.14291179538617269
0.16864630960485255
-0.16964315090550275
0.13613712275241294
0.3641418730906067
-0.36166807458881306
0.1878561429643
-0.34971804453301636
0.3413560157561255
-0.33667325923544544
0.4153742689230197
-0.43552287901915665
0.2974354814520482
-0.2248139794204862
-0.24200095589863763
0.3209884202502654
-0.4783475689655898
-0.19914508843024725
0.31269489103043513
0.26585513485441414
0.18151600322117656
0.24007679593030484
-0.2840278401808588
-0.16629423249312544
0.24982276772146345
0.4062922494516766
-0.21308933819318537
0.45684752803148004
-0.1550570686585767
0.12061711309124823
-0.2361155272003426
0.13527271192564863
0.21547249001810365
-0.30443286537203185
0.16844651451955564
-0.12464308593879067
-0.32045538429084114
-0.34607130423105614
-0.2672156854399075
-0.49725325418110855
-0.3836237125363258
0.19698152698897345
-0.18938520629780708
-0.3562308859668796
0.21411454559448664
-0.17706811962320157
-0.27414432976946046
-0.322799621720652
-0.20916388959802956
-0.2012129400504366
-0.3045366704067678
0.21805302006042263
-0.2237857063588608
0.12962514164162203
-0.20315070287801623
-0.2630466848093435
0.23639898308752122
-0.1260832368834803
0.3787113600028792
0.49214079328678684
0.5692715099413532
0.21058053027300888
-0.5697243008192013
0.4420233774040815
-0.32797400826975404
0.2112588365495462
0.25377918605002076
0.24745430593234538
0.2883175545859445
0.42632793917056805
-0.34498960163114695
0.19767321877963095
0.3562416888879176
0.21625945151984663
-0.1881742968537672
-0.1361254027642454
0.2904624645969887
-0.5942549103310167
-0.3840415787824135
-0.10890064091715698
0.39287560561232887
-0.17081565767568582
0.2608854468090263
0.3102016216300741
-0.3425427319973817
0.2986552046115794
0.14989521418597976
-0.17250017097768344
0.12584008695460702
0.4707079398860474
0.423757346402182
0.3430825932181302
0.326358405043806
-0.09936764868186455
-0.17098408388127295
-0.37790468381639103
0.4266463188135935
0.28903625118724346
-0.1371382135047197
0.2798941435377742
0.4107330422349696
-0.34346741835116423
-0.2793761691337098
0.2975960341400961
-0.2914668107213808
-0.2656298968167596
-0.4234149610931024
0.19001926498185548
0.3189599374901547
0.07866970473617237
-0.42671811991726966
-0.33671536518496736
0.40972345051302267
0.29295527163926377
0.2273508117689063
0.385930724765235
0.5033854191194634
-0.5603087361514267
-0.15987063823187608
-0.19621157095276626
0.1592159652599015
0.2335669847327268
-0.19654195105464595
0.1800883710807936
-0.16860108360588494
-0.21117403945822213
0.24814964948361268
0.22581058382782432
0.2095752995301041
-0.22152793761911124
0.1558189006070192
0.17795111724182766
-0.24510762451636472
-0.3227828158868014
0.25866708336239747
-0.16054199094650026
0.2813611244330257
0.17763950523617905
-0.33266524758136834
0.154406473739159
0.3248830103805493
-0.15399210245419576
0.360241501034713
0.29442577849445367
-0.23665317216457818
-0.2772977188909407
-0.31396882368832163
-0.2928243446904075
0.14134679297785396
-0.22029456974732697
0.23252869889944827
0.37822762598349746
-0.09263207148073843
-0.35837720504619286
0.4970481713311683
0.5442323636362371
-0.38505055679618616
-0.22186374860246302
0.26151116868611174
-0.20563841835904403
-0.2889935964436198
0.23829355308272246
-0.19532751198705015
0.25677411229553665
0.1921823719939084
-0.27798584716196917
-0.22921615923109345
-0.2784757807401013
0.3920861304483012
0.3834571619661565
-0.35971614866617013
-0.24117119117630462
-0.48654699126487577
0.15777049868520418
0.23100393078463444
0.21246743568452853
-0.3105122009542571
-0.27470256339917204
-0.29015577105892465
-0.2184313326245604
-0.24769169354345894
-0.302889261326733
0.3762147641779501
0.34761767481600525
-0.43157043637212555
-0.12513967796444214
-0.22232119036522507
