-0.11024247440702276
0.08721272630505206
-0.10092239301013654
0.12017298988563607
0.08797349861011594
0.11057469461381679
0.13440165348211194
0.051653440630286804
0.10303053656664064
-0.09810053741627262
-0.1077441023249265
0.116403386935745
-0.1238032544159323
0.13911462189742074
-0.1247313564879707
-0.121628986372996
0.12043330327800351
0.12209422241579058
0.07630209916063982
0.09826169509852296
-0.08693179977938252
-0.1205481324901385
0.10252288827701042
-0.1183464928102532
0.09576882003061395
-0.08270176861021157
0.09886998200437719
-0.10931255492280006
0.10895214681440614
-0.0959274404069981
0.09821661531266863
0.1260628069543092
0.11458825891275178
0.10623737150537542
0.13438749749647086
-0.10537583357314007
0.11158479551807209
0.10430022976630864
-0.11038809234754934
-0.11790486689194862
-0.09434544273708796
0.10384323140260418
-0.09921903475795815
-0.11537584971756512
0.10615022924671055
0.1287017411953721
0.09153900137339466
-0.11325465451366303
0.10040283483492814
0.11615228952722878
-0.10909585603896699
0.12500438536952735
0.09608840855546504
-0.12539436977759277
0.10281944504192947
0.09927978765285014
0.15118185572367937
0.102646044870383
-0.09660775910730197
0.12953563134022117
-0.08241675317925097
-0.08475055044147686
-0.10941850315096872
-0.14104027239882463
-0.09419713863644852
-0.10177336421487887
-0.11260379103633858
-0.12442426671186753
-0.13425952704483687
0.09776829279765575
0.11790062042497548
-0.082862339961068
-0.08807737829431796
0.1134347561741104
0.15916466712097305
0.08079467881545103
-0.11679408040479126
-0.08323850607677272
0.10239479766698938
-0.11009286646741194
-0.10677968274296706
0.10251824572840089
-0.07493569892120472
-0.10562246574078417
0.13623360708832077
-0.09935433171175428
0.10020987673132302
0.11875677790348568
-0.12299564361259033
-0.10239053317837972
-0.08126352781217874
0.1213689174775073
0.11469659112920083
0.07217905379960106
0.1254540625728426
-0.1290448359579236
-0.12005651599392879
0.11312154372559782
-0.08776506383917539
0.10975253300032016
0.112890565696786
0.13581710648382747
0.09827038135273879
-0.13969349077421933
-0.07705127443306013
0.11053077528020784
-0.1284341961973922
0.12578165886944354
-0.08157004987786154
0.11484834683594025
0.12024302870715321
-0.09492913750311763
-0.10031988895034732
-0.11875683769712489
0.12472231915234891
0.1166808079845529
0.08062509022095345
0.07492300667247348
-0.10040813826128274
-0.08813775086941318
0.11777145036632733
0.10190683374549964
-0.10069625551218396
-0.10063007351698137
-0.1027373194945553
0.0983235804880518
0.1203203249862581
0.11225599265728305
-0.09844724582302525
0.1236196461987336
0.09043751487610437
0.12413826064436928
-0.13434315697874014
-0.08808996403642631
0.12271762003396706
-0.08342274217736309
0.13513278294838002
-0.11218199611600094
0.12534355896958838
0.13949953591881503
0.13966929683103313
-0.10107821475907654
0.12735238565215556
0.11502963967920002
-0.10351062879450174
-0.1062246676842794
-0.08033996052915895
0.1074444812054843
0.1089986320943379
0.10580318196587632
-0.09390105020408232
-0.12221226113458279
0.10970079883388807
0.11702550031474082
-0.1091457346179207
0.11720802588295431
-0.1147679494658437
0.11565494746824985
0.09769401914683708
0.10453715634305745
-0.10692114062740912
0.10041821671133293
0.11613033988065784
0.106960582848384
-0.100699943949892
0.12992525429833557
-0.06333500377301991
-0.11341618711096425
-0.12635797797085319
0.1137738150291276
-0.08603748282527271
-0.09859372643510694
-0.10556337973206134
0.13125301766892264
0.11718968609012399
-0.13671479684293122
-0.11796835570803615
-0.12501182165844416
-0.10411229696350602
0.12502228006424584
0.1339923425480366
0.11590095290270251
0.09498986449341876
0.10647473481343668
0.09281053940529731
0.14679992442746276
0.13439106895668898
-0.10935673076552269
0.1045427648622389
0.08695221959026894
0.11486038221618024
0.11915388712694916
-0.1033441785936422
0.10159877526531554
0.12404368523922944
-0.09642233743305147
0.08549235388338516
-0.0924097897505744
0.11713185722722205
0.09579165398899803
-0.115663428197878
-0.11245157195496615
0.13457384626065388
-0.09292544461016777
0.12919157528990247
-0.08197403512282529
-0.13145477899472607
-0.08905651965307428
-0.10162891404515358
-0.1001333624978724
-0.11839226195599173
0.15081119247415528
-0.10571086273822956
0.1278578404818604
-0.08187251565375124
0.07633468017248198
-0.07028098772405725
-0.10159318950383772
-0.08639851374735852
-0.10570277933969877
-0.11386649668501245
0.12491700162314463
0.1004090058697816
-0.12625239618473874
0.12581187438966052
0.12522485765588676
-0.13145240385220316
0.15013873271159026
-0.13197951362476923
-0.08748696131890014
0.10751239613196756
0.12526717529970158
0.12468574900754513
-0.07793463579891298
0.07955930837815743
0.12485948579955686
-0.09679237335369907
0.13275162829410245
0.11361577587788331
-0.09190451627005887
0.09189116630109483
-0.10011250997548123
-0.09374964501260133
-0.11663025519479407
0.09586931311865084
-0.13564178705737545
-0.09908114188011032
0.053266632024187084
-0.1009928704651042
0.10085395308751957
-0.13712740016149158
0.11613021785014783
-0.09663253693309828
0.10451850488611247
0.15030074360894283
0.12157171432040755
-0.12126157436053606
-0.13909950669726576
0.12695336654700093
-0.11587479268428313
-0.12380038251579951
0.11061236423146265
0.09218067049306942
-0.10196388170931142
-0.11112307980173032
-0.11677512628313085
-0.14447810627600424
0.12078564792016284
0.11501557289460983
0.10384863592404567
-0.1273196968362085
0.12216229892627811
0.10859426222502169
0.09720797208659183
-0.13456664329449647
-0.1068781645243008
0.12046057783188528
-0.08083114834447928
0.12015017731970612
0.09496170704063558
0.11308386524900386
0.09742911651689656
0.10116556472429104
0.08760412825798922
-0.1233221751208696
0.14549485784888147
0.11380682207591734
-0.1081203354098624
0.0989397026973587
-0.11285873757749297
-0.11359597996377002
0.10430996103527272
0.14787115215950414
-0.1038879442429072
-0.11041057330774627
0.12289415086240846
0.10486894882733261
-0.12641652105065032
-0.12152262318772757
-0.12735137796913015
0.08734916987541044
-0.11124769840268285
-0.11025818634466901
-0.08497868463957303
-0.1181051778192235
-0.10053839941987638
-0.09559010795728091
0.08993430454711131
0.10685233993590836
-0.10504099789430464
-0.1371399684742548
0.11818275657159119
-0.08928411668318302
-0.1386655537247841
-0.10430215940661418
0.10714865488427154
0.11123064491669955
0.1529963876549497
-0.11229062830613984
0.07046938157182427
-0.10982430565635677
0.0923564904127573
0.11190701184916237
0.13768566392797402
-0.0983920384464223
0.11820783765301869
0.08349772800915388
0.0963341523451851
0.11993242824592401
-0.10696165881946693
0.08609733982785069
0.1378284583980451
0.1043571868527972
-0.13384427686481742
-0.09988213680948804
0.09451831129068249
-0.09516984420339045
0.1306025633714013
0.1103630962284879
-0.0807748444644091
-0.09054927776277708
0.12154735578317703
0.12985462707575626
-0.13853181124071934
-0.12855045262752127
0.12064309263991072
-0.10078466316490478
-0.1328560911731776
0.08208274551248396
0.08322383928404019
-0.11949045201133661
0.11560261319825359
-0.1110131546291296
-0.09917506934016969
-0.11955272887195999
-0.10700383928992781
-0.10470038604102007
-0.10772245940765407
0.10807435891175174
-0.11357398049622955
0.09938610517865969
-0.09472575380852764
0.08376546365595913
-0.1123684363036368
-0.0824813449074651
-0.11992663227405966
-0.11773313183132986
0.10913029068355157
-0.11930549699155131
-0.11527035159885264
-0.11618095773683255
-0.08975649692174878
0.08738377994103068
0.10363579422466135
-0.11178090934285678
0.09467067347751076
0.13528941220802634
-0.16040565241382684
0.09820781465114867
-0.11128539566764652
-0.11445056911099503
0.1086494843704036
-0.14767807588167575
0.10883211857293157
0.1563226758416204
0.08995912498468055
-0.11851114461888851
-0.13357965351511297
-0.15095990531453074
-0.09300091635963606
0.11075631563188992
-0.09393983448318612
-0.10642959181091836
0.0821582480630252
0.11763370815115501
-0.0946838439719336
-0.12582316652180084
-0.11919203492928766
0.1143722751875205
-0.09099609281403646
0.09224483848706172
0.12580139032624194
0.089056380605723
0.11028177583431677
0.12913755804598148
0.09358922996683265
-0.10882083525864406
0.11810953410870359
0.10549313421889606
0.11168001885516904
-0.1308947590090045
0.1262234770667412
0.13087962165276074
0.12441733423211476
0.10528623619430048
0.09096117052639
0.10749863149267884
-0.08946413458885921
-0.11498276708518151
0.0912397384976506
-0.12954236570799946
0.07792824113946614
0.08386694490632216
-0.13422218239421976
0.12793617394038953
-0.1015729851909504
-0.08897449797059379
0.12274446678958437
-0.14011310694676127
0.13156933983547023
0.11268769900899335
0.1183887757952604
0.08165138974640497
0.11202108057284323
-0.09877864118022076
-0.09574492902235644
-0.128121924926718
-0.13938557381437403
-0.13839273020321588
0.1280409685552436
-0.11097821151922012
-0.10776587488397574
-0.10884703742059208
0.09534960101886265
-0.11228126406945024
-0.08498783170794663
0.11229797515839321
-0.11807829783005588
-0.11236563152983264
0.13245956003292153
0.11745042455937575
0.10365739299359683
-0.1532548896197899
-0.10116137379392964
-0.09434789886827753
0.1070637577205642
0.0954706533895989
0.10037889395966691
0.1144605465842792
-0.12478815535439289
0.12432038799090037
0.08744459047926917
-0.10306935257690451
0.12714756421540796
0.13121328847285724
0.08078128805772128
0.1046731727707197
-0.12925890241821558
0.10650328946680662
0.12431777922486492
0.10920043913750274
0.145765403942187
-0.12161878816817223
0.13981854652184805
-0.09729169782454587
0.13487126561588889
-0.12052056655090984
0.11433563887372429
-0.12646007590147318
-0.10408593945450084
-0.1260883627033003
-0.09786825721692102
0.12335849818360008
-0.11597644192678158
-0.0941747331744741
-0.10872317062009511
-0.0964137689544008
-0.12972213530391832
0.11022408482197586
0.1448146140951312
-0.10720662058678987
-0.12534160622882953
0.1514044175796873
-0.11358711071828105
-0.07794763672639379
0.11932743343447881
-0.11144276312377031
0.09955006247425773
-0.1058926232814843
0.12587710318348652
-0.09835504266617477
0.12279120463854647
-0.11394845153720812
0.10278238598648831
-0.13690006895312257
0.10521971392063204
0.11637562000058542
-0.11833425413965512
-0.1091504730001845
0.11831393245540865
-0.13899090784766827
-0.1314718013974405
0.12389049946677456
-0.10285215088028156
0.11299139973132853
0.10774420519718979
-0.08891366493015253
-0.11200074207349647
-0.16802928699578482
0.12094009192124408
0.14440793283539327
0.1088468746401563
-0.10431031058067691
0.1061092472604141
-0.09580959318745623
0.09844917865332442
0.10785449211147102
-0.09544246850422551
-0.09845989632266783
-0.10949464168811543
0.13139168801614678
0.1148302196047817
0.12198225738839463
0.11424995161015891
-0.12207170055095007
-0.13207363183499926
-0.10314366320140016
-0.1265364827914739
-0.1264172893542391
-0.08969061009124782
-0.09626647828970897
-0.12138806943698606
0.10994857925749242
0.11281623804873862
-0.09725631336845911
0.06824927547086711
-0.11558109516367834
-0.14248646802177675
-0.09480761308372562
-0.13537403952586444
-0.09510819269271653
0.10946737457962853
-0.13251113974358486
0.1454016565433938
-0.07016399719126226
-0.1000687822205647
0.11560323785980109
-0.09883051880136819
0.1279860882176677
-0.1124746564724419
0.14430696912968466
0.07864763316704836
-0.09742123761845622
0.08964163957909266
-0.12218193840282408
-0.09403060782720961
0.10283151347560661
0.11646024625789694
0.11456212601831295
0.06236519659093534
-0.14427025486737693
0.1274273696555844
-0.0876665458740351
-0.08384784050758588
0.11487576402320754
-0.09929536218128857
0.08741868234642909
-0.10561908287264984
0.1427061416042062
-0.11290986046065016
-0.13286543493220973
0.1136308860222159
-0.13297626252103686
-0.10627306840613367
-0.09944067226984361
0.13885723247237278
-0.12403720693263007
0.13168430728247438
-0.09952744615348304
-0.13316881491896715
-0.09234154207539091
0.09984430326330108
-0.09752783398095821
0.11234160018836008
0.09876544894888008
0.10158906585256748
0.10137953731828722
-0.11238709527574436
-0.1016732798862397
0.12115023139598134
0.11419913147721267
-0.11259897118273615
-0.10675836128591587
-0.1107276036796189
0.10307964135253676
-0.09330721956198397
0.11425649492935358
-0.06882431352468915
-0.11821588688509
-0.0770609497582678
-0.11623852781190137
0.08775063614080134
-0.10449070062540759
-0.11582322682749074
-0.1131536462433671
-0.1338374600637589
0.1339805950716725
0.11198613608558439
-0.13241517257342025
0.13932302997276688
0.11030637963078399
0.13729786424830645
0.09695542907233534
-0.11590556263442486
-0.08737382534291416
0.11267350864621521
0.09648820562232235
-0.11008177857564655
0.13665324663361536
-0.10902272586023536
0.13389754402115386
0.110504640484802
-0.12807740133241874
-0.12696017401844265
-0.11162300732549722
0.08642729752806344
-0.11405752994955354
0.09245874875857078
-0.09982595187301332
0.11551556850186023
0.10524026567039507
0.11747691187243121
0.11843980150901143
0.11970228574700335
0.12958171815619735
0.09987366121811495
0.11969204408380539
0.12782013292725236
0.0899076913791055
0.10963210488071508
-0.1138175564077009
-0.09708247951930897
0.10931708141350775
0.12595150840982666
0.14498703552007455
-0.12980786381088583
-0.11611430008949153
0.12087959908864303
-0.12589877406593294
-0.0991372119190974
-0.11609711821513218
0.14742811413188425
0.11413585505571605
0.1144122134915634
-0.05780159112224042
-0.14024438406948062
-0.08983814391503947
-0.11955269796140094
-0.09519705534028772
-0.11208285311260795
0.12471059447899674
-0.11675977521401144
0.12073418308671534
-0.1304734214447462
0.12110561663259416
0.13961863299717064
-0.1265905286340572
-0.11614849731017324
-0.1611785293828602
0.11616456121332698
-0.08056239196067208
-0.13500167170401528
-0.10650025412510457
-0.12155191304834391
0.11814118689708096
0.12618730386728771
-0.10845765719744181
-0.09629136783519239
-0.11593116181531342
-0.13394756795493218
0.08525968849484288
-0.1216751683667567
-0.1349318334982306
-0.11338817666959397
0.09737285930804644
0.11649471208547586
-0.13534343136931204
0.09566181108731338
-0.11287120843562029
0.13310024844643834
0.1249387804648333
0.09580709279770946
-0.10910633947080688
0.12957386325443532
-0.11520147461247573
-0.11298312854021085
-0.08018830450405674
-0.11926581450262438
-0.10500473259461926
-0.10231165927247622
-0.05287971763775673
-0.12531001704637904
-0.10188087585596546
0.13569758307999796
-0.12116672765395092
0.11548560845254315
0.12085051351873581
-0.14500336248953108
-0.10652068901629899
0.10920354986247723
0.12142159438664332
0.12398778811747063
-0.11002217808137714
0.07954248697496077
-0.07917039909955755
-0.08625724354107807
0.1112655030327213
0.10327340656634838
-0.13209415728739587
0.11197375734586233
-0.13074164454775467
0.11787925062984002
0.0908160074417
0.11930702679212901
-0.09352137261850763
-0.11991986752834645
0.11630629616798067
-0.09357438979570418
0.08810574373667529
-0.11193205505594464
-0.1291736639669403
0.10840829690456934
-0.11414722444940444
0.10534040082883464
-0.12274319885094277
-0.12029867263170806
-0.11338887457334475
0.10604263450947873
0.11436652823471262
0.11329809874454932
-0.10862161951388453
0.10552545355894129
-0.11078957490866101
-0.12822260499590735
0.10636488608293856
0.11937337699467399
0.11079900475283468
-0.12709349152074617
-0.1251350888163861
-0.1229244184793778
0.11631458471374934
-0.1099404016066033
-0.11871466146307391
-0.11697444635734618
0.12357368794218992
0.11021383265201799
0.13447077067102267
-0.0903030055351199
-0.10226940173206221
0.12459120875069972
0.11704189752460095
0.14723439436848945
-0.09659291757149216
0.11269947785809069
0.12094820679903016
-0.1156168738199314
0.10209585494544345
0.12521471239310586
-0.10024773871588842
0.12052041101121536
-0.11141354987824889
-0.11836834227339237
-0.11457538724852712
0.08574622851273445
-0.09502181443592428
-0.08869420482922429
0.09806897805811511
-0.14137676657331624
-0.09042314642219137
-0.11095254342780247
0.12241917118564828
-0.08359788456103114
0.08702643046213102
0.15511701810405215
-0.1232965648416426
-0.13079991174477293
-0.11796310264899515
0.1067688140985604
-0.12806054587554214
0.09174525359411984
0.09217100341857154
0.09351246350965113
-0.09439598208152883
-0.09850593574697902
-0.10935761338940175
0.08823926898372711
0.10757883356978329
-0.08191164872707266
-0.10424837378092322
0.11343389663737613
0.09173153894879259
0.12853902460100092
0.14327246003481844
-0.11983401072757367
-0.11082967976560279
-0.08824283346103529
-0.12772834277131564
-0.10919933577785793
-0.09566936011508542
0.11550275448390127
-0.11101141007241541
-0.1012999717865733
0.11456672058379633
-0.09361399575743902
-0.06411123581119842
-0.09437743147041955
0.08826378270642848
-0.07376081887746591
-0.110903898586009
0.10806848956103804
0.1190347684726265
0.12125014791593841
-0.1223306394900109
0.10672126474824567
-0.10883577146906444
-0.12419175348321403
0.17731489010042753
-0.107297908824959
-0.10726705520883834
-0.11186036725645378
0.11079143309070666
0.11477420686398847
-0.11031718718810486
-0.11451904098496378
-0.1303903653251785
-0.11203916757284653
0.11211660152589102
-0.0955070155383693
0.11024269647818039
0.09254077847429783
0.1267536774729527
0.1088334606399573
0.10809900652839881
-0.08672247389447998
-0.127608419224157
-0.10353880476465176
-0.11579608807641238
0.1118708850317567
0.1128726651369151
0.12191380157398728
-0.08029342708226123
0.1186347761047145
-0.11018380835409207
-0.10863951961077131
0.11335377677719254
0.11038056307844615
-0.10544220508394782
0.13803924140195342
-0.11456120525875792
-0.10347502714309975
-0.118975911508039
0.12406437141854804
0.12735738807187988
0.0799334998603902
-0.11738126058817837
0.1248799878589257
0.11704789246049252
-0.11872020759562803
0.10252595998815496
0.11119150065179402
-0.0977158127190396
0.120780487628971
-0.0895220293960286
0.1382600957999254
0.14736852408943357
-0.09616379286570462
-0.10906431329473426
-0.13257859772026484
0.09871717632230799
0.11103039106586005
-0.10003349262075906
-0.11635814050367935
0.12437964280306267
0.10737168483343773
