0.2120959377356482
0.18998268974366908
-0.308233332648706
-0.19922420568545882
0.15671467587977825
0.23736020066053895
-0.1936740213551682
0.22505949738148737
0.25866653580701304
-0.1485798402346704
0.13008463327518532
-0.10838974534096385
0.2045064759937468
-0.16625512413509094
0.1581444976043065
0.18863035842758033
-0.15066001002853555
0.18823286567555864
0.12545192555254786
-0.2966149475650708
0.12698909510663653
0.295817497250104
-0.14484833685821874
0.26163141218609853
-0.15203563384101854
0.3893792262237492
-0.11933557951623533
0.23979284741732795
-0.25778253780375554
0.1750632973904318
0.20181123971699122
0.22586729234196384
0.20633812092181208
0.4607535735820941
0.3433343484067007
-0.3126035371498859
-0.2889387334984945
0.2012399140337243
-0.3479966892494237
0.3418996586738441
-0.29408804340018263
-0.16254524702584378
-0.20778419964420441
0.3742993566647686
0.3115280062359309
-0.14354924360792035
-0.1267171049818128
0.24948418343307305
-0.19387139286746138
0.14418657818611083
-0.24935352390386287
0.26657792531125885
0.21387501951412274
0.13932199417183155
-0.26778880063962057
0.24560843268324545
0.1855632804478243
0.1885915635549732
-0.1909338893262208
0.2044453580227148
-0.17530688415044876
0.22475116332302367
-0.15509152457626324
0.1519179620670907
0.24481693484953196
-0.1910509472943342
0.3046071489216188
-0.34301339579817236
-0.25273889728753596
0.11509261338792003
0.23552424075639225
0.32344993441850317
-0.2642380010614917
0.2514185379362136
-0.22589440093330845
0.17050335674386843
0.2964448134106496
0.342199957704494
-0.36571443654109975
0.10947128233010138
-0.35808914374806927
-0.2057691349737157
0.11706833412325703
0.5057837333844176
0.21759524858574825
-0.18498139346239467
-0.2648000606493851
-0.20056068048171463
0.3442769933371545
0.18558051451096852
-0.07438036423062008
-0.21228303693684367
0.23476889100736117
-0.33262627876819545
-0.3361363395309277
0.40346540370015893
-0.15246660320821054
-0.25229737485173787
0.4731234974331859
0.2201305997799591
-0.2945449537498867
-0.15241730672944245
-0.13317228777721163
-0.10761654950715566
-0.1665332343072028
-0.31540121957634004
-0.3467959335257913
0.5406810482793426
0.3325309784498718
0.28054774765542306
0.15085047034250743
-0.16725774152278092
-0.23909271928136333
-0.072181716235813
0.1227411316312468
-0.11287706397935122
-0.17744089113369885
-0.19791644609432574
0.2677441507175568
-0.27443400176415794
0.1936553851059818
-0.14899866215690435
0.1781185988617852
-0.2247910731674923
-0.13305914687952633
-0.43118822356577846
0.16904291991083437
-0.2234678021113464
-0.125149965134778
-0.1990030445464138
-0.2876556154738704
-0.31929660121055153
-0.23056177993374813
0.1821823636165949
0.33080474909968227
0.4939341645218275
-0.5226951820103674
-0.4087347411034477
-0.3121167237524225
0.21988840510479774
0.3553893099926417
0.15128610461029382
0.23510164095263572
-0.3571467151426878
0.23387521922202684
0.20668397228221128
-0.3056873909905345
0.3297460604680585
0.304260092027205
-0.3122582388001131
0.25321514067278533
-0.21259295406907402
-0.15190328574471657
0.25520929888682126
-0.366299709285578
0.29305008274594113
-0.2222534429093489
-0.25412804703588704
-0.23615092444890995
-0.1883214042071551
-0.49814071773649077
-0.4565293669540589
-0.22258581384206905
0.22370954609459426
-0.2597137262623641
0.27967768827964834
-0.23004478057388977
0.12350949354165375
0.21986576782062084
-0.3135052780172834
0.3885733256076272
0.13735905069654533
0.1448209517926269
0.2462523516406662
-0.17049482919489956
-0.2772362648906896
-0.24644280138014346
0.14598214527149878
0.09644215426560102
0.1589558171544217
-0.2053550865350933
0.20455419515251613
-0.14837442949376525
-0.37392995704930987
0.26567678568840225
0.06324692143193646
0.308010413294271
-0.33669302744442614
0.26174854817415394
-0.20077015030523987
-0.2957263725597884
-0.2770234852538447
-0.49893888298613537
0.2370317266877263
-0.15608101601368443
0.2966396061331438
0.31020206435466025
-0.20965595685199853
0.30185483285021303
0.16320211923396405
-0.22088573924361607
0.29552005127551645
-0.5112495249944642
0.16867082737712996
-0.5429748029462871
0.39066579244172045
0.1521146366002601
-0.2188671026737354
-0.34466534709066937
0.1506027608698645
0.12157912659942031
0.3421877995483685
-0.25856483387181145
-0.11686346498829482
-0.33771397997318253
0.19843735478954083
0.13079095020701448
-0.43250792252223147
0.26851652513668334
-0.21370514665375007
-0.38358121501734377
0.2666862768226874
-0.34617455115794454
-0.15187343805849757
-0.16796002017621434
0.08173109174775352
0.15553100045278415
-0.23585560985431836
-0.06662438975363247
0.3397578197074136
-0.21235315899574114
-0.3645789093989175
-0.23646416014792335
-0.4464423282527739
-0.14380087536537198
-0.15141882785021524
-0.20395414694707062
0.1316304253009033
0.09951368632861637
-0.3505213285523327
0.15614228240754
-0.17863652256148482
-0.19325639956287372
0.18973616586473158
0.2919397544511179
-0.43904374924256256
-0.2976988735744161
-0.2891531205894707
0.37822368927852373
-0.13058308247983033
-0.17692757502076306
0.22215707526586645
-0.35317840525987826
0.30965201770908146
-0.3161164611116801
-0.2159007661176982
-0.16296321481119236
0.18059841544217062
-0.18517262191146336
0.22062012439044384
0.09706044550626945
-0.4380854490696102
-0.2013825813756364
-0.18258291361801549
-0.16343068533314983
0.1754418026944144
0.12185742328779152
0.17547069208454685
-0.18012501762336056
-0.21401326101805504
0.12000554148761512
0.30261852727147476
-0.33327191353500085
0.24812870264515713
0.24989300495909617
0.2926844179716497
-0.17794700484398454
-0.297194980763855
-0.2182871789825285
-0.20724758316000488
0.3372723527381352
0.3407561958833645
0.36314515456052643
-0.40960091437637736
0.20156557066292213
-0.12012228654982922
0.3948027069560084
0.26508210632857376
-0.21533192183542327
-0.23491259218436947
-0.4434252615667369
0.24686726085271993
0.43249691576145355
0.38874987473325545
0.2523061238040955
0.24254817760629108
0.1416038497805008
0.35268860141356956
-0.4497651828685683
0.18198505079170962
0.1791906331726487
0.14956043128615498
-0.2771191065912918
0.2250506323197533
-0.25271307498526924
-0.3529688634004563
0.2446084355054496
0.3424397198113546
0.28107348375968744
-0.17997106412255034
-0.3504406950224159
-0.25020359338724124
0.40591662436764575
-0.22735704980096072
-0.2367005435464887
0.24674251417505835
-0.19291275582641215
0.33089296753337727
-0.2641379965482955
-0.2318387741469571
0.14467343421682377
-0.15721159269871812
-0.27168195319035204
0.18131449334934469
0.18912417521268768
-0.18592172284692704
0.2500582943996489
0.23810971813403936
-0.4343162907703035
0.5399722571752634
0.2395003080569484
0.13648585539130142
0.19460825294883147
0.20776746105548902
0.19266156104179527
-0.1711663318139485
-0.18021366998800867
0.16085649697635565
-0.25934347380619494
-0.30941819371949186
-0.5569299021882639
0.23433814633171235
-0.23132185950964282
0.18590969564127907
-0.17388316656809802
0.21159019630605896
0.3630094263555945
-0.17764127767676324
-0.27179405836021664
-0.30765391505758066
-0.3170579778357801
-0.3782849300866593
0.492164639626786
0.2363051028510443
-0.10874166887195574
0.15748763734227525
-0.2818586469933494
-0.23767931582688168
-0.17787430605830445
0.17660491566449474
-0.3075222392665063
0.24823690824595993
-0.3385352240676995
-0.19560269506728487
-0.183733262273274
0.22255066913833646
0.2461559594671921
0.22416267767846004
-0.45736368255488624
-0.39144707241653914
-0.16224455436400975
0.37700466245649805
-0.3433442936466446
-0.23321531238943385
0.2874097115422203
-0.2771104033297777
0.3433389097527498
0.23413546571346303
-0.31899182544523924
0.18859887736382688
-0.13682235685732616
0.2629901787420214
0.2032822689981065
-0.2225137437609873
-0.1651435266695253
-0.263331202667704
-0.3172823031787777
-0.11960867267308233
0.22457350910765994
-0.22363915987421693
-0.13507782042309036
0.2136867139441381
0.28449146112749857
-0.2311667292054966
0.18006280736962543
-0.27802772195671227
0.32621745853270373
-0.3178305348850574
-0.5086404845671517
0.09894164486561591
0.16662120635467967
0.19245209312739658
-0.4140512006742821
0.23522850545909235
-0.4840023552971139
0.27303713738072655
0.2410448547520691
-0.3727920618132618
-0.2450939054671321
0.20139673076729436
0.19575720807507854
0.35658237897290684
0.3187764706772737
-0.3289600905072277
-0.2958489754510759
-0.36496006550924087
0.22687779719789403
-0.19175944713430682
0.34882365501301754
-0.35866111798947403
-0.48198450344436866
0.2421425868802003
0.23829116760870572
-0.48848213172092914
-0.26935121943635115
0.40179240341088973
-0.15744829394727272
-0.44672146264552676
0.38612723271766936
-0.563692342488666
0.23352041194951692
0.13627284387031058
0.17153702578791133
0.28173426289550707
-0.3417373848587707
-0.21866488504888051
0.38197794627261245
-0.3268741968309118
0.01138407818360015
-0.2829703052056116
-0.1307315276765628
0.2551878046808433
0.3680644542442167
0.06431972769447096
0.1616960931315847
-0.1809320927303093
-0.24508037797426332
0.13072907228801353
-0.24465059038503004
-0.23660836898424825
0.10462140330602045
-0.25167183978984986
0.28060934308555496
-0.14209380232300112
0.10153813055414398
0.17284293274504717
0.1743345154300845
-0.2254270000713788
-0.34571818584965774
-0.3422884378477174
-0.24392776632991095
0.17956597678449973
0.17078407314950875
-0.2787281340420384
-0.21010652429464854
-0.365476639433914
0.2522970310127816
0.3588921312111114
0.22067159654505242
0.16433668925884673
-0.20808181396197145
-0.3255440477365613
-0.18899036317513937
-0.18092017955748035
0.19986127166260798
0.312233408080778
0.20624795902407722
-0.15166166434155073
0.20081389844341105
-0.17871543708779486
0.2057004128039701
0.3470222039214951
-0.18236587605980878
-0.1795418310188239
0.3124386947036019
-0.2242983309554317
-0.24325778012201935
0.4094601273725134
-0.34147169595312366
0.500202022891204
0.48107722276886555
0.2526824158462042
0.2710680636993486
0.2944349842780151
0.1962749392634676
0.27245414519679734
-0.09789359536256385
0.23345273260884022
0.3651167011985598
0.3004848864280736
0.2642759971042238
0.20438633333058118
-0.3803519920868934
-0.5633245115129263
-0.4403632579182912
-0.21028318548711375
0.23736515935763694
-0.2520458089060829
-0.16321289723752627
0.16085821657810212
0.30770287783289246
-0.1620457388819442
-0.18287653555479405
0.1342701414240761
-0.17501852691017644
-0.2675842787322526
-0.23994216060604184
-0.28497805699256346
-0.4063901185797736
-0.13350650383824797
-0.12469856104374213
-0.3010339994010483
0.3233575690212111
-0.025896716407503576
0.1042783556716572
0.17464221551258885
-0.2863469092232479
-0.17671718527312263
0.2040089409280396
-0.15758979172925108
0.181080642374098
0.2464986785921465
0.34101861476931605
0.38071847887658866
0.31188534574965926
-0.1490259906364828
0.1601984041570601
-0.2634511873078026
-0.3282267924774984
-0.1818887678022592
-0.3102959272584754
-0.2945025898230421
-0.3503783021018855
-0.1589616096386149
0.13692068989357203
0.2870327528683263
-0.33014146564988933
-0.23912087434679163
0.27063432785039787
0.1983448999794934
-0.3645270689171687
0.46661024305045334
0.2658803219923095
0.2598437565218775
-0.16320629556101604
0.25797131113991834
0.2345963616186719
-0.2535827037679371
0.18767057213183827
0.1730361830225545
-0.2797412327543957
-0.2052349038587133
0.20240194244777884
0.16807984240012072
0.25698960860578285
0.25648081622349456
0.5004583295030467
-0.5432532910123441
-0.5084683211562703
-0.21402429964263656
0.6266779977922782
-0.1796678026198289
0.2303204514401206
-0.36023560901423174
0.33266555616818694
0.34796850250344225
-0.19627859442744564
0.2974222332403268
-0.1525447975470835
-0.10782104883029789
0.2638655160592568
-0.12777348747938633
0.1836283195767673
-0.3919519515200141
0.28534486070773546
0.20470059524996753
-0.5130283780341168
-0.2050104398969732
-0.20521195873300718
-0.2489690271025438
0.2793158944742064
0.2915212621219632
0.2774198807181975
0.24112408108212732
0.255383573484097
0.42590027980751605
-0.07356305356096603
0.1335305611241771
0.19767050034713143
-0.15349387273585816
-0.15566631129073047
0.15380915643527804
-0.2777935856207506
-0.18428600576526008
-0.17300074368763574
-0.42870122900291907
-0.15644144045514966
-0.36576107292140364
-0.11696864211691985
0.2064527632429932
0.3136737233681941
-0.5039429419488088
-0.18606714144585407
0.3409009734718613
-0.31230691953726014
-0.15773626610658023
-0.46094673693364346
0.4791627645375544
-0.1298350082414256
0.2646254992888186
-0.24387170708019668
0.18511139834317714
0.18755198957508146
-0.1676908979147728
0.35384274951671674
0.08172282462208362
-0.3680611784097687
-0.5120923490075054
-0.2855144725125487
-0.1666410988862867
0.2573391011799984
0.20223836937420256
-0.4300825752157981
0.21924531937954556
0.2887062162362956
-0.1648852350622371
-0.269608325042289
-0.26982841641657235
-0.2762798074765412
-0.1950474676809099
0.2536714665853393
-0.3401946671110804
-0.22848012009956606
-0.22517650024002658
0.3002021437793718
-0.21960226140559114
-0.16601191245675567
-0.17455958919616585
0.2563682804101869
-0.31637187531327926
0.21763878169917728
0.3452463832640255
0.34767338841335516
-0.05638421463814488
-0.46412201487539356
-0.20759896626027627
-0.3271065003651543
0.26912000977082795
-0.25694952818082056
-0.12171815510825575
0.34286868058083664
0.10026106417061907
0.24898406959876987
-0.1666924232169853
-0.18261638155266127
-0.25113152555696283
0.24770797682164783
0.12294577708917949
-0.5266320323336221
-0.35462354196603574
-0.26201292098284157
0.19797999235134445
0.23104126890937476
0.22063886762518004
-0.32937560273680233
0.31011043225078705
0.13156998897839658
0.3480970153374906
0.2830509681085136
-0.2694278158167322
0.11553678841642277
-0.20860284367065896
-0.13981842914284584
-0.36121306670374825
0.1898290718730164
-0.2769387639982464
0.25927208564061166
0.22538870723131507
0.09773073784651025
0.42335385050829916
-0.22558417699397093
0.1997962168629708
0.29115949472208835
0.15427298647911045
0.1287327901833846
-0.2494339316253459
0.2447737705762855
0.16418994156228886
0.305359977139176
-0.4425729183120556
0.4919090355110138
0.45014355956288
-0.17978767931057446
-0.22480848005901438
0.2688599675165527
0.18346553021563275
0.1804994974568592
-0.15658265435500845
-0.23621673656765232
0.16789478790467732
-0.12409249097021588
-0.16902272665566404
0.10916396724053773
-0.22882227392308616
0.3273134743154584
-0.21742290776242407
-0.25932488018464706
0.20576643975144607
0.20998617129397132
0.2548732677936559
-0.314285055500097
0.22323022164297954
-0.22690069899866275
0.2433946834728991
0.25040071883601134
-0.15859516908726176
0.22015558389508996
-0.45501289468781664
0.16417116428042877
-0.18277418616481225
-0.181611531181184
0.21291058016441405
-0.12019330656507805
0.3559791600870619
0.3554290491345032
-0.2928388090807874
0.4620449619416007
0.3154094297892455
-0.17837490982419227
-0.2691268983490647
0.26072959478712704
-0.4008856229332813
-0.24404507753473156
-0.4519702244106743
-0.27481530008519023
0.20637658078146875
0.25138314169954484
-0.1764729528314052
-0.22350249317268336
0.15876794593297822
-0.17623171409408595
-0.33912806629368264
0.34299549988485184
0.2631071871878256
-0.15027938983923933
0.22835740528264417
-0.224060589289695
0.12431467905758761
-0.20445859539352157
-0.30345532619379373
0.19114457924600947
0.30016005531120743
0.23761879260678015
-0.17971572127194915
-0.298845755754756
0.2821887458989166
0.16537233220521028
-0.18363491604033608
-0.18441415119554402
-0.16733243535153794
-0.2686634133722757
-0.28162178964867823
-0.13424551689092323
0.18844878537254325
-0.16394456193519108
-0.24760472312510348
0.20785628633127926
-0.33507155061365324
-0.26952519936725305
-0.4271896537497889
-0.16199087173435728
0.2110356448519384
-0.3095135557592366
-0.18452669752229411
0.3953048885993543
-0.17579004691921005
0.2026580384383761
0.24937511894834613
0.19864273767297952
0.31606436195543436
-0.1994931389413712
0.24386869034135172
-0.21582879351204987
0.3446696139076682
-0.22039263297002754
0.24279899984072897
0.2792644013231471
0.09915092477075355
0.35173586333178364
-0.45588996422232664
0.29080251369153826
0.38085763549916124
-0.35005935251229753
0.19586816283788014
-0.1431716341434889
0.15887601943653132
-0.2240330146519352
0.28670436547707007
-0.35876662467687986
-0.22896924439042965
-0.2561344123495535
0.48320038124016085
-0.2764831982590246
0.33446313701521413
-0.35016307408096997
0.27619174569963095
0.18736546859050793
-0.1879048946178031
-0.3353576533341733
-0.2928639273691098
0.3786081067911002
-0.170281393724725
-0.40127399518630225
-0.346266043676039
-0.32965651165147025
0.3134006814657158
0.19649644703768854
0.18106058931554248
-0.20766434038082052
0.14760932897417664
0.2718031600736408
-0.29307815801411274
0.3124605512941922
-0.16878292501730308
-0.31630343958739815
-0.311659246851729
0.11568242685405249
-0.22528370429007769
-0.44860017618207465
0.5058307203171575
-0.12639290162750605
-0.23759469651564485
0.25561784824148476
0.22803002783590817
0.20091024128736423
-0.2790073803985788
0.23686803225023736
-0.2722851659831165
0.4049771898842439
0.20671597063724942
-0.30875743516706894
0.4387203497058032
0.15163283315285261
-0.35970687680090263
-0.20547878866223895
0.4867889406432071
0.4623692779640697
-0.07518905340283068
-0.3916789983361313
0.15362273324446327
-0.5448621029430938
0.22240556647969095
-0.41671818737531885
-0.1868660958707045
-0.27402211636543894
-0.3313400463073706
-0.21640436718298167
0.5080412469878618
-0.12456376373847783
0.1982560861730221
0.15523063684822852
0.37264950517675377
0.25221546714996074
0.37795914912195516
0.16687426550966816
0.1432507475833038
0.1859082796696886
-0.08280349706698377
0.2853491839684834
-0.3549737195753065
0.2247785254669305
-0.23839417531417423
0.322523867649956
-0.2978042224515047
-0.18779084645172278
-0.2752641594819419
0.3242362246559855
-0.24050937289539057
0.2104716574357102
-0.29978597738058976
-0.15903971572763487
-0.26903215161095617
0.17143920855077682
-0.3427359983886933
0.17917583530575576
-0.17766609818516166
-0.21223615211142208
-0.12845769037042465
0.4701664388242245
-0.15513788446735968
-0.3538262945459096
-0.3054724361597233
0.1895076815523931
0.18171298600367014
0.3071496052441999
0.24683522010180406
-0.31063827655150517
0.23544532287426595
0.03760583017040025
0.6063410388024485
0.4277493568416103
-0.32415549027276086
0.48076121095981544
-0.38853613744954435
-0.3975894702540346
0.31328410873393303
0.16869889232501162
-0.1789384070423438
-0.1999257237161741
-0.20360916171119756
0.4519427969285287
-0.24216036249439518
0.2894905451024417
-0.22864122622708144
0.23907707947593776
-0.18622677273250973
-0.1527840185297413
-0.28497492111782097
-0.6362806926423894
0.461853222029572
-0.23065390245436562
-0.2195386125772825
0.2024744068729685
0.08958052597937183
-0.1533926014091712
0.27014118203642223
-0.2707971667532497
0.2475305840878969
-0.3815221366875551
0.07591461070254989
-0.17216435291613816
-0.42898568125812886
-0.2550262548670529
-0.1960423372259588
-0.15063294621443601
-0.27883581105027455
-0.22242182312511075
0.300768337871277
-0.3001966512627316
-0.11279484472702603
-0.29920142791837
-0.25141129857678535
0.3029161957765557
-0.3225820722448226
-0.12263934250161396
0.2950136815568411
-0.16012207214129845
0.43027472215865975
-0.23038234982545241
-0.22117709345381867
0.38348858435908145
-0.3843809590131592
0.12560051444769804
-0.6100090332887164
-0.4508176680427523
0.14930428806680035
-0.3860230858491706
0.07617395261050018
-0.3227876317016956
0.223799227082946
0.18281706828175256
0.2319531112894326
0.37241004272012235
-0.29168851675502205
0.352926366531437
-0.40994834323570595
-0.2219861049778332
-0.28009518828592483
0.2841256841793547
0.39423176627585954
0.40111369694462146
0.35731614059081507
0.16900789209246053
-0.24607957864288763
0.1664715667932874
-0.30360198117248605
-0.19503563947933267
-0.21545232892463465
-0.29076899145915125
-0.18643985081139167
-0.17078347353941406
0.22520180386422872
-0.22929526649664866
0.22231634428952957
-0.26205809466744573
0.20502680255761982
0.24146063493835387
-0.264232613026939
0.2714821867778009
0.5776228773051734
0.14935998202221945
0.46586927765242264
-0.3024537966756893
0.20806385011381837
-0.3473876327749032
0.12791190240849032
-0.4305047918573787
0.5439348439140502
-0.20737620043886337
0.21654772059132865
0.18015726159483988
-0.20340444497647048
-0.14377183535376944
-0.23010150827051254
0.3347274207494943
0.18303245637937632
-0.2213581714713139
-0.1635405671404939
-0.4133134345145505
-0.2817321126131082
-0.14350518300987938
0.20945793139066368
0.17288634993163612
-0.26100111725209174
-0.19917836492078617
0.1287630473831469
-0.19195839170274154
0.25853177223434276
-0.14935236406507205
0.6253544659259928
-0.12767390573418555
0.5387197362811483
0.22344507894228752
-0.2873349608310152
0.161630776620316
-0.3140986582685401
-0.1710233940849706
-0.5516385444045949
0.45778155529691833
0.28014593902230744
-0.3598367090039121
0.25706359553431424
0.12529813215256588
0.31545618502777595
0.3384034151257389
0.17818611456942035
-0.28512623407076243
0.16002220940414788
0.14636952426012959
0.35425201748416546
0.18941671082080744
0.30997554748763906
0.11639699905327103
-0.23555599226481969
-0.30657768548213216
0.2886130728459685
0.07479835704443372
-0.2824994506778744
-0.31377921100637324
0.36774655978034954
-0.09894987647652413
-0.37337281418820273
-0.4206748229323148
-0.40265884729175627
-0.2984204117570846
-0.4407405026343259
0.5775522430557593
-0.523088553100355
-0.10208449464808843
0.3178919714130033
0.09124800689838833
-0.34059503567618665
-0.2847535282911661
0.28922568869722004
-0.3577987220268566
-0.20306747132206696
-0.3348078517515297
-0.33394525765693067
-0.4056308636697256
-0.16519916860184788
0.14221022940370837
0.14270048289875326
-0.22954561308499966
-0.33839387402936427
0.26003779849534703
-0.3903017703781381
-0.23161347022425272
0.15742211585490518
0.2407669389203502
0.16151797433095552
-0.33170048821893444
0.31607139241213394
-0.18152117259337316
-0.22125745006226397
0.23060597099580435
-0.15917373637736337
-0.2992113916011723
0.3782357058359561
-0.4024610752487129
0.23968048524473234
-0.43753036324194144
0.5258884224412752
-0.189232982476351
0.26003229963644386
0.24162723832996222
-0.28896863384899535
-0.3745477042328765
-0.0952292079833549
0.14877682012922155
-0.21603043089519705
0.3997311461659143
-0.19115219663406996
-0.29468109023446093
0.3124732730544378
0.274568819972902
0.47470677074151246
0.21185931163054286
-0.5070174418636743
-0.2634429508921005
-0.25070072896445306
0.39189719043249255
-0.20207224023910111
-0.2640846338009991
-0.16370483622887863
0.18232192798599217
-0.31372574234965195
-0.10517430105755388
0.24171215466325352
0.2254513960747181
-0.24021003818674547
-0.3300486442706281
0.22342156255546333
-0.21139207732200374
0.1651589837098827
0.285708094438089
-0.1937327897230556
-0.21939525957999018
0.21333237251350226
0.2115296443586504
0.4726795383573722
-0.31569270916430703
-0.18940064364859843
0.3038927794740371
0.2760996478737279
-0.19608666307117703
0.18049632931649764
0.24928778342287872
0.27104195919156243
0.22585403275233773
-0.2794566528363335
0.29287011770001664
-0.4958056187805342
-0.3869201561047394
-0.43061115689740453
-0.43931602753503207
0.1457798700844091
-0.20504481367775013
0.2454209418038482
0.30870003978108523
-0.37324463729973156
-0.4894195468954864
0.22438264770709698
0.27390106073729054
-0.35544211575058704
0.3106644024722959
0.3704321274434062
0.20352190860728356
-0.360916282889696
-0.5824667848161046
0.30799721416146425
0.2096537102858161
-0.2941599487919406
-0.16611571149125878
-0.2230337906119661
-0.2020011369994248
-0.2363714964125032
-0.38345646623107604
0.4019463784234046
-0.5336645654218561
-0.2911111923925627
-0.28783449668989225
-0.5300938753775017
-0.20638882359661823
-0.19958306828292452
0.22454719029674
0.2627723305180198
0.2701682854355196
-0.26284033770541476
-0.23020028770047066
-0.1277950124327484
0.20173355070179577
-0.27733744590985965
0.3425227301065781
-0.1428595671726351
0.22044124024808276
-0.13616003608381672
-0.2196739672270246
-0.14666467081295156
-0.2538267463495436
-0.08214952467761934
0.23123715354002575
-0.31345067524144854
0.22035740676270257
-0.20493528743154704
-0.169850042713906
0.24882000694087908
-0.27445190524590485
-0.35046612661856547
-0.2044540338737062
-0.33222811992374046
0.23527370691950336
0.1841964510607529
0.1818144436520412
0.1004908297353851
0.2058379110157959
0.44071471502853676
-0.433701713250341
-0.1473555451678637
0.25284328637274717
0.30760111912971144
0.4617302412264481
-0.10907368451075239
-0.13927643551519853
0.24542204051720196
-0.1712414917406886
0.14848319657933137
0.3098926758048559
-0.19893587498850002
-0.30793995733283386
-0.194113961932175
-0.1591492901617444
-0.23221965905445074
-0.19386006527453287
-0.15690115863858706
0.3159543567575143
-0.5201220470092177
-0.14618231204161491
0.19113222584942577
-0.27891007141132607
0.2127646151127529
0.21212267528140533
-0.22106142609930596
-0.28058066062029074
-0.2456930661249205
0.26856441359226385
-0.2809823394373011
-0.15576115639445623
-0.23928838357319057
-0.21173975982053847
-0.2858435032576448
-0.24660768776294276
0.0902776841324776
0.1906853583031114
-0.08551108320574133
-0.24760698367482062
0.3612314273264266
0.4207047530248063
-0.14504189254308086
-0.34506853049518377
-0.10634884172024427
-0.17326098602140977
0.4372941040625324
0.2646341611730185
-0.13882234916931457
-0.10260727444406939
0.21572668383861993
-0.31127561067818044
-0.24566106308331515
0.2937522633084462
-0.2733086455284384
0.2864460467805083
-0.22761739021735777
-0.24708996637388958
0.14272925237437556
-0.36503820955207633
-0.3012104205962906
0.18958571867663174
-0.21669557960407762
0.4320611194962554
0.1787668476048637
0.403282600584999
0.27216069626954503
0.3970259497803319
-0.2092260540705563
-0.21915394034561206
-0.3198637204879097
-0.24904681646611557
-0.20174880789570818
-0.343641138168347
0.24640127979536477
0.15124250897838926
0.40803858946702376
0.3017876389345097
-0.20621045242040575
0.376535409054721
-0.4558892181048544
-0.5134040250031952
0.4347403125542529
-0.2922298765234468
0.1542891027943609
-0.3142511758195427
-0.34851714953022206
0.28098400893163367
-0.26288859677355975
0.24205972857136623
0.29429571167272794
0.37051721961647965
0.2762060340486618
-0.23973733815865633
0.165409731166034
-0.21813816078991027
-0.17432883443435016
0.2037319401138163
-0.2128065294683284
-0.25768422992275875
-0.16835322213553783
-0.26318419765141504
0.2522150465531231
0.2170194769829979
-0.1849322995813743
0.13698226251979057
-0.20929016181172408
0.2155364402546416
0.3019133333933192
0.24683126227584967
0.22051480734303414
-0.20421065215710232
-0.37385312381914354
-0.318263748540908
-0.24137788714891895
-0.07342637961416341
0.42826740922655365
0.48264679826951673
-0.28158932432915923
0.2188630562528734
0.26718228636506464
-0.18342741138744106
0.23106213432227424
0.13885653538722936
0.34747375782836687
0.1670862946397719
0.28096428526131306
0.28672141916660143
-0.2865934616584361
-0.316949581555098
0.37683852725823275
-0.31970617993333916
0.19133517843769993
-0.5057792241563136
-0.2201953498848847
-0.4076348439208749
0.18616791142980826
-0.6087757854359663
0.16305864119492045
0.1908358502111047
0.3119632564927326
0.1921023232158753
-0.4216274169317411
-0.17370244537617688
-0.20986710089754548
-0.20701764552876292
-0.09895982798853525
-0.11710995413706536
-0.299700122649843
0.18563852412717502
0.17759343261587815
-0.4318585657261537
-0.26775226540424857
-0.19824393825430653
0.14769517430504803
-0.2253517265377103
-0.27400436181870497
0.3189994472159229
0.31827107959509027
-0.2894309138885623
-0.248705612360036
-0.3250641824625046
0.16228312533243328
0.16502281410023648
0.2032454177582176
0.375295497038627
0.19001180867738202
-0.3071519708499463
-0.22600536652919848
-0.3098753142822233
0.27899704700634526
0.20397935978057072
0.1537637982216665
-0.27900707211436976
0.14626397001917305
-0.27408511492959226
-0.23104514502260148
0.31695069682535576
-0.2181322222099736
0.11505097919465769
-0.35468802464984267
-0.3720136115204082
-0.21053081804544738
0.3262519794216185
-0.31164329387408407
-0.26832775284460136
-0.18612099147544836
-0.20245398974216894
0.23757556092455145
-0.2912392549332911
0.2926792469176042
0.28700308244643674
0.3305001155480505
0.3211698193403894
-0.201607717777745
0.15450233646414638
0.2660937811727822
0.4641111832035869
-0.4248587432083322
-0.08775647025754418
0.2687846088450295
-0.3576002511175665
0.3206528214972175
0.45926126213473306
-0.415186780866359
0.5262231558005402
0.6217478512038991
-0.3129093382681972
0.16808194368725007
-0.32630313207772
0.1958099332299069
0.24901733978821247
0.13690412129140156
-0.2898591792509596
-0.27891304283925106
0.5492970962614576
-0.42177385400484707
-0.22749897404361788
-0.35288259656494825
0.18432417889148542
0.15528557565464224
-0.27328214435725934
-0.39962723140667167
-0.305347731162925
-0.4319248958213086
-0.281319522990708
-0.2636902473101805
0.22965778674812232
-0.2943068431422064
0.15878741884512992
-0.23788645186109963
0.2408297066254439
0.14324057398172513
0.16184330095698357
-0.18227931691707472
0.2677308303219466
0.12411277338422293
-0.3545534033122027
0.24250322002193744
0.30393072038454716
0.16038060538667367
0.11927375638577833
-0.15247715596547393
-0.19335279481520157
0.23825855825234382
-0.32884780857526374
-0.19835081495836435
-0.26864540374187906
-0.3247001539452061
-0.38350173578749575
0.3267526538386637
-0.2140850650475918
-0.3367186545173235
0.270660460043474
-0.2611497086004684
-0.19622840745568093
-0.3065757931329999
-0.2615727914051197
-0.2693642654851842
0.22065042570964302
0.25341911692362107
-0.15096142824661102
0.15904415946014125
-0.16216639718498743
0.2801972750289315
-0.2400063128407152
-0.29540556402548107
-0.2532837412512313
-0.45271007752052395
-0.24535534506589732
0.28706425513443634
0.4251907445422763
-0.22382198309491114
0.1803349826436326
-0.19198303580670856
0.25133260546366715
-0.43701609460511026
-0.09254740484722701
0.12346657211033041
-0.4448466163587367
0.32275726365358937
0.26742768405237016
-0.4305082023193621
0.2295067809519962
0.1219186820298714
0.20402453940483062
-0.3727636120375206
0.21470620310530739
-0.13816580563350994
0.2934436569423497
-0.2572952659901044
-0.2833358313425957
-0.2142919785116359
0.1872106023532764
0.18003076352460648
0.14798676958173648
-0.2826185839760123
0.3344425300219541
-0.207924488103217
-0.1280291898343586
0.19502675536250974
-0.06956354359807866
0.2919984694753689
0.3422630765130426
-0.2357476918496928
0.19480441748787583
-0.2025819639647731
-0.31813412135750374
-0.3996115575695347
-0.2652680019291512
-0.3624892460650958
0.27200870439704306
-0.3048093640277446
0.2919406894803695
0.4207320072741321
0.4345850905768908
-0.19419468439488974
-0.3538232923089833
-0.4168367026591001
0.2609381450756406
0.5240033351370196
-0.3306985241679753
0.2329544050185373
0.3637299857572907
0.49065623301579614
0.21532276265153893
0.33090993300017646
0.3019808748759841
-0.23609561423645054
-0.3258090627593061
-0.29011258205296403
0.42478760366529117
-0.3587982743153784
-0.5675661809129674
0.1800049299475842
0.2748202082835509
0.20884915542200558
-0.34707281842389676
-0.24666712318688133
-0.3273718187890574
-0.38919136857563935
-0.2432967434565062
-0.18237505000934415
0.2534703043087213
-0.2597277144142103
0.18462532664254827
-0.2460788273095174
-0.16597225149381284
-0.20112163914859618
-0.20358467792021007
0.2915864117853303
-0.1324793887233282
-0.6065145355823555
-0.27498804164285523
-0.17697022259228987
0.21076795355389022
-0.2561046939017882
0.22015109597365032
-0.19070181875728945
-0.20022568239879424
0.3584440406314556
-0.3324078444965637
0.0629159628732885
0.1667878132333535
-0.36012840939836244
0.3802806143891968
-0.33665715256035333
0.4002764896955148
-0.48117515775966196
0.36301271610195246
-0.23702190024317993
-0.22710865909845185
0.2515225496313027
-0.48648975048768484
-0.2483547680130135
0.2948433533303162
0.19546949644942976
-0.29275715016427634
0.1745144099680363
0.32048012775580464
-0.29885772656304965
-0.23807782478901046
0.36969214251789045
-0.22321842635640088
0.4711367310024094
-0.17608383107672748
0.1252029195237387
-0.18410775532230836
-0.2473380330368147
-0.1455053262061535
-0.09202811691981795
-0.36619303053603486
-0.3895834300398018
-0.28336388815474073
-0.4362258472176072
-0.33213622899323664
-0.35292191845378945
0.2571554284593947
-0.2398763007882705
-0.35549972526230994
-0.17124090700578035
-0.1860913511928667
-0.2823823648767826
0.20797799234198872
-0.2642058163353459
0.1826168122999381
-0.21852445122382022
-0.17879083939867546
-0.22767175053642863
0.26104341295574135
-0.20108571555178875
0.1955504363106143
-0.1724394997908789
0.3832399484439095
-0.15511641542813456
0.4764009094003012
0.5435481435216512
0.24392530188240902
-0.5483290858998174
0.47904062775816947
-0.3345719998197196
0.3183981210740024
0.31422649255220614
0.3488642757157014
0.39458680192082535
-0.35088814927353645
0.39939939759720217
0.2607023560598663
-0.16166385627938418
0.22133348677873685
0.2078855506218216
-0.5926704206981136
-0.3575303789874837
0.2300124803706991
-0.1925229028606239
-0.24065739526500624
0.21613904398442976
0.29810295547172705
-0.25114273886192584
0.2255411135444828
-0.1512420668790257
0.19087437942340188
0.5432228641455158
0.40524492755291175
0.312118754863325
0.34821792160448944
-0.24499705399485946
-0.14796446814073907
-0.36136405961233775
0.44364215250432515
0.3244663229561339
-0.12269725100645427
0.25236017424655544
0.37689605962930894
-0.2768211174733976
-0.27181811617521856
0.2464920455640213
0.26660749115668586
-0.2822056705422946
-0.2896008073982003
-0.4952690599866424
0.15005056778360007
0.3490733012128666
0.08319712389093256
-0.3354744474897701
-0.3197351347440537
0.4139795413828911
0.28518954495121224
0.2636848597771107
0.35217308917292417
0.5238081131416964
-0.5687058975685756
-0.1708386470895385
-0.17871524682061357
-0.15210070420929786
-0.2475068546635627
-0.22259369294310832
0.25415428570499776
0.1936447335051543
0.2157849959189624
-0.1773193170631533
-0.19140902480177813
-0.2462784695882144
-0.36715572320920664
0.22035458760049456
-0.21762219586102186
0.11950142231451494
0.28441844406753514
0.19106997513485716
-0.3015192288692302
0.1928658555539627
0.25128975584885715
-0.19355809479925506
0.18587673782450215
0.33892730183171427
0.1036090587142248
-0.21698699813787695
-0.3323356767286872
-0.1880475455804825
-0.275243815406772
0.1051695191925182
0.13549827665812733
-0.2309075115313052
0.21785131682192188
0.39470780328404204
-0.0953977725445155
-0.3716336632556515
0.4714423446718829
0.5425601810642876
-0.32824618339050987
-0.29903342542670175
-0.15550466510305377
-0.2298152287006734
-0.27227257055125637
0.13942748845490385
0.17053976323568143
-0.25411771772696107
-0.14676850945797631
-0.17800217495089263
-0.22448196242427126
0.37126149097680805
0.4018996273205659
-0.4186330371675193
-0.21098392188767592
-0.4932715513756465
0.13829971657549966
0.36237902477006523
-0.17287589652341026
-0.31766889582643854
-0.3947332915799781
-0.18486562627183908
-0.18345436868970938
-0.3220668127169853
0.444875041763863
0.33493085779087295
-0.3882122164923196
-0.16470459955267927
-0.25683191180464626
0.22417242482460525
